{"learner":{"attributes":{"best_iteration":"82","best_score":"0.7493403132448077"},"feature_names":["RIDAGEYR","LBXSCR","LBXSBU","LBXSUA","avg_systolic","BMXBMI","SLD010H"],"feature_types":["float","float","float","float","float","float","float"],"gradient_booster":{"model":{"cats":{"enc":[],"feature_segments":[],"sorted_idx":[]},"gbtree_model_param":{"num_parallel_tree":"1","num_trees":"103"},"iteration_indptr":[0,1,2,3,4,5,6,7,8,9,10,11,12,13,14,15,16,17,18,19,20,21,22,23,24,25,26,27,28,29,30,31,32,33,34,35,36,37,38,39,40,41,42,43,44,45,46,47,48,49,50,51,52,53,54,55,56,57,58,59,60,61,62,63,64,65,66,67,68,69,70,71,72,73,74,75,76,77,78,79,80,81,82,83,84,85,86,87,88,89,90,91,92,93,94,95,96,97,98,99,100,101,102,103],"tree_info":[0,0,0,0,0,0,0,0,0,0,0,0,0,0,0,0,0,0,0,0,0,0,0,0,0,0,0,0,0,0,0,0,0,0,0,0,0,0,0,0,0,0,0,0,0,0,0,0,0,0,0,0,0,0,0,0,0,0,0,0,0,0,0,0,0,0,0,0,0,0,0,0,0,0,0,0,0,0,0,0,0,0,0,0,0,0,0,0,0,0,0,0,0,0,0,0,0,0,0,0,0,0,0],"trees":[{"base_weights":[2.8574512E-8,-6.1485237E-1,1.5140115E0,-9.915662E-1,-1.6844566E-1,7.755876E-1,1.7964777E0,1.1718564E0,-1.0462079E0,-1.1407079E0,1.9125552E-1,-1.0659488E0,1.2630969E0,-5.555556E-2,1.8107345E0,-5.555556E-2,7.231405E-2,-1.4794621E0,-7.7086157E-1,6.9902915E-1,-1.4053777E0,2.9552746E-1,-7.297477E-1,-9.5348835E-2,7.923554E-2,9.3602544E-1,1.7913585E0,1.6919161E0,9.704136E-2,6.763285E-2,-7.847253E-2,-6.7800425E-2,-2.5396917E-2,7.231405E-2,-8.0000006E-2,-9.882353E-2,-7.7110003E-3,2.6644757E-3,3.999666E-2,3.957621E-3,-9.384616E-2,-8.4E-2,5.9531588E-2,9.4644286E-2,-5E-2,-6.666667E-2,8.664951E-2],"categories":[],"categories_nodes":[],"categories_segments":[],"categories_sizes":[],"default_left":[0,0,0,0,0,0,0,0,0,0,0,0,0,0,0,0,0,0,0,0,0,0,0,0,0,0,0,0,0,0,0,0,0,0,0,0,0,0,0,0,0,0,0,0,0,0,0],"id":0,"left_children":[1,3,5,7,9,11,13,15,17,19,21,23,25,-1,27,-1,-1,29,31,33,35,37,39,-1,-1,41,43,45,-1,-1,-1,-1,-1,-1,-1,-1,-1,-1,-1,-1,-1,-1,-1,-1,-1,-1,-1],"loss_changes":[1.4922224E3,1.9154843E2,9.5173584E1,7.428998E1,1.831081E2,1.1792871E2,1.5861938E1,1.1441666E1,7.083893E1,6.9818375E1,3.695721E1,6.4826256E1,1.6142715E1,0E0,1.8616943E0,0E0,0E0,6.159906E1,5.638965E1,3.400645E1,8.82406E1,4.2036842E1,3.652214E1,0E0,0E0,4.5820824E1,1.2759338E1,2.4897095E1,0E0,0E0,0E0,0E0,0E0,0E0,0E0,0E0,0E0,0E0,0E0,0E0,0E0,0E0,0E0,0E0,0E0,0E0,0E0],"parents":[2147483647,0,0,1,1,2,2,3,3,4,4,5,5,6,6,7,7,8,8,9,9,10,10,11,11,12,12,14,14,17,17,18,18,19,19,20,20,21,21,22,22,25,25,26,26,27,27],"right_children":[2,4,6,8,10,12,14,16,18,20,22,24,26,-1,28,-1,-1,30,32,34,36,38,40,-1,-1,42,44,46,-1,-1,-1,-1,-1,-1,-1,-1,-1,-1,-1,-1,-1,-1,-1,-1,-1,-1,-1],"split_conditions":[1.2E0,5.8E1,1.41E0,9.3E1,8.3E-1,1.9E1,1.4E1,6.4E-1,1.18E2,1E1,1.5333333E2,1.8E2,1.6066667E2,-5.555556E-2,1.99E0,-5.555556E-2,7.231405E-2,2.1E0,5.3E0,6.1E1,8.5E0,1.04E0,2.7E1,-9.5348835E-2,7.923554E-2,5.6E0,1.8066667E2,5.3E0,9.704136E-2,6.763285E-2,-7.847253E-2,-6.7800425E-2,-2.5396917E-2,7.231405E-2,-8.0000006E-2,-9.882353E-2,-7.7110003E-3,2.6644757E-3,3.999666E-2,3.957621E-3,-9.384616E-2,-8.4E-2,5.9531588E-2,9.4644286E-2,-5E-2,-6.666667E-2,8.664951E-2],"split_indices":[1,0,1,4,1,2,2,1,4,2,4,4,4,0,1,0,0,3,3,0,6,1,5,0,0,3,4,3,0,0,0,0,0,0,0,0,0,0,0,0,0,0,0,0,0,0,0],"split_type":[0,0,0,0,0,0,0,0,0,0,0,0,0,0,0,0,0,0,0,0,0,0,0,0,0,0,0,0,0,0,0,0,0,0,0,0,0,0,0,0,0,0,0,0,0,0,0],"sum_hessian":[1.601E3,1.1390261E3,4.6197388E2,6.170709E2,5.219552E2,1.2885822E2,3.331157E2,1.4697762E1,6.0237317E2,1.403694E2,3.8158582E2,2.672388E1,1.0213433E2,1.25E0,3.318657E2,1.25E0,1.3447762E1,2.323694E2,3.7000372E2,1.7447762E1,1.22921646E2,3.4338806E2,3.819776E1,2.05E1,6.223881E0,6.4791046E1,3.7343285E1,1.8076866E2,1.5109702E2,6.723881E0,2.2564552E2,1.13421646E2,2.565821E2,1.3447762E1,4E0,8.4E1,3.8921642E1,2.3272762E2,1.10660446E2,2.2947762E1,1.525E1,5.25E0,5.9541046E1,3.6343285E1,1E0,2E0,1.7876866E2],"tree_param":{"num_deleted":"0","num_feature":"7","num_nodes":"47","size_leaf_vector":"1"}},{"base_weights":[-1.1171453E-4,-6.025718E-1,1.3998189E0,-9.6551687E-1,-1.7149359E-1,6.969527E-1,1.7104511E0,1.1156739E0,-1.0189276E0,-1.0862883E0,1.753142E-1,-6.967771E-1,1.181134E0,-5.40359E-2,1.7241999E0,-5.617723E-2,6.936425E-2,-1.3878882E0,-7.1501E-1,6.6453785E-1,-1.3382405E0,2.9332072E-1,-5.680481E-1,7.0403E-2,-9.258017E-2,1.3119878E0,3.9035857E-2,1.6104722E0,9.2440836E-2,6.475456E-2,-7.310867E-2,-4.7264256E-2,8.978659E-3,6.9034E-2,-7.690003E-2,-9.417131E-2,-7.335206E-3,2.8393979E-3,4.4731118E-2,-6.596672E-2,7.227635E-2,-5.5739015E-2,6.770336E-2,-8.55047E-2,8.317486E-2,-6.449301E-2,8.249762E-2],"categories":[],"categories_nodes":[],"categories_segments":[],"categories_sizes":[],"default_left":[0,0,0,0,0,0,0,0,0,0,0,0,0,0,0,0,0,0,0,0,0,0,0,0,0,0,0,0,0,0,0,0,0,0,0,0,0,0,0,0,0,0,0,0,0,0,0],"id":1,"left_children":[1,3,5,7,9,11,13,15,17,19,21,23,25,-1,27,-1,-1,29,31,33,35,37,39,-1,-1,41,43,45,-1,-1,-1,-1,-1,-1,-1,-1,-1,-1,-1,-1,-1,-1,-1,-1,-1,-1,-1],"loss_changes":[1.3505015E3,1.7498627E2,1.0399414E2,6.867145E1,1.629209E2,1.016055E2,1.4658569E1,1.1094732E1,6.548901E1,6.3149643E1,3.2868164E1,9.7734055E1,1.6569275E1,0E0,1.7301636E0,0E0,0E0,5.5052673E1,6.756395E1,3.1183914E1,8.009088E1,4.579991E1,7.9681755E1,0E0,0E0,1.1695618E1,3.8256508E1,2.2903137E1,0E0,0E0,0E0,0E0,0E0,0E0,0E0,0E0,0E0,0E0,0E0,0E0,0E0,0E0,0E0,0E0,0E0,0E0,0E0],"parents":[2147483647,0,0,1,1,2,2,3,3,4,4,5,5,6,6,7,7,8,8,9,9,10,10,11,11,12,12,14,14,17,17,18,18,19,19,20,20,21,21,22,22,25,25,26,26,27,27],"right_children":[2,4,6,8,10,12,14,16,18,20,22,24,26,-1,28,-1,-1,30,32,34,36,38,40,-1,-1,42,44,46,-1,-1,-1,-1,-1,-1,-1,-1,-1,-1,-1,-1,-1,-1,-1,-1,-1,-1,-1],"split_conditions":[1.18E0,5.8E1,1.41E0,9.3E1,8.3E-1,1.9E1,1.4E1,9.0666664E1,1.20666664E2,1E1,8E1,4.6E0,2.8E1,-5.40359E-2,1.99E0,-5.617723E-2,6.936425E-2,2.1E0,8.5E0,6.1E1,8.5E0,7.4E1,3.27E1,7.0403E-2,-9.258017E-2,3.4E1,3.9E1,5.3E0,9.2440836E-2,6.475456E-2,-7.310867E-2,-4.7264256E-2,8.978659E-3,6.9034E-2,-7.690003E-2,-9.417131E-2,-7.335206E-3,2.8393979E-3,4.4731118E-2,-6.596672E-2,7.227635E-2,-5.5739015E-2,6.770336E-2,-8.55047E-2,8.317486E-2,-6.449301E-2,8.249762E-2],"split_indices":[1,0,1,4,1,2,2,4,4,2,0,3,2,0,1,0,0,3,6,0,6,0,5,0,0,0,2,3,0,0,0,0,0,0,0,0,0,0,0,0,0,0,0,0,0,0,0],"split_type":[0,0,0,0,0,0,0,0,0,0,0,0,0,0,0,0,0,0,0,0,0,0,0,0,0,0,0,0,0,0,0,0,0,0,0,0,0,0,0,0,0,0,0,0,0,0,0],"sum_hessian":[1.5992539E3,1.118484E3,4.8076996E2,6.065561E2,5.1192792E2,1.4834776E2,3.324222E2,1.4679233E1,5.9187683E2,1.401401E2,3.717878E2,3.813525E1,1.1021252E2,1.249036E0,3.3117316E2,1.2486348E0,1.3430597E1,2.657209E2,3.2615598E2,1.7423803E1,1.2271631E2,3.213758E2,5.041202E1,1.3432785E1,2.4702467E1,9.87497E1,1.1462816E1,1.804313E2,1.5074185E2,6.7161975E0,2.5900467E2,2.5934195E2,6.6814026E1,1.3430197E1,3.9936068E0,8.379524E1,3.8921066E1,2.3143222E2,8.994357E1,3.6964832E1,1.3447188E1,1.2486084E0,9.750109E1,5.494225E0,5.968591E0,1.9977794E0,1.7843353E2],"tree_param":{"num_deleted":"0","num_feature":"7","num_nodes":"47","size_leaf_vector":"1"}},{"base_weights":[-1.2276006E-4,-5.73736E-1,1.3369079E0,-9.1959894E-1,-1.6331905E-1,6.6436404E-1,1.6348339E0,1.0639858E0,-9.7047263E-1,-1.037631E0,1.6675848E-1,-6.6563594E-1,1.1257088E0,-5.2601963E-2,1.6481594E0,-5.4623302E-2,6.635457E-2,-1.3239185E0,-6.801703E-1,6.33253E-1,-1.2782768E0,-2.046541E-2,6.2674844E-1,6.730171E-2,-8.8626735E-2,1.2504969E0,3.7052665E-2,1.5382394E0,8.844153E-2,6.211512E-2,-6.975275E-2,-4.4977285E-2,8.535085E-3,6.605282E-2,-7.410019E-2,-9.014118E-2,-6.9779265E-3,-9.3655095E-2,4.400564E-3,4.0649623E-2,-8.608708E-2,4.8161075E-2,8.486109E-2,-8.195777E-2,7.990628E-2,-6.2479563E-2,7.881715E-2],"categories":[],"categories_nodes":[],"categories_segments":[],"categories_sizes":[],"default_left":[0,0,0,0,0,0,0,0,0,0,0,0,0,0,0,0,0,0,0,0,0,0,0,0,0,0,0,0,0,0,0,0,0,0,0,0,0,0,0,0,0,0,0,0,0,0,0],"id":2,"left_children":[1,3,5,7,9,11,13,15,17,19,21,23,25,-1,27,-1,-1,29,31,33,35,37,39,-1,-1,41,43,45,-1,-1,-1,-1,-1,-1,-1,-1,-1,-1,-1,-1,-1,-1,-1,-1,-1,-1,-1],"loss_changes":[1.224445E3,1.584375E2,9.495276E1,6.21933E1,1.4797374E2,9.206926E1,1.3602356E1,1.0319349E1,5.978546E1,5.7302628E1,3.2105686E1,8.9134415E1,1.5015686E1,0E0,1.6594238E0,0E0,0E0,5.0229767E1,6.1151505E1,2.866403E1,7.330252E1,5.358573E1,4.8563766E1,0E0,0E0,1.1126495E1,3.5150974E1,2.1142365E1,0E0,0E0,0E0,0E0,0E0,0E0,0E0,0E0,0E0,0E0,0E0,0E0,0E0,0E0,0E0,0E0,0E0,0E0,0E0],"parents":[2147483647,0,0,1,1,2,2,3,3,4,4,5,5,6,6,7,7,8,8,9,9,10,10,11,11,12,12,14,14,17,17,18,18,19,19,20,20,21,21,22,22,25,25,26,26,27,27],"right_children":[2,4,6,8,10,12,14,16,18,20,22,24,26,-1,28,-1,-1,30,32,34,36,38,40,-1,-1,42,44,46,-1,-1,-1,-1,-1,-1,-1,-1,-1,-1,-1,-1,-1,-1,-1,-1,-1,-1,-1],"split_conditions":[1.18E0,5.8E1,1.41E0,9.3E1,8.3E-1,1.9E1,1.4E1,9.0666664E1,1.20666664E2,1E1,1.04E0,4.6E0,2.8E1,-5.2601963E-2,1.99E0,-5.4623302E-2,6.635457E-2,2.1E0,8.5E0,6.1E1,8.5E0,1.14666664E2,8E1,6.730171E-2,-8.8626735E-2,1.56E2,3.9E1,5.3E0,8.844153E-2,6.211512E-2,-6.975275E-2,-4.4977285E-2,8.535085E-3,6.605282E-2,-7.410019E-2,-9.014118E-2,-6.9779265E-3,-9.3655095E-2,4.400564E-3,4.0649623E-2,-8.608708E-2,4.8161075E-2,8.486109E-2,-8.195777E-2,7.990628E-2,-6.2479563E-2,7.881715E-2],"split_indices":[1,0,1,4,1,2,2,4,4,2,1,3,2,0,1,0,0,3,6,0,6,4,0,0,0,4,2,3,0,0,0,0,0,0,0,0,0,0,0,0,0,0,0,0,0,0,0],"split_type":[0,0,0,0,0,0,0,0,0,0,0,0,0,0,0,0,0,0,0,0,0,0,0,0,0,0,0,0,0,0,0,0,0,0,0,0,0,0,0,0,0,0,0,0,0,0,0],"sum_hessian":[1.594536E3,1.1162241E3,4.783119E2,6.0507776E2,5.111464E2,1.478293E2,3.304826E2,1.4632612E1,5.904451E2,1.3949838E2,3.71648E2,3.7958065E1,1.0987123E2,1.2462543E0,3.2923636E2,1.2483939E0,1.3384218E1,2.6465936E2,3.2578577E2,1.7356298E1,1.2214208E2,2.64818E2,1.0683001E2,1.339608E1,2.4561985E1,9.843893E1,1.1432304E1,1.7948749E2,1.4974886E2,6.694505E0,2.5796487E2,2.589619E2,6.682385E1,1.33808155E1,3.9754832E0,8.322264E1,3.891944E1,1.3748292E1,2.510697E2,9.958627E1,7.2437396E0,6.1832485E1,3.660644E1,5.488735E0,5.943569E0,1.991423E0,1.7749606E2],"tree_param":{"num_deleted":"0","num_feature":"7","num_nodes":"47","size_leaf_vector":"1"}},{"base_weights":[-1.6849079E-4,-5.4712194E-1,1.2809848E0,-8.771859E-1,-1.5605515E-1,6.356532E-1,1.5677639E0,1.0166345E0,-9.2570186E-1,-9.9376696E-1,1.5815124E-1,-6.379495E-1,1.0763023E0,-5.1246453E-2,1.5807345E0,-5.5160668E-2,1.278192E0,-1.2658471E0,-6.475455E-1,6.0468704E-1,-1.2242682E0,2.5299588E-1,-6.7352223E-1,6.447195E-2,-8.5156195E-2,1.1955333E0,3.5284944E-2,1.4736129E0,8.493327E-2,7.7495724E-2,4.512866E-2,5.968171E-2,-6.670719E-2,-4.284319E-2,8.113776E-3,6.332557E-2,-7.15578E-2,-8.661889E-2,-6.63821E-3,2.2143424E-3,3.63311E-2,5.800219E-3,-8.955447E-2,-5.5528432E-2,6.181891E-2,-7.878898E-2,7.697559E-2,-6.0608532E-2,7.552581E-2],"categories":[],"categories_nodes":[],"categories_segments":[],"categories_sizes":[],"default_left":[0,0,0,0,0,0,0,0,0,0,0,0,0,0,0,0,0,0,0,0,0,0,0,0,0,0,0,0,0,0,0,0,0,0,0,0,0,0,0,0,0,0,0,0,0,0,0,0,0],"id":3,"left_children":[1,3,5,7,9,11,13,15,17,19,21,23,25,-1,27,-1,29,31,33,35,37,39,41,-1,-1,43,45,47,-1,-1,-1,-1,-1,-1,-1,-1,-1,-1,-1,-1,-1,-1,-1,-1,-1,-1,-1,-1,-1],"loss_changes":[1.1135448E3,1.4361209E2,8.699396E1,5.6411377E1,1.3464548E2,8.3724655E1,1.2666748E1,1.0035578E1,5.492334E1,5.2141006E1,2.9548294E1,8.1568405E1,1.3648476E1,0E0,1.6309814E0,0E0,6.1735153E-2,4.5937897E1,5.54272E1,2.6403818E1,6.757344E1,3.3086586E1,3.408858E1,0E0,0E0,1.0692047E1,3.239196E1,1.957547E1,0E0,0E0,0E0,0E0,0E0,0E0,0E0,0E0,0E0,0E0,0E0,0E0,0E0,0E0,0E0,0E0,0E0,0E0,0E0,0E0,0E0],"parents":[2147483647,0,0,1,1,2,2,3,3,4,4,5,5,6,6,7,7,8,8,9,9,10,10,11,11,12,12,14,14,16,16,17,17,18,18,19,19,20,20,21,21,22,22,25,25,26,26,27,27],"right_children":[2,4,6,8,10,12,14,16,18,20,22,24,26,-1,28,-1,30,32,34,36,38,40,42,-1,-1,44,46,48,-1,-1,-1,-1,-1,-1,-1,-1,-1,-1,-1,-1,-1,-1,-1,-1,-1,-1,-1,-1,-1],"split_conditions":[1.18E0,5.8E1,1.41E0,9.3E1,8.3E-1,1.9E1,1.4E1,6.4E-1,1.20666664E2,1E1,1.5333333E2,4.6E0,2.8E1,-5.1246453E-2,1.99E0,-5.5160668E-2,2.4E1,2.1E0,8.5E0,6.1E1,8.5E0,1.04E0,2.7E1,6.447195E-2,-8.5156195E-2,3.4E1,3.9E1,5.3E0,8.493327E-2,7.7495724E-2,4.512866E-2,5.968171E-2,-6.670719E-2,-4.284319E-2,8.113776E-3,6.332557E-2,-7.15578E-2,-8.661889E-2,-6.63821E-3,2.2143424E-3,3.63311E-2,5.800219E-3,-8.955447E-2,-5.5528432E-2,6.181891E-2,-7.878898E-2,7.697559E-2,-6.0608532E-2,7.552581E-2],"split_indices":[1,0,1,4,1,2,2,1,4,2,4,3,2,0,1,0,0,3,6,0,6,1,5,0,0,0,2,3,0,0,0,0,0,0,0,0,0,0,0,0,0,0,0,0,0,0,0,0,0],"split_type":[0,0,0,0,0,0,0,0,0,0,0,0,0,0,0,0,0,0,0,0,0,0,0,0,0,0,0,0,0,0,0,0,0,0,0,0,0,0,0,0,0,0,0,0,0,0,0,0,0],"sum_hessian":[1.587118E3,1.1126678E3,4.7445026E2,6.02722E2,5.0994586E2,1.46962E2,3.2748825E2,1.455644E1,5.881655E2,1.3850696E2,3.714389E2,3.7661545E1,1.0930046E2,1.2418151E0,3.2624643E2,1.245353E0,1.3311087E1,2.6300153E2,3.25164E2,1.7251287E1,1.2125568E2,3.340405E2,3.7398422E1,1.3330329E1,2.4331219E1,9.793521E1,1.1365251E1,1.7802998E2,1.4821643E2,5.9097104E0,7.4013762E0,6.660686E0,2.5634082E2,2.583333E2,6.68307E1,1.3304177E1,3.94711E0,8.2338745E1,3.8916927E1,2.3262498E2,1.014155E2,2.2440853E1,1.4957569E1,1.248616E0,9.668659E1,5.4647737E0,5.900477E0,1.9813685E0,1.7604861E2],"tree_param":{"num_deleted":"0","num_feature":"7","num_nodes":"49","size_leaf_vector":"1"}},{"base_weights":[-1.9716908E-4,-5.221751E-1,1.2303616E0,-8.376998E-1,-1.4909023E-1,6.0856664E-1,1.5077916E0,9.76065E-1,-8.8412285E-1,-9.5392853E-1,1.5023889E-1,-6.131456E-1,1.029747E0,-4.9962826E-2,1.5204633E0,-5.3668875E-2,1.2307912E0,-1.2127554E0,-6.1690545E-1,5.784431E-1,-1.1752516E0,-8.6222254E-2,1.89507E-1,1.237479E0,-8.208642E-2,7.640521E-1,1.5152373E0,1.4153324E0,8.183121E-2,7.590611E-2,4.2314887E-2,5.742715E-2,-6.3923486E-2,-4.0844675E-2,7.7135745E-3,6.081571E-2,-6.9237694E-2,-8.351656E-2,-6.315142E-3,3.749163E-2,-2.6168695E-4,4.3803584E-2,7.494106E-2,-8.14918E-2,4.7672037E-2,8.173813E-2,-5.566411E-2,-5.8864523E-2,7.255904E-2],"categories":[],"categories_nodes":[],"categories_segments":[],"categories_sizes":[],"default_left":[0,0,0,0,0,0,0,0,0,0,0,0,0,0,0,0,0,0,0,0,0,0,0,0,0,0,0,0,0,0,0,0,0,0,0,0,0,0,0,0,0,0,0,0,0,0,0,0,0],"id":4,"left_children":[1,3,5,7,9,11,13,15,17,19,21,23,25,-1,27,-1,29,31,33,35,37,-1,39,41,-1,43,45,47,-1,-1,-1,-1,-1,-1,-1,-1,-1,-1,-1,-1,-1,-1,-1,-1,-1,-1,-1,-1,-1],"loss_changes":[1.0145012E3,1.3042426E2,8.023151E1,5.143683E1,1.2285605E2,7.617433E1,1.1831604E1,9.394472E0,5.0727295E1,4.7557327E1,2.7722534E1,7.486765E1,1.2972954E1,0E0,1.6326904E0,0E0,2.86314E-1,4.209854E1,5.0300377E1,2.4368069E1,6.2681366E1,0E0,3.9877163E1,3.1887054E-2,0E0,3.4567368E1,1.36736145E1,1.8172058E1,0E0,0E0,0E0,0E0,0E0,0E0,0E0,0E0,0E0,0E0,0E0,0E0,0E0,0E0,0E0,0E0,0E0,0E0,0E0,0E0,0E0],"parents":[2147483647,0,0,1,1,2,2,3,3,4,4,5,5,6,6,7,7,8,8,9,9,10,10,11,11,12,12,14,14,16,16,17,17,18,18,19,19,20,20,22,22,23,23,25,25,26,26,27,27],"right_children":[2,4,6,8,10,12,14,16,18,20,22,24,26,-1,28,-1,30,32,34,36,38,-1,40,42,-1,44,46,48,-1,-1,-1,-1,-1,-1,-1,-1,-1,-1,-1,-1,-1,-1,-1,-1,-1,-1,-1,-1,-1],"split_conditions":[1.18E0,5.8E1,1.41E0,9.3E1,8.3E-1,1.9E1,1.4E1,6.4E-1,1.20666664E2,1E1,1.06666664E2,4.6E0,1.6066667E2,-4.9962826E-2,1.99E0,-5.3668875E-2,4.5E0,2.1E0,8.5E0,6.1E1,8.5E0,-8.6222254E-2,1.22E2,4.5E0,-8.208642E-2,5.4E0,1.8066667E2,5.3E0,8.183121E-2,7.590611E-2,4.2314887E-2,5.742715E-2,-6.3923486E-2,-4.0844675E-2,7.7135745E-3,6.081571E-2,-6.9237694E-2,-8.351656E-2,-6.315142E-3,3.749163E-2,-2.6168695E-4,4.3803584E-2,7.494106E-2,-8.14918E-2,4.7672037E-2,8.173813E-2,-5.566411E-2,-5.8864523E-2,7.255904E-2],"split_indices":[1,0,1,4,1,2,2,1,4,2,4,3,4,0,1,0,6,3,6,0,6,0,4,3,0,3,4,3,0,0,0,0,0,0,0,0,0,0,0,0,0,0,0,0,0,0,0,0,0],"split_type":[0,0,0,0,0,0,0,0,0,0,0,0,0,0,0,0,0,0,0,0,0,0,0,0,0,0,0,0,0,0,0,0,0,0,0,0,0,0,0,0,0,0,0,0,0,0,0,0,0],"sum_hessian":[1.5774214E3,1.1080043E3,4.694171E2,5.996359E2,5.0836838E2,1.4581044E2,3.236067E2,1.4464836E1,5.851711E2,1.372209E2,3.7114746E2,3.7263863E1,1.0854658E2,1.2358708E0,3.2237082E2,1.2437989E0,1.3221037E1,2.608414E2,3.2432968E2,1.7114172E1,1.20106735E2,6.7342753E0,3.644132E2,1.323978E1,2.4024082E1,7.1816986E1,3.672959E1,1.7614021E2,1.4623059E2,5.879176E0,7.341861E0,6.616433E0,2.5422496E2,2.5749472E2,6.683496E1,1.3204334E1,3.9098372E0,8.1193085E1,3.8913647E1,9.32514E1,2.711618E2,7.3826275E0,5.8571525E0,4.7075386E0,6.710944E1,3.5493675E1,1.2359165E0,1.968024E0,1.741722E2],"tree_param":{"num_deleted":"0","num_feature":"7","num_nodes":"49","size_leaf_vector":"1"}},{"base_weights":[-1.9214682E-4,-4.9872854E-1,1.184453E0,-8.008652E-1,-1.4249663E-1,5.8383733E-1,1.4537709E0,9.382934E-1,-8.453298E-1,-9.1750014E-1,1.4265658E-1,-5.8919424E-1,9.863439E-1,-4.874517E-2,1.46619E0,-5.3566117E-2,1.1907673E0,-1.1837919E0,-5.908722E-1,5.541967E-1,-1.1304564E0,2.500823E-1,-5.336212E-1,1.1931436E0,-7.935284E-2,7.293258E-1,1.4598501E0,1.3623942E0,7.90688E-2,4.097601E-2,7.3403284E-2,-4.419565E-2,-8.669615E-2,-2.0120582E-2,-8.781936E-2,5.8493283E-2,-6.711059E-2,-8.0765545E-2,-6.0079E-3,1.4703865E-3,4.0624678E-2,-6.2320095E-2,6.877228E-2,4.207046E-2,7.2487816E-2,-7.8344315E-2,4.5575455E-2,7.8857824E-2,-5.415478E-2,-5.7234157E-2,6.9865406E-2],"categories":[],"categories_nodes":[],"categories_segments":[],"categories_sizes":[],"default_left":[0,0,0,0,0,0,0,0,0,0,0,0,0,0,0,0,0,0,0,0,0,0,0,0,0,0,0,0,0,0,0,0,0,0,0,0,0,0,0,0,0,0,0,0,0,0,0,0,0,0,0],"id":5,"left_children":[1,3,5,7,9,11,13,15,17,19,21,23,25,-1,27,-1,29,31,33,35,37,39,41,43,-1,45,47,49,-1,-1,-1,-1,-1,-1,-1,-1,-1,-1,-1,-1,-1,-1,-1,-1,-1,-1,-1,-1,-1,-1,-1],"loss_changes":[9.260787E2,1.186694E2,7.427722E1,4.695465E1,1.1232706E2,6.925778E1,1.1080811E1,9.066521E0,4.947473E1,4.3465645E1,2.7159012E1,6.9096306E1,1.2160233E1,0E0,1.6564941E0,0E0,2.4996758E-1,3.9549377E1,7.27796E1,2.2527645E1,5.8459656E1,3.990075E1,7.1535065E1,5.5776596E-2,0E0,3.1729843E1,1.2815308E1,1.6907867E1,0E0,0E0,0E0,0E0,0E0,0E0,0E0,0E0,0E0,0E0,0E0,0E0,0E0,0E0,0E0,0E0,0E0,0E0,0E0,0E0,0E0,0E0,0E0],"parents":[2147483647,0,0,1,1,2,2,3,3,4,4,5,5,6,6,7,7,8,8,9,9,10,10,11,11,12,12,14,14,16,16,17,17,18,18,19,19,20,20,21,21,22,22,23,23,25,25,26,26,27,27],"right_children":[2,4,6,8,10,12,14,16,18,20,22,24,26,-1,28,-1,30,32,34,36,38,40,42,44,-1,46,48,50,-1,-1,-1,-1,-1,-1,-1,-1,-1,-1,-1,-1,-1,-1,-1,-1,-1,-1,-1,-1,-1,-1,-1],"split_conditions":[1.18E0,5.8E1,1.41E0,9.3E1,8.3E-1,1.9E1,1.4E1,9.0666664E1,5.3E0,1E1,8E1,4.6E0,1.6066667E2,-4.874517E-2,1.99E0,-5.3566117E-2,3.07E1,2.87E1,6.9E0,6.1E1,8.5E0,7.4E1,3.27E1,4.5E0,-7.935284E-2,5.4E0,1.8066667E2,5.3E0,7.90688E-2,4.097601E-2,7.3403284E-2,-4.419565E-2,-8.669615E-2,-2.0120582E-2,-8.781936E-2,5.8493283E-2,-6.711059E-2,-8.0765545E-2,-6.0079E-3,1.4703865E-3,4.0624678E-2,-6.2320095E-2,6.877228E-2,4.207046E-2,7.2487816E-2,-7.8344315E-2,4.5575455E-2,7.8857824E-2,-5.415478E-2,-5.7234157E-2,6.9865406E-2],"split_indices":[1,0,1,4,1,2,2,4,3,2,0,3,4,0,1,0,5,5,3,0,6,0,5,3,0,3,4,3,0,0,0,0,0,0,0,0,0,0,0,0,0,0,0,0,0,0,0,0,0,0,0],"split_type":[0,0,0,0,0,0,0,0,0,0,0,0,0,0,0,0,0,0,0,0,0,0,0,0,0,0,0,0,0,0,0,0,0,0,0,0,0,0,0,0,0,0,0,0,0,0,0,0,0,0,0],"sum_hessian":[1.5660599E3,1.102621E3,4.63439E2,5.959339E2,5.0668704E2,1.4445421E2,3.189848E2,1.4355142E1,5.815788E2,1.356885E2,3.7099854E2,3.678558E1,1.07668625E2,1.2285668E0,3.1775623E2,1.2402031E0,1.3114939E1,2.4802313E2,3.3355566E2,1.6949774E1,1.1873874E2,3.2068793E2,5.0310604E1,1.3132749E1,2.3652832E1,7.1434425E1,3.62342E1,1.7388953E2,1.438667E2,7.2987456E0,5.816193E0,1.6220897E2,8.5814156E1,2.8828586E2,4.5269787E1,1.3084883E1,3.8648915E0,7.9828995E1,3.890974E1,2.3107341E2,8.961452E1,3.688581E1,1.3424795E1,7.344577E0,5.7881713E0,4.692335E0,6.6742096E1,3.4999462E1,1.2347373E0,1.9517704E0,1.7193776E2],"tree_param":{"num_deleted":"0","num_feature":"7","num_nodes":"51","size_leaf_vector":"1"}},{"base_weights":[-2.499676E-4,-4.765929E-1,1.1425712E0,-8.871698E-1,-2.3615351E-1,5.610208E-1,1.4047829E0,-9.56926E-1,3.0440232E-1,-5.733908E-1,1.806002E-1,-5.673699E-1,9.4615644E-1,-4.7588192E-2,1.4169885E0,-1.0318516E0,2.610347E-1,-7.3316336E-2,1.2557601E0,-7.751328E-1,2.2119662E-1,2.6983246E-1,-8.757668E-2,1.1519285E0,-7.6903924E-2,1.05806E0,-2.0323047E-2,1.3139884E0,7.659315E-2,-8.424532E-2,-4.262058E-2,7.998256E-2,-8.11077E-2,-5.68407E-2,8.148417E-2,-6.0529273E-2,-2.0717302E-2,-8.0723375E-2,2.204821E-2,-9.3128905E-3,2.5621537E-2,4.043185E-2,7.025396E-2,3.9869618E-2,7.376795E-2,-7.714424E-2,7.134709E-2,-5.5705823E-2,6.7403436E-2],"categories":[],"categories_nodes":[],"categories_segments":[],"categories_sizes":[],"default_left":[0,0,0,0,0,0,0,0,0,0,0,0,0,0,0,0,0,0,0,0,0,0,0,0,0,0,0,0,0,0,0,0,0,0,0,0,0,0,0,0,0,0,0,0,0,0,0,0,0],"id":6,"left_children":[1,3,5,7,9,11,13,15,17,19,21,23,25,-1,27,29,31,-1,33,35,37,39,-1,41,-1,43,45,47,-1,-1,-1,-1,-1,-1,-1,-1,-1,-1,-1,-1,-1,-1,-1,-1,-1,-1,-1,-1,-1],"loss_changes":[8.468093E2,1.0817694E2,6.899591E1,3.3965942E1,9.7612976E1,6.3065083E1,1.04019165E1,3.5217957E1,4.0863625E1,6.1682617E1,5.410449E1,6.3918697E1,1.1663429E1,0E0,1.6968384E0,4.0864807E1,6.0555016E1,0E0,1.5815338E1,4.761125E1,3.2370625E1,3.3091225E1,0E0,8.126068E-2,0E0,9.319618E0,2.8977594E1,1.5763214E1,0E0,0E0,0E0,0E0,0E0,0E0,0E0,0E0,0E0,0E0,0E0,0E0,0E0,0E0,0E0,0E0,0E0,0E0,0E0,0E0,0E0],"parents":[2147483647,0,0,1,1,2,2,3,3,4,4,5,5,6,6,7,7,8,8,9,9,10,10,11,11,12,12,14,14,15,15,16,16,18,18,19,19,20,20,21,21,23,23,25,25,26,26,27,27],"right_children":[2,4,6,8,10,12,14,16,18,20,22,24,26,-1,28,30,32,-1,34,36,38,40,-1,42,-1,44,46,48,-1,-1,-1,-1,-1,-1,-1,-1,-1,-1,-1,-1,-1,-1,-1,-1,-1,-1,-1,-1,-1],"split_conditions":[1.18E0,8.2E-1,1.41E0,8E1,6.2E1,1.9E1,1.4E1,1.05E1,2.99E1,8.5E0,1.6066667E2,4.6E0,2.8E1,-4.7588192E-2,1.99E0,2.45E1,1.1E1,-7.3316336E-2,1.4666667E2,4.3E1,2.7E1,2.85E1,-8.757668E-2,4.5E0,-7.6903924E-2,1.56E2,3.9E1,5.3E0,7.659315E-2,-8.424532E-2,-4.262058E-2,7.998256E-2,-8.11077E-2,-5.68407E-2,8.148417E-2,-6.0529273E-2,-2.0717302E-2,-8.0723375E-2,2.204821E-2,-9.3128905E-3,2.5621537E-2,4.043185E-2,7.025396E-2,3.9869618E-2,7.376795E-2,-7.714424E-2,7.134709E-2,-5.5705823E-2,6.7403436E-2],"split_indices":[1,1,1,0,0,2,2,6,5,6,4,3,2,0,1,5,6,0,4,0,0,5,0,3,0,4,2,3,0,0,0,0,0,0,0,0,0,0,0,0,0,0,0,0,0,0,0,0,0],"split_type":[0,0,0,0,0,0,0,0,0,0,0,0,0,0,0,0,0,0,0,0,0,0,0,0,0,0,0,0,0,0,0,0,0,0,0,0,0,0,0,0,0,0,0,0,0,0,0,0,0],"sum_hessian":[1.5535629E3,1.0969307E3,4.566322E2,4.0413522E2,6.9279553E2,1.4288092E2,3.1375128E2,3.8197107E2,2.216416E1,3.8272134E2,3.1007416E2,3.6237427E1,1.0664349E2,1.2200389E0,3.1253122E2,3.599789E2,2.1992142E1,7.557098E0,1.4607062E1,3.0524545E2,7.747589E1,2.9720844E2,1.286571E1,1.30091715E1,2.3228256E1,9.5492195E1,1.1151295E1,1.7134052E2,1.4119072E2,7.578329E1,2.8419562E2,1.294271E1,9.049431E0,1.6985487E0,1.2908513E1,1.3724355E2,1.6800192E2,7.6052094E0,6.987068E1,1.032772E2,1.9393124E2,7.301742E0,5.707429E0,6.05686E1,3.4923595E1,5.4020853E0,5.7492094E0,1.9329594E0,1.6940755E2],"tree_param":{"num_deleted":"0","num_feature":"7","num_nodes":"49","size_leaf_vector":"1"}},{"base_weights":[-3.260633E-4,-4.5544574E-1,1.104337E0,-8.503703E-1,-2.2537471E-1,5.405909E-1,1.3600825E0,-1.004139E0,-3.3593076E-1,-5.476902E-1,1.7148852E-1,-5.473664E-1,9.0967464E-1,-4.6487123E-2,1.3721075E0,-4.147384E-1,-1.2348762E0,-8.154222E-2,2.0446506E-1,-7.409215E-1,2.0942251E-1,2.565579E-1,-8.411487E-2,1.113449E0,-7.469805E-2,6.673257E-1,1.3653309E0,1.2694545E0,7.436168E-2,-7.8982376E-2,4.5044143E-3,-8.298869E-2,-4.9696203E-2,3.158222E-2,-3.688009E-2,-5.304299E-2,-1.4108819E-2,-7.7844165E-2,2.0947503E-2,-8.850675E-3,2.4371563E-2,3.88787E-2,6.821002E-2,-7.617858E-2,4.211965E-2,7.407033E-2,-5.3380508E-2,-5.4269325E-2,6.513932E-2],"categories":[],"categories_nodes":[],"categories_segments":[],"categories_sizes":[],"default_left":[0,0,0,0,0,0,0,0,0,0,0,0,0,0,0,0,0,0,0,0,0,0,0,0,0,0,0,0,0,0,0,0,0,0,0,0,0,0,0,0,0,0,0,0,0,0,0,0,0],"id":7,"left_children":[1,3,5,7,9,11,13,15,17,19,21,23,25,-1,27,29,31,-1,33,35,37,39,-1,41,-1,43,45,47,-1,-1,-1,-1,-1,-1,-1,-1,-1,-1,-1,-1,-1,-1,-1,-1,-1,-1,-1,-1,-1],"loss_changes":[7.7565015E2,9.9086075E1,6.41676E1,3.1451477E1,8.8583115E1,5.757648E1,9.784546E0,4.1494263E1,6.609635E1,5.603839E1,4.9444557E1,5.9252575E1,1.0851097E1,0E0,1.7496948E0,5.2131516E1,2.1024689E1,0E0,2.7507545E1,4.4397293E1,2.9684782E1,2.9919E1,0E0,1.07522964E-1,0E0,2.8703299E1,1.1755531E1,1.4722107E1,0E0,0E0,0E0,0E0,0E0,0E0,0E0,0E0,0E0,0E0,0E0,0E0,0E0,0E0,0E0,0E0,0E0,0E0,0E0,0E0,0E0],"parents":[2147483647,0,0,1,1,2,2,3,3,4,4,5,5,6,6,7,7,8,8,9,9,10,10,11,11,12,12,14,14,15,15,16,16,18,18,19,19,20,20,21,21,23,23,25,25,26,26,27,27],"right_children":[2,4,6,8,10,12,14,16,18,20,22,24,26,-1,28,30,32,-1,34,36,38,40,-1,42,-1,44,46,48,-1,-1,-1,-1,-1,-1,-1,-1,-1,-1,-1,-1,-1,-1,-1,-1,-1,-1,-1,-1,-1],"split_conditions":[1.18E0,8.2E-1,1.41E0,8.5E0,6.2E1,1.9E1,1.4E1,1.09E2,1.21333336E2,8.5E0,1.6066667E2,4.6E0,1.6066667E2,-4.6487123E-2,1.99E0,2.58E1,4.7E1,-8.154222E-2,7.3E-1,1.25333336E2,2.7E1,2.85E1,-8.411487E-2,4.5E0,-7.469805E-2,5.4E0,1.8066667E2,5.3E0,7.436168E-2,-7.8982376E-2,4.5044143E-3,-8.298869E-2,-4.9696203E-2,3.158222E-2,-3.688009E-2,-5.304299E-2,-1.4108819E-2,-7.7844165E-2,2.0947503E-2,-8.850675E-3,2.4371563E-2,3.88787E-2,6.821002E-2,-7.617858E-2,4.211965E-2,7.407033E-2,-5.3380508E-2,-5.4269325E-2,6.513932E-2],"split_indices":[1,1,1,6,0,2,2,4,4,6,4,3,4,0,1,5,0,0,1,4,0,5,0,3,0,3,4,3,0,0,0,0,0,0,0,0,0,0,0,0,0,0,0,0,0,0,0,0,0],"split_type":[0,0,0,0,0,0,0,0,0,0,0,0,0,0,0,0,0,0,0,0,0,0,0,0,0,0,0,0,0,0,0,0,0,0,0,0,0,0,0,0,0,0,0,0,0,0,0,0,0],"sum_hessian":[1.5408025E3,1.0916371E3,4.4916534E2,4.008569E2,6.907803E2,1.411465E2,3.0801883E2,3.0787848E2,9.2978424E1,3.8098242E2,3.0979782E2,3.563153E1,1.0551498E2,1.2104158E0,3.068084E2,8.740542E1,2.2047305E2,2.6782785E1,6.619563E1,3.0353516E2,7.7447266E1,2.970289E2,1.2768918E1,1.2871686E1,2.2759844E1,7.048879E1,3.5026184E1,1.6854805E2,1.3826036E2,2.5782385E1,6.162304E1,7.7652115E1,1.4282094E2,4.577054E1,2.0425097E1,1.7804819E2,1.2548699E2,7.530989E0,6.9916275E1,1.03289116E2,1.9373978E2,7.2549057E0,5.61678E0,4.6457925E0,6.5842995E1,3.3804478E1,1.221705E0,1.9119166E0,1.6663614E2],"tree_param":{"num_deleted":"0","num_feature":"7","num_nodes":"49","size_leaf_vector":"1"}},{"base_weights":[-5.611398E-4,-4.7232607E-1,9.8861045E-1,-6.239347E-1,5.2838404E-2,-3.7878647E-2,1.1786795E0,1.4041651E0,-6.5930355E-1,-8.411374E-2,2.3726858E-1,-7.830501E-2,4.4038564E-1,8.3662677E-1,1.3470404E0,-5.3317476E-2,8.610717E-2,-8.380523E-1,-2.3956722E-1,5.1737475E-1,-6.064868E-1,-8.387688E-2,6.59318E-1,-5.1913697E-2,9.9009764E-1,1.2356243E0,7.270241E-2,-4.992288E-2,-5.96035E-3,-3.5028555E-3,-8.9164525E-2,-2.2502482E-2,3.874202E-2,4.5910105E-2,-9.1770574E-2,-6.892034E-2,4.101671E-2,-8.762123E-2,5.105859E-2,7.238587E-2,4.0947676E-2,-5.042239E-2,6.345453E-2],"categories":[],"categories_nodes":[],"categories_segments":[],"categories_sizes":[],"default_left":[0,0,0,0,0,0,0,0,0,0,0,0,0,0,0,0,0,0,0,0,0,0,0,0,0,0,0,0,0,0,0,0,0,0,0,0,0,0,0,0,0,0,0],"id":8,"left_children":[1,3,5,7,9,11,13,15,17,-1,19,-1,21,23,25,-1,-1,27,29,31,33,-1,35,37,39,41,-1,-1,-1,-1,-1,-1,-1,-1,-1,-1,-1,-1,-1,-1,-1,-1,-1],"loss_changes":[7.133898E2,8.2444626E1,9.6358734E1,5.8545868E1,7.489524E1,5.776897E1,2.2862E1,1.290353E1,5.9084778E1,0E0,5.0253693E1,0E0,2.904796E1,1.9148293E1,1.5120544E0,0E0,0E0,6.373575E1,6.199823E1,3.999692E1,1.012269E2,0E0,1.9285948E1,4.116142E1,8.170868E0,1.1990341E1,0E0,0E0,0E0,0E0,0E0,0E0,0E0,0E0,0E0,0E0,0E0,0E0,0E0,0E0,0E0,0E0,0E0],"parents":[2147483647,0,0,1,1,2,2,3,3,4,4,5,5,6,6,7,7,8,8,10,10,12,12,13,13,14,14,17,17,18,18,19,19,20,20,22,22,23,23,24,24,25,25],"right_children":[2,4,6,8,10,12,14,16,18,-1,20,-1,22,24,26,-1,-1,28,30,32,34,-1,36,38,40,42,-1,-1,-1,-1,-1,-1,-1,-1,-1,-1,-1,-1,-1,-1,-1,-1,-1],"split_conditions":[1.13E0,6.9E1,1.8E1,2.1E0,4.6E0,5.3E1,1.41E0,1.5E1,9.1E-1,-8.411374E-2,5.9E0,-7.830501E-2,1.16E0,2.59E1,1.99E0,-5.3317476E-2,8.610717E-2,1.3933333E2,1.4333333E2,2.77E1,7.5E0,-8.387688E-2,1.16E2,7.1E0,5.5E0,5.1E0,7.270241E-2,-4.992288E-2,-5.96035E-3,-3.5028555E-3,-8.9164525E-2,-2.2502482E-2,3.874202E-2,4.5910105E-2,-9.1770574E-2,-6.892034E-2,4.101671E-2,-8.762123E-2,5.105859E-2,7.238587E-2,4.0947676E-2,-5.042239E-2,6.345453E-2],"split_indices":[1,0,2,3,3,0,1,2,1,0,3,0,1,5,1,0,0,4,4,5,6,0,4,3,6,3,0,0,0,0,0,0,0,0,0,0,0,0,0,0,0,0,0],"split_type":[0,0,0,0,0,0,0,0,0,0,0,0,0,0,0,0,0,0,0,0,0,0,0,0,0,0,0,0,0,0,0,0,0,0,0,0,0,0,0,0,0,0,0],"sum_hessian":[1.5267251E3,1.0340695E3,4.9265558E2,8.022745E2,2.3179503E2,7.709518E1,4.155604E2,1.3088014E1,7.8918646E2,2.1490608E1,2.1030441E2,1.783418E1,5.9260994E1,1.3904239E2,2.7651804E2,1.2240777E0,1.1863935E1,5.527822E2,2.3640424E2,1.581795E2,5.212491E1,4.9277935E0,5.43332E1,2.057608E1,1.184663E2,1.4161548E2,1.3490254E2,4.516179E2,1.01164345E2,2.1395598E2,2.244827E1,3.3091305E1,1.250882E2,2.337594E1,2.8748968E1,3.425204E0,5.0907997E1,7.7158146E0,1.2860266E1,3.0215212E1,8.825109E1,1.6528227E0,1.3996266E2],"tree_param":{"num_deleted":"0","num_feature":"7","num_nodes":"43","size_leaf_vector":"1"}},{"base_weights":[-6.3943607E-4,-4.513322E-1,9.5487297E-1,-5.9626013E-1,4.9813416E-2,-3.888285E-2,1.1404147E0,1.3460562E0,-6.300732E-1,-8.123858E-2,2.2582676E-1,-7.60178E-2,4.1909584E-1,8.4143203E-1,1.3323945E0,-5.1945306E-2,8.276601E-2,-8.022355E-1,-2.282752E-1,4.924109E-1,-5.804483E-1,-8.052476E-2,6.299339E-1,5.830664E-1,1.1224161E0,1.2239164E0,7.086132E-2,-4.7858093E-2,-5.6700483E-3,-2.9065893E-3,-8.516691E-2,-3.8014404E-2,3.4151975E-2,4.3816354E-2,-8.806231E-2,-6.696485E-2,3.9242443E-2,-8.414395E-2,4.0439185E-2,-7.651263E-2,6.1397392E-2,-4.6309616E-2,6.2912785E-2],"categories":[],"categories_nodes":[],"categories_segments":[],"categories_sizes":[],"default_left":[0,0,0,0,0,0,0,0,0,0,0,0,0,0,0,0,0,0,0,0,0,0,0,0,0,0,0,0,0,0,0,0,0,0,0,0,0,0,0,0,0,0,0],"id":9,"left_children":[1,3,5,7,9,11,13,15,17,-1,19,-1,21,23,25,-1,-1,27,29,31,33,-1,35,37,39,41,-1,-1,-1,-1,-1,-1,-1,-1,-1,-1,-1,-1,-1,-1,-1,-1,-1],"loss_changes":[6.526713E2,7.4826126E1,8.960776E1,5.331595E1,6.872963E1,5.314544E1,2.2375427E1,1.2037397E1,5.4181366E1,0E0,4.5585175E1,0E0,2.6646475E1,1.1163071E1,5.4364014E-1,0E0,0E0,5.8562256E1,5.9414967E1,3.8470947E1,9.241414E1,0E0,1.7824007E1,4.5800034E1,2.3405754E1,9.7282715E0,0E0,0E0,0E0,0E0,0E0,0E0,0E0,0E0,0E0,0E0,0E0,0E0,0E0,0E0,0E0,0E0,0E0],"parents":[2147483647,0,0,1,1,2,2,3,3,4,4,5,5,6,6,7,7,8,8,10,10,12,12,13,13,14,14,17,17,18,18,19,19,20,20,22,22,23,23,24,24,25,25],"right_children":[2,4,6,8,10,12,14,16,18,-1,20,-1,22,24,26,-1,-1,28,30,32,34,-1,36,38,40,42,-1,-1,-1,-1,-1,-1,-1,-1,-1,-1,-1,-1,-1,-1,-1,-1,-1],"split_conditions":[1.13E0,6.9E1,1.8E1,2.1E0,4.6E0,5.3E1,1.46E0,1.5E1,9.1E-1,-8.123858E-2,5.9E0,-7.60178E-2,1.16E0,6.8E0,1.99E0,-5.1945306E-2,8.276601E-2,1.3933333E2,7.3E0,8E0,7.5E0,-8.052476E-2,1.16E2,2.59E1,2.1E1,5.1E0,7.086132E-2,-4.7858093E-2,-5.6700483E-3,-2.9065893E-3,-8.516691E-2,-3.8014404E-2,3.4151975E-2,4.3816354E-2,-8.806231E-2,-6.696485E-2,3.9242443E-2,-8.414395E-2,4.0439185E-2,-7.651263E-2,6.1397392E-2,-4.6309616E-2,6.2912785E-2],"split_indices":[1,0,2,3,3,0,1,2,1,0,3,0,1,3,1,0,0,4,3,6,6,0,4,5,2,3,0,0,0,0,0,0,0,0,0,0,0,0,0,0,0,0,0],"split_type":[0,0,0,0,0,0,0,0,0,0,0,0,0,0,0,0,0,0,0,0,0,0,0,0,0,0,0,0,0,0,0,0,0,0,0,0,0,0,0,0,0,0,0],"sum_hessian":[1.5135747E3,1.0288282E3,4.8474646E2,7.978931E2,2.3093509E2,7.639067E1,4.083558E2,1.2988497E1,7.849046E2,2.1181742E1,2.0975334E2,1.7490984E1,5.8899685E1,1.6178325E2,2.4657256E2,1.2201023E0,1.1768394E1,5.487709E2,2.3613376E2,1.5792636E2,5.182698E1,4.9180927E0,5.3981594E1,8.5885956E1,7.5897285E1,1.1497563E2,1.3159692E2,4.476908E2,1.01080086E2,2.1264528E2,2.348849E1,2.0463558E1,1.3746281E2,2.3317518E1,2.8509462E1,3.379322E0,5.0602272E1,7.1955085E0,7.869045E1,2.3873723E0,7.350991E1,1.399135E0,1.1357649E2],"tree_param":{"num_deleted":"0","num_feature":"7","num_nodes":"43","size_leaf_vector":"1"}},{"base_weights":[-8.128579E-4,-4.385813E-1,9.083974E-1,-5.840552E-1,6.166491E-2,-1.0503636E-1,1.1030489E0,-7.268879E-1,-1.2118337E-1,-7.8659825E-2,2.3257358E-1,-6.473684E-1,1.0404922E0,8.180247E-1,1.2973206E0,1.2939441E0,-7.733359E-1,2.9767212E-1,-8.179815E-2,4.7690177E-1,-5.266952E-1,-1.6338775E-1,-7.749035E-2,-5.622021E-2,1.21321E0,1.4130104E0,6.467538E-1,1.1878169E0,6.917916E-2,-5.0644707E-2,7.979125E-2,5.1691275E-2,-4.104392E-2,-7.604598E-2,2.6199175E-2,-3.6263183E-2,3.3021566E-2,4.3418303E-2,-8.470444E-2,-7.415168E-2,1.9987348E-2,3.7863813E-2,6.808739E-2,7.551352E-2,4.2758707E-2,-7.647679E-2,3.636455E-2,-4.5295883E-2,6.1083484E-2],"categories":[],"categories_nodes":[],"categories_segments":[],"categories_sizes":[],"default_left":[0,0,0,0,0,0,0,0,0,0,0,0,0,0,0,0,0,0,0,0,0,0,0,0,0,0,0,0,0,0,0,0,0,0,0,0,0,0,0,0,0,0,0,0,0,0,0,0,0],"id":10,"left_children":[1,3,5,7,9,11,13,15,17,-1,19,21,23,25,27,29,31,33,-1,35,37,39,-1,-1,41,43,45,47,-1,-1,-1,-1,-1,-1,-1,-1,-1,-1,-1,-1,-1,-1,-1,-1,-1,-1,-1,-1,-1],"loss_changes":[5.9760254E2,7.37883E1,9.6374725E1,5.1826263E1,6.4414474E1,5.00857E1,2.160965E1,5.7306274E1,1.1873259E2,0E0,3.8912045E1,2.3592417E1,1.106332E1,1.6273102E1,6.4035034E-1,1.1262785E1,5.128308E1,6.1233154E1,0E0,3.5381123E1,8.487298E1,2.7832804E1,0E0,0E0,6.2826157E-1,7.079773E-1,2.4389458E1,9.158615E0,0E0,0E0,0E0,0E0,0E0,0E0,0E0,0E0,0E0,0E0,0E0,0E0,0E0,0E0,0E0,0E0,0E0,0E0,0E0,0E0,0E0],"parents":[2147483647,0,0,1,1,2,2,3,3,4,4,5,5,6,6,7,7,8,8,10,10,11,11,12,12,13,13,14,14,15,15,16,16,17,17,19,19,20,20,21,21,24,24,25,25,26,26,27,27],"right_children":[2,4,6,8,10,12,14,16,18,-1,20,22,24,26,28,30,32,34,-1,36,38,40,-1,-1,42,44,46,48,-1,-1,-1,-1,-1,-1,-1,-1,-1,-1,-1,-1,-1,-1,-1,-1,-1,-1,-1,-1,-1],"split_conditions":[1.12E0,6.9E1,1.8E1,6.2E0,4.6E0,7.5E1,1.46E0,2.1E0,7.3E0,-7.8659825E-2,5.9E0,6.5E0,1.24666664E2,5.5E0,1.99E0,1.5E1,9.3E1,3.2E1,-8.179815E-2,8E0,7.5E0,5.3E1,-7.749035E-2,-5.622021E-2,1.42E0,1.24E2,4.6E1,5.1E0,6.917916E-2,-5.0644707E-2,7.979125E-2,5.1691275E-2,-4.104392E-2,-7.604598E-2,2.6199175E-2,-3.6263183E-2,3.3021566E-2,4.3418303E-2,-8.470444E-2,-7.415168E-2,1.9987348E-2,3.7863813E-2,6.808739E-2,7.551352E-2,4.2758707E-2,-7.647679E-2,3.636455E-2,-4.5295883E-2,6.1083484E-2],"split_indices":[1,0,2,3,3,0,1,3,3,0,3,3,4,6,1,2,4,0,0,6,6,0,0,0,1,4,0,3,0,0,0,0,0,0,0,0,0,0,0,0,0,0,0,0,0,0,0,0,0],"split_type":[0,0,0,0,0,0,0,0,0,0,0,0,0,0,0,0,0,0,0,0,0,0,0,0,0,0,0,0,0,0,0,0,0,0,0,0,0,0,0,0,0,0,0,0,0,0,0,0,0],"sum_hessian":[1.4994241E3,1.01246027E3,4.869638E2,7.842339E2,2.2822638E2,7.8535736E1,4.0842807E2,5.9886584E2,1.8536801E2,2.0824125E1,2.0740225E2,5.3596306E1,2.4939432E1,1.6765906E2,2.4076901E2,1.2851979E1,5.8601385E2,1.4584386E2,3.9524162E1,1.5719101E2,5.0211246E1,3.5655308E1,1.7940998E1,1.4355663E0,2.3503866E1,3.5854015E1,1.3180504E2,1.1260072E2,1.2816829E2,1.2146776E0,1.1637302E1,1.4489786E1,5.7152405E2,1.5507587E1,1.3033627E2,2.0428349E1,1.3676266E2,2.2991745E1,2.72195E1,1.0175823E1,2.5479485E1,7.2741623E0,1.6229704E1,2.9077E1,6.7770157E0,4.0615478E0,1.2774349E2,1.3817453E0,1.1121898E2],"tree_param":{"num_deleted":"0","num_feature":"7","num_nodes":"49","size_leaf_vector":"1"}},{"base_weights":[-8.250763E-4,-3.5371226E-1,1.0477141E0,-5.162496E-1,1.4348046E-1,5.173221E-1,1.2155294E0,-6.49686E-1,5.370461E-2,-7.2806835E-1,4.0194753E-1,-6.7152925E-2,7.159871E-1,-4.598096E-2,1.22786E0,-8.3531725E-1,-1.8690598E-1,3.841221E-1,-8.362388E-2,-1.2174507E0,5.295132E-1,-7.1844295E-2,4.8254696E-1,7.9341424E-1,-6.940453E-2,1.1261343E0,6.7265764E-2,4.997893E-2,-4.4686265E-2,9.52395E-3,-4.8622284E-2,-4.2990845E-2,3.779375E-2,-8.533582E-2,9.940603E-3,5.9995275E-2,-7.13994E-2,2.7219722E-2,-6.969783E-2,2.5135776E-2,6.40567E-2,-5.0584037E-2,5.7895005E-2],"categories":[],"categories_nodes":[],"categories_segments":[],"categories_sizes":[],"default_left":[0,0,0,0,0,0,0,0,0,0,0,0,0,0,0,0,0,0,0,0,0,0,0,0,0,0,0,0,0,0,0,0,0,0,0,0,0,0,0,0,0,0,0],"id":11,"left_children":[1,3,5,7,9,11,13,15,17,19,21,-1,23,-1,25,27,29,31,-1,33,35,-1,37,39,-1,41,-1,-1,-1,-1,-1,-1,-1,-1,-1,-1,-1,-1,-1,-1,-1,-1,-1],"loss_changes":[5.4985474E2,8.9924255E1,3.2677124E1,6.3777023E1,6.217456E1,3.4845238E1,8.593262E0,5.8192474E1,9.185514E1,3.9533375E1,3.219022E1,0E0,1.4702133E1,0E0,1.8581543E0,5.2815704E1,5.821163E1,6.3098022E1,0E0,3.2068886E1,2.5857199E1,0E0,2.4474094E1,1.0862545E1,0E0,1.186203E1,0E0,0E0,0E0,0E0,0E0,0E0,0E0,0E0,0E0,0E0,0E0,0E0,0E0,0E0,0E0,0E0,0E0],"parents":[2147483647,0,0,1,1,2,2,3,3,4,4,5,5,6,6,7,7,8,8,9,9,10,10,12,12,14,14,15,15,16,16,17,17,19,19,20,20,22,22,23,23,25,25],"right_children":[2,4,6,8,10,12,14,16,18,20,22,-1,24,-1,26,28,30,32,-1,34,36,-1,38,40,-1,42,-1,-1,-1,-1,-1,-1,-1,-1,-1,-1,-1,-1,-1,-1,-1,-1,-1],"split_conditions":[1.23E0,6.9E1,1.41E0,1.8E1,2.68E1,1.6E1,1.4E1,1.3266667E2,1.32E2,1E1,4.6E0,-6.7152925E-2,3.89E1,-4.598096E-2,1.99E0,9.3E1,1.46E2,8.7E-1,-8.362388E-2,1.6E2,1.3E2,-7.1844295E-2,1.66E2,3.29E1,-6.940453E-2,5.3E0,6.7265764E-2,4.997893E-2,-4.4686265E-2,9.52395E-3,-4.8622284E-2,-4.2990845E-2,3.779375E-2,-8.533582E-2,9.940603E-3,5.9995275E-2,-7.13994E-2,2.7219722E-2,-6.969783E-2,2.5135776E-2,6.40567E-2,-5.0584037E-2,5.7895005E-2],"split_indices":[1,0,1,2,5,2,2,4,4,6,3,0,5,0,1,4,4,1,0,4,4,0,4,5,0,3,0,0,0,0,0,0,0,0,0,0,0,0,0,0,0,0,0],"split_type":[0,0,0,0,0,0,0,0,0,0,0,0,0,0,0,0,0,0,0,0,0,0,0,0,0,0,0,0,0,0,0,0,0,0,0,0,0,0,0,0,0,0,0],"sum_hessian":[1.484028E3,1.110837E3,3.7319092E2,8.3713184E2,2.7370517E2,9.067837E1,2.8251254E2,6.7821075E2,1.5892107E2,6.2188656E1,2.1151653E2,8.193222E0,8.2485146E1,1.1996458E0,2.813129E2,4.8347375E2,1.94737E2,1.3404105E2,2.488002E1,4.4790527E1,1.7398129E1,8.175241E0,2.0334128E2,8.015834E1,2.326802E0,1.5642453E2,1.24888374E2,1.4417968E1,4.690558E2,1.3205386E2,6.268313E1,3.0539293E1,1.03501755E2,3.3137634E1,1.1652894E1,1.3248045E1,4.1500826E0,1.9754045E2,5.8008246E0,5.149575E1,2.8662594E1,1.838619E0,1.545859E2],"tree_param":{"num_deleted":"0","num_feature":"7","num_nodes":"43","size_leaf_vector":"1"}},{"base_weights":[-9.785427E-4,-3.3867618E-1,1.0177312E0,-4.9421525E-1,1.3618547E-1,4.9689144E-1,1.1846983E0,-6.2222874E-1,5.0524108E-2,-7.003448E-1,3.8266638E-1,-6.558395E-2,6.878814E-1,-4.4957153E-2,1.196959E0,-8.0186546E-1,-1.7813958E-1,3.655171E-1,-8.080911E-2,-1.1710445E0,5.065803E-1,-6.996683E-2,4.6018124E-1,1.1506549E0,3.1775177E-1,1.0940309E0,6.5839164E-2,4.790175E-2,-4.290783E-2,9.040383E-3,-4.6606343E-2,-4.1301694E-2,3.590924E-2,-8.242311E-2,9.472943E-3,5.7636768E-2,-6.913329E-2,-6.9061086E-2,2.6019285E-2,6.312232E-2,-6.104621E-2,-2.0854454E-2,4.7988165E-2,-4.9428686E-2,5.626547E-2],"categories":[],"categories_nodes":[],"categories_segments":[],"categories_sizes":[],"default_left":[0,0,0,0,0,0,0,0,0,0,0,0,0,0,0,0,0,0,0,0,0,0,0,0,0,0,0,0,0,0,0,0,0,0,0,0,0,0,0,0,0,0,0,0,0],"id":12,"left_children":[1,3,5,7,9,11,13,15,17,19,21,-1,23,-1,25,27,29,31,-1,33,35,-1,37,39,41,43,-1,-1,-1,-1,-1,-1,-1,-1,-1,-1,-1,-1,-1,-1,-1,-1,-1,-1,-1],"loss_changes":[5.059552E2,8.165028E1,3.1253784E1,5.806787E1,5.662245E1,3.2200348E1,8.141968E0,5.362259E1,8.421754E1,3.6131634E1,2.9894466E1,0E0,1.3784401E1,0E0,1.9555054E0,4.8332E1,5.3049656E1,5.723294E1,0E0,2.974036E1,2.387231E1,0E0,2.3299252E1,1.1173058E1,2.2706406E1,1.1146515E1,0E0,0E0,0E0,0E0,0E0,0E0,0E0,0E0,0E0,0E0,0E0,0E0,0E0,0E0,0E0,0E0,0E0,0E0,0E0],"parents":[2147483647,0,0,1,1,2,2,3,3,4,4,5,5,6,6,7,7,8,8,9,9,10,10,12,12,14,14,15,15,16,16,17,17,19,19,20,20,22,22,23,23,24,24,25,25],"right_children":[2,4,6,8,10,12,14,16,18,20,22,-1,24,-1,26,28,30,32,-1,34,36,-1,38,40,42,44,-1,-1,-1,-1,-1,-1,-1,-1,-1,-1,-1,-1,-1,-1,-1,-1,-1,-1,-1],"split_conditions":[1.23E0,6.9E1,1.41E0,1.8E1,2.68E1,1.6E1,1.4E1,1.3266667E2,1.32E2,1E1,7.2E-1,-6.558395E-2,1.25E0,-4.4957153E-2,1.99E0,9.3E1,1.46E2,8.7E-1,-8.080911E-2,1.6E2,1.3E2,-6.996683E-2,4.6E0,2.4E1,3.29E1,5.3E0,6.5839164E-2,4.790175E-2,-4.290783E-2,9.040383E-3,-4.6606343E-2,-4.1301694E-2,3.590924E-2,-8.242311E-2,9.472943E-3,5.7636768E-2,-6.913329E-2,-6.9061086E-2,2.6019285E-2,6.312232E-2,-6.104621E-2,-2.0854454E-2,4.7988165E-2,-4.9428686E-2,5.626547E-2],"split_indices":[1,0,1,2,5,2,2,4,4,6,1,0,1,0,1,4,4,1,0,4,4,0,3,2,5,3,0,0,0,0,0,0,0,0,0,0,0,0,0,0,0,0,0,0,0],"split_type":[0,0,0,0,0,0,0,0,0,0,0,0,0,0,0,0,0,0,0,0,0,0,0,0,0,0,0,0,0,0,0,0,0,0,0,0,0,0,0,0,0,0,0,0,0],"sum_hessian":[1.4687302E3,1.1035695E3,3.6516074E2,8.312546E2,2.7231488E2,8.9609055E1,2.755517E2,6.729657E2,1.582889E2,6.1556667E1,2.1075821E2,7.998629E0,8.161042E1,1.1886661E0,2.74363E2,4.78574E2,1.9439166E2,1.3378532E2,2.450357E1,4.4306786E1,1.7249878E1,8.074712E0,2.026835E2,3.532933E1,4.6281094E1,1.530362E2,1.2132683E2,1.433644E1,4.6423758E2,1.3221085E2,6.2180817E1,3.0247267E1,1.0353806E2,3.2640995E1,1.1665793E1,1.3144183E1,4.1056952E0,5.722226E0,1.9696127E2,3.418557E1,1.1437604E0,2.1743738E1,2.4537354E1,1.8115739E0,1.5122461E2],"tree_param":{"num_deleted":"0","num_feature":"7","num_nodes":"45","size_leaf_vector":"1"}},{"base_weights":[-1.1134698E-3,-3.2445484E-1,9.8949474E-1,-6.869591E-1,-1.3217391E-1,4.778115E-1,1.1557178E0,-1.110778E0,-5.151797E-1,-7.522289E-2,-6.130213E-2,-6.4126186E-2,6.61578E-1,-4.3978903E-2,1.167922E0,7.1545595E-1,-1.2522235E0,1.2877795E0,-6.300954E-1,-1.1610721E0,1.0759247E-2,7.384994E-1,-6.873415E-2,1.06364E0,6.4518325E-2,-6.1146725E-2,6.5171726E-2,-7.414723E-2,-1.9086592E-2,-5.8862794E-2,9.522674E-2,-3.650377E-2,3.3590257E-2,-8.007326E-2,4.6789486E-2,3.9603002E-2,-2.9444022E-3,2.0559013E-2,5.8048666E-2,-4.833043E-2,5.4723263E-2],"categories":[],"categories_nodes":[],"categories_segments":[],"categories_sizes":[],"default_left":[0,0,0,0,0,0,0,0,0,0,0,0,0,0,0,0,0,0,0,0,0,0,0,0,0,0,0,0,0,0,0,0,0,0,0,0,0,0,0,0,0],"id":13,"left_children":[1,3,5,7,9,11,13,15,17,-1,19,-1,21,-1,23,25,27,29,31,33,35,37,-1,39,-1,-1,-1,-1,-1,-1,-1,-1,-1,-1,-1,-1,-1,-1,-1,-1,-1],"loss_changes":[4.6598633E2,7.635991E1,2.9897675E1,2.7085861E1,6.972899E1,2.979724E1,7.7218933E0,2.8975601E1,5.720755E1,0E0,5.419612E1,0E0,1.3810383E1,0E0,2.0539246E0,1.1225374E1,1.976979E1,2.7537462E1,3.388523E1,4.0332085E1,3.5016426E1,1.0497719E1,0E0,1.0483582E1,0E0,0E0,0E0,0E0,0E0,0E0,0E0,0E0,0E0,0E0,0E0,0E0,0E0,0E0,0E0,0E0,0E0],"parents":[2147483647,0,0,1,1,2,2,3,3,4,4,5,5,6,6,7,7,8,8,10,10,12,12,14,14,15,15,16,16,17,17,18,18,19,19,20,20,21,21,23,23],"right_children":[2,4,6,8,10,12,14,16,18,-1,20,-1,22,-1,24,26,28,30,32,34,36,38,-1,40,-1,-1,-1,-1,-1,-1,-1,-1,-1,-1,-1,-1,-1,-1,-1,-1,-1],"split_conditions":[1.23E0,8.2E-1,1.41E0,3.8E1,2.6E1,1.6E1,1.4E1,9.3E1,3.9E1,-7.522289E-2,1.2E1,-6.4126186E-2,3.89E1,-4.3978903E-2,1.99E0,3.07E1,7.7E-1,4.5E0,1.05E1,7.4E1,4.1E0,1.6066667E2,-6.873415E-2,5.3E0,6.4518325E-2,-6.1146725E-2,6.5171726E-2,-7.414723E-2,-1.9086592E-2,-5.8862794E-2,9.522674E-2,-3.650377E-2,3.3590257E-2,-8.007326E-2,4.6789486E-2,3.9603002E-2,-2.9444022E-3,2.0559013E-2,5.8048666E-2,-4.833043E-2,5.4723263E-2],"split_indices":[1,1,1,0,0,2,2,4,0,0,2,0,5,0,1,5,1,3,6,0,3,4,0,3,0,0,0,0,0,0,0,0,0,0,0,0,0,0,0,0,0],"split_type":[0,0,0,0,0,0,0,0,0,0,0,0,0,0,0,0,0,0,0,0,0,0,0,0,0,0,0,0,0,0,0,0,0,0,0,0,0,0,0,0,0],"sum_hessian":[1.4528201E3,1.0958119E3,3.5700812E2,3.789017E2,7.169102E2,8.848868E1,2.6851944E2,1.0770432E2,2.711974E2,3.4213303E1,6.826969E2,7.799231E0,8.0689445E1,1.1768911E0,2.6734256E2,7.4505467E0,1.0025378E2,1.5638129E1,2.5555927E2,4.105289E1,6.41644E2,7.836642E1,2.323028E0,1.4961066E2,1.177319E2,1.4826835E0,5.967863E0,7.86929E1,2.1560875E1,2.9477663E0,1.2690363E1,2.3774107E2,1.7818188E1,3.4122562E1,6.9303265E0,5.166749E1,5.899765E2,4.526772E1,3.3098698E1,1.7835371E0,1.4782712E2],"tree_param":{"num_deleted":"0","num_feature":"7","num_nodes":"41","size_leaf_vector":"1"}},{"base_weights":[-1.1465221E-3,-3.6538246E-1,8.189226E-1,-6.897049E-1,-1.9728391E-1,-5.996695E-2,9.8831236E-1,1.2625486E0,-7.691824E-1,-1.0013306E-1,-1.2517223E0,-7.005308E-2,3.4473276E-1,7.1132386E-1,1.1808031E0,-4.6254974E-2,7.718655E-2,9.3271166E-1,-8.474052E-1,-7.4882776E-2,-2.371694E-2,4.0308723E-1,-7.957246E-2,-7.431692E-2,5.4475576E-1,4.574269E-1,9.9289227E-1,1.0662785E0,6.37006E-2,-5.081908E-2,5.919471E-2,-2.1709893E-2,-5.5073436E-2,-1.0047483E-2,2.9276853E-2,-5.9684005E-2,6.6731654E-2,-6.435817E-2,3.456716E-2,-8.043869E-2,3.3521403E-2,-7.55624E-2,5.4882634E-2,-4.1303616E-2,5.4914266E-2],"categories":[],"categories_nodes":[],"categories_segments":[],"categories_sizes":[],"default_left":[0,0,0,0,0,0,0,0,0,0,0,0,0,0,0,0,0,0,0,0,0,0,0,0,0,0,0,0,0,0,0,0,0,0,0,0,0,0,0,0,0,0,0,0,0],"id":14,"left_children":[1,3,5,7,9,11,13,15,17,19,21,-1,23,25,27,-1,-1,29,31,-1,33,35,-1,-1,37,39,41,43,-1,-1,-1,-1,-1,-1,-1,-1,-1,-1,-1,-1,-1,-1,-1,-1,-1],"loss_changes":[4.303899E2,5.425853E1,6.603284E1,5.375624E1,6.733487E1,3.9859E1,1.8972809E1,9.847042E0,4.439093E1,6.447483E1,3.1825111E1,0E0,2.1515873E1,1.0617615E1,9.656677E-1,0E0,0E0,8.482185E0,3.2448303E1,0E0,6.2072777E1,1.683341E1,0E0,0E0,1.4772902E1,3.773594E1,2.0699272E1,7.1957397E0,0E0,0E0,0E0,0E0,0E0,0E0,0E0,0E0,0E0,0E0,0E0,0E0,0E0,0E0,0E0,0E0,0E0],"parents":[2147483647,0,0,1,1,2,2,3,3,4,4,5,5,6,6,7,7,8,8,9,9,10,10,12,12,13,13,14,14,17,17,18,18,20,20,21,21,24,24,25,25,26,26,27,27],"right_children":[2,4,6,8,10,12,14,16,18,20,22,-1,24,26,28,-1,-1,30,32,-1,34,36,-1,-1,38,40,42,44,-1,-1,-1,-1,-1,-1,-1,-1,-1,-1,-1,-1,-1,-1,-1,-1,-1],"split_conditions":[1.13E0,5.1E0,1.8E1,2.1E0,7.3E0,5.3E1,1.46E0,1.5E1,9.3E1,6.7E-1,1.07E2,-7.005308E-2,1.16E0,6.8E0,1.99E0,-4.6254974E-2,7.718655E-2,6.4E-1,2.46E1,-7.4882776E-2,3.53E1,1.06666664E2,-7.957246E-2,-7.431692E-2,1.16E2,2.59E1,2.1E1,5.1E0,6.37006E-2,-5.081908E-2,5.919471E-2,-2.1709893E-2,-5.5073436E-2,-1.0047483E-2,2.9276853E-2,-5.9684005E-2,6.6731654E-2,-6.435817E-2,3.456716E-2,-8.043869E-2,3.3521403E-2,-7.55624E-2,5.4882634E-2,-4.1303616E-2,5.4914266E-2],"split_indices":[1,3,2,3,3,0,1,2,4,1,4,0,1,3,1,0,0,1,5,0,5,4,0,0,4,5,2,3,0,0,0,0,0,0,0,0,0,0,0,0,0,0,0,0,0],"split_type":[0,0,0,0,0,0,0,0,0,0,0,0,0,0,0,0,0,0,0,0,0,0,0,0,0,0,0,0,0,0,0,0,0,0,0,0,0,0,0,0,0,0,0,0,0],"sum_hessian":[1.4388816E3,9.9673395E2,4.4214767E2,3.3919745E2,6.575365E2,7.155032E1,3.7059735E2,1.2686476E1,3.26511E2,6.030677E2,5.446877E1,1.6015652E1,5.553467E1,1.5387341E2,2.1672395E2,1.1840816E0,1.1502394E1,1.3867694E1,3.1264328E2,3.0301706E1,5.72766E2,9.2458315E0,4.522294E1,4.8357654E0,5.0698906E1,8.229269E1,7.158073E1,1.02824425E2,1.1389952E2,1.2353556E0,1.2632339E1,1.2007043E2,1.9257286E2,4.4421384E2,1.2855217E2,3.3029063E0,5.942925E0,3.179795E0,4.751911E1,7.0782075E0,7.5214485E1,2.3352115E0,6.9245514E1,1.2975904E0,1.0152683E2],"tree_param":{"num_deleted":"0","num_feature":"7","num_nodes":"45","size_leaf_vector":"1"}},{"base_weights":[-1.2864028E-3,-3.555175E-1,7.809733E-1,-4.805582E-1,6.730626E-2,-1.2098382E-1,9.599054E-1,-6.1548686E-1,-5.082021E-2,-7.1622334E-2,2.1474513E-1,-6.9134936E-2,2.7469587E-1,6.958858E-1,1.1555692E0,1.2196524E0,-6.5828747E-1,6.5085495E-1,-8.3195114E-1,4.423846E-1,-5.02289E-1,-7.5514495E-2,5.211558E-1,1.2932907E0,5.253379E-1,1.0390288E0,6.256356E-2,-4.5226943E-2,7.477329E-2,-2.4895824E-2,-5.690637E-2,4.0779125E-2,-7.261498E-2,7.289191E-2,-5.174234E-2,5.935098E-4,4.4758644E-2,4.014861E-2,-8.0487184E-2,-6.276274E-2,3.3122614E-2,6.9730505E-2,3.6278225E-2,1.0904759E-2,5.3468477E-2,-4.04989E-2,5.3537227E-2],"categories":[],"categories_nodes":[],"categories_segments":[],"categories_sizes":[],"default_left":[0,0,0,0,0,0,0,0,0,0,0,0,0,0,0,0,0,0,0,0,0,0,0,0,0,0,0,0,0,0,0,0,0,0,0,0,0,0,0,0,0,0,0,0,0,0,0],"id":15,"left_children":[1,3,5,7,9,11,13,15,17,-1,19,-1,21,23,25,27,29,31,33,35,37,-1,39,41,43,45,-1,-1,-1,-1,-1,-1,-1,-1,-1,-1,-1,-1,-1,-1,-1,-1,-1,-1,-1,-1,-1],"loss_changes":[3.9516068E2,5.1927963E1,7.18512E1,4.3901108E1,5.0038586E1,3.7557274E1,1.8362183E1,4.6086273E1,1.0037024E2,0E0,3.3788128E1,0E0,2.6093796E1,1.56668625E1,1.0596924E0,9.25642E0,4.2837326E1,3.4619728E1,4.1754562E1,3.0519533E1,7.360041E1,0E0,1.3705148E1,9.982567E-1,2.0909676E1,6.807686E0,0E0,0E0,0E0,0E0,0E0,0E0,0E0,0E0,0E0,0E0,0E0,0E0,0E0,0E0,0E0,0E0,0E0,0E0,0E0,0E0,0E0],"parents":[2147483647,0,0,1,1,2,2,3,3,4,4,5,5,6,6,7,7,8,8,10,10,12,12,13,13,14,14,15,15,16,16,17,17,18,18,19,19,20,20,22,22,23,23,24,24,25,25],"right_children":[2,4,6,8,10,12,14,16,18,-1,20,-1,22,24,26,28,30,32,34,36,38,-1,40,42,44,46,-1,-1,-1,-1,-1,-1,-1,-1,-1,-1,-1,-1,-1,-1,-1,-1,-1,-1,-1,-1,-1],"split_conditions":[1.12E0,6.9E1,1.8E1,6.2E0,4.6E0,5.3E1,1.46E0,2.1E0,6.7E0,-7.1622334E-2,5.9E0,-6.9134936E-2,1.16E0,5.5E0,1.99E0,1.5E1,1.5E1,1.41E2,1.83E1,2.9E1,7.5E0,-7.5514495E-2,1.16E2,1.24E2,1.4933333E2,5.1E0,6.256356E-2,-4.5226943E-2,7.477329E-2,-2.4895824E-2,-5.690637E-2,4.0779125E-2,-7.261498E-2,7.289191E-2,-5.174234E-2,5.935098E-4,4.4758644E-2,4.014861E-2,-8.0487184E-2,-6.276274E-2,3.3122614E-2,6.9730505E-2,3.6278225E-2,1.0904759E-2,5.3468477E-2,-4.04989E-2,5.3537227E-2],"split_indices":[1,0,2,3,3,0,1,3,3,0,3,0,1,6,1,2,2,4,5,5,6,0,4,4,4,3,0,0,0,0,0,0,0,0,0,0,0,0,0,0,0,0,0,0,0,0,0],"split_type":[0,0,0,0,0,0,0,0,0,0,0,0,0,0,0,0,0,0,0,0,0,0,0,0,0,0,0,0,0,0,0,0,0,0,0,0,0,0,0,0,0,0,0,0,0,0,0],"sum_hessian":[1.4240522E3,9.805671E2,4.4348523E2,7.5666406E2,2.2390298E2,7.346885E1,3.7001636E2,5.755281E2,1.8113599E2,1.9261265E1,2.0464172E2,1.6944132E1,5.6524715E1,1.594366E2,2.1057977E2,1.2490323E1,5.630378E2,9.550891E1,8.5627075E1,1.5561963E2,4.90221E1,6.2355824E0,5.0289135E1,3.3945873E1,1.2549072E2,1.0029863E2,1.1028114E2,1.1734445E0,1.1316879E1,4.2352567E2,1.395121E2,8.9139366E1,6.369542E0,6.4662867E0,7.916078E1,8.029796E1,7.532167E1,2.2627712E1,2.6394388E1,3.1244185E0,4.7164715E1,2.7569246E1,6.3766284E0,8.109377E1,4.4396946E1,1.2775822E0,9.902104E1],"tree_param":{"num_deleted":"0","num_feature":"7","num_nodes":"47","size_leaf_vector":"1"}},{"base_weights":[-1.2280125E-3,-2.8428587E-1,9.1082174E-1,-6.719203E-1,-1.2239964E-1,4.1108972E-1,1.0796901E0,-8.697304E-1,1.7779058E-2,-5.77561E-1,7.821875E-2,-6.2117707E-2,5.818137E-1,-4.3821186E-2,1.0924306E0,2.3744035E-1,-9.904249E-1,-6.991642E-2,4.2539763E-1,-8.1561947E-1,8.803977E-2,-7.583081E-2,1.16374545E-1,1.0535151E0,2.1237202E-1,9.8579687E-1,1.2215743E0,-6.497117E-2,6.91035E-2,3.8677227E-2,-5.371925E-2,-6.823294E-2,4.0758226E-2,2.6922753E-2,-4.9470153E-2,-7.8035496E-2,3.0209964E-2,3.871867E-2,1.2791537E-3,5.8431912E-2,-6.1427798E-2,-2.5260953E-2,4.3074694E-2,-4.654977E-2,5.08112E-2,6.1877526E-2,3.5332244E-2],"categories":[],"categories_nodes":[],"categories_segments":[],"categories_sizes":[],"default_left":[0,0,0,0,0,0,0,0,0,0,0,0,0,0,0,0,0,0,0,0,0,0,0,0,0,0,0,0,0,0,0,0,0,0,0,0,0,0,0,0,0,0,0,0,0,0,0],"id":16,"left_children":[1,3,5,7,9,11,13,15,17,19,21,-1,23,-1,25,27,29,-1,31,33,35,-1,37,39,41,43,45,-1,-1,-1,-1,-1,-1,-1,-1,-1,-1,-1,-1,-1,-1,-1,-1,-1,-1,-1,-1],"loss_changes":[3.640665E2,6.745284E1,2.7742676E1,4.323958E1,6.947892E1,2.4992058E1,7.1637573E0,3.3138657E1,4.1921394E1,3.69498E1,3.2345848E1,0E0,1.3475262E1,0E0,2.2091675E0,4.5792034E1,3.3742447E1,0E0,4.0434467E1,4.089515E1,5.3889084E1,0E0,3.0879498E1,1.044017E1,2.1552784E1,9.166428E0,1.3290405E-2,0E0,0E0,0E0,0E0,0E0,0E0,0E0,0E0,0E0,0E0,0E0,0E0,0E0,0E0,0E0,0E0,0E0,0E0,0E0,0E0],"parents":[2147483647,0,0,1,1,2,2,3,3,4,4,5,5,6,6,7,7,8,8,9,9,10,10,12,12,14,14,15,15,16,16,18,18,19,19,20,20,22,22,23,23,24,24,25,25,26,26],"right_children":[2,4,6,8,10,12,14,16,18,20,22,-1,24,-1,26,28,30,-1,32,34,36,-1,38,40,42,44,46,-1,-1,-1,-1,-1,-1,-1,-1,-1,-1,-1,-1,-1,-1,-1,-1,-1,-1,-1,-1],"split_conditions":[1.23E0,4.3E1,1.41E0,8.5E0,8.3E-1,1.6E1,1.4E1,5.8E-1,7.1E-1,8.5E0,1.1E1,-6.2117707E-2,1.25E0,-4.3821186E-2,1.99E0,3.8E1,4E0,-6.991642E-2,2.7E1,1E1,1.4E1,-7.583081E-2,2.29E1,2.4E1,3.29E1,5.3E0,4.02E1,-6.497117E-2,6.91035E-2,3.8677227E-2,-5.371925E-2,-6.823294E-2,4.0758226E-2,2.6922753E-2,-4.9470153E-2,-7.8035496E-2,3.0209964E-2,3.871867E-2,1.2791537E-3,5.8431912E-2,-6.1427798E-2,-2.5260953E-2,4.3074694E-2,-4.654977E-2,5.08112E-2,6.1877526E-2,3.5332244E-2],"split_indices":[1,0,1,6,1,2,2,1,1,6,2,0,1,0,1,0,6,0,0,2,2,0,5,2,5,3,5,0,0,0,0,0,0,0,0,0,0,0,0,0,0,0,0,0,0,0,0],"split_type":[0,0,0,0,0,0,0,0,0,0,0,0,0,0,0,0,0,0,0,0,0,0,0,0,0,0,0,0,0,0,0,0,0,0,0,0,0,0,0,0,0,0,0,0,0,0,0],"sum_hessian":[1.4082175E3,1.0752104E3,3.3300708E2,3.1582385E2,7.593866E2,8.4975E1,2.4803206E2,2.4522946E2,7.059439E1,2.3173935E2,5.276473E2,7.365353E0,7.760965E1,1.1663516E0,2.468657E2,2.4010033E1,2.2121944E2,1.5235225E1,5.535916E1,1.705243E2,6.1215034E1,1.1423422E1,5.162238E2,3.3273968E1,4.4335682E1,1.3994589E2,1.06919815E2,1.0191262E1,1.381877E1,9.67786E0,2.1154156E2,9.451351E0,4.590781E1,1.9157309E1,1.51367E2,1.411245E1,4.7102585E1,6.167967E1,4.5454416E2,3.2140488E1,1.1334804E0,2.1162573E1,2.317311E1,1.7243015E0,1.3822159E2,1.02341225E2,4.578589E0],"tree_param":{"num_deleted":"0","num_feature":"7","num_nodes":"47","size_leaf_vector":"1"}},{"base_weights":[-1.3366818E-3,-3.2239264E-1,7.510791E-1,-6.2688345E-1,-1.674401E-1,-6.795903E-2,9.129698E-1,1.163121E0,-6.991605E-1,-7.65312E-2,-1.1844417E0,-6.656289E-2,2.9857588E-1,6.4532E-1,1.1094536E0,-4.3766424E-2,7.1583174E-2,9.302718E-1,-7.7624863E-1,-7.13081E-2,-5.652455E-3,3.969779E-1,-7.5675115E-2,-6.931406E-2,4.845184E-1,3.970953E-1,9.2483205E-1,9.888442E-1,1.2103682E0,-4.738193E-2,5.8408357E-2,-1.8968008E-2,-5.1212866E-2,-8.880296E-3,2.9168261E-2,-5.6636836E-2,6.366241E-2,-6.1414976E-2,3.1028846E-2,3.5528596E-2,-5.0293803E-2,-7.357209E-2,5.14944E-2,-3.8851175E-2,5.099556E-2,6.134797E-2,3.4437474E-2],"categories":[],"categories_nodes":[],"categories_segments":[],"categories_sizes":[],"default_left":[0,0,0,0,0,0,0,0,0,0,0,0,0,0,0,0,0,0,0,0,0,0,0,0,0,0,0,0,0,0,0,0,0,0,0,0,0,0,0,0,0,0,0,0,0,0,0],"id":17,"left_children":[1,3,5,7,9,11,13,15,17,19,21,-1,23,25,27,-1,-1,29,31,-1,33,35,-1,-1,37,39,41,43,45,-1,-1,-1,-1,-1,-1,-1,-1,-1,-1,-1,-1,-1,-1,-1,-1,-1,-1],"loss_changes":[3.3696838E2,4.6025658E1,5.5380127E1,4.3427765E1,5.994377E1,3.2710552E1,1.760669E1,8.456648E0,4.0568726E1,5.7113274E1,2.8291489E1,0E0,1.7873346E1,1.0032085E1,1.2316284E0,0E0,0E0,7.7120457E0,2.9479614E1,0E0,5.7666866E1,1.4789651E1,0E0,0E0,1.2458898E1,3.6399258E1,1.9073795E1,6.078697E0,5.644226E-2,0E0,0E0,0E0,0E0,0E0,0E0,0E0,0E0,0E0,0E0,0E0,0E0,0E0,0E0,0E0,0E0,0E0,0E0],"parents":[2147483647,0,0,1,1,2,2,3,3,4,4,5,5,6,6,7,7,8,8,9,9,10,10,12,12,13,13,14,14,17,17,18,18,20,20,21,21,24,24,25,25,26,26,27,27,28,28],"right_children":[2,4,6,8,10,12,14,16,18,20,22,-1,24,26,28,-1,-1,30,32,-1,34,36,-1,-1,38,40,42,44,46,-1,-1,-1,-1,-1,-1,-1,-1,-1,-1,-1,-1,-1,-1,-1,-1,-1,-1],"split_conditions":[1.13E0,5.1E0,1.8E1,2.1E0,7.3E0,5.3E1,1.46E0,1.5E1,9.3E1,6.7E-1,1.07E2,-6.656289E-2,1.16E0,6.8E0,1.99E0,-4.3766424E-2,7.1583174E-2,6.4E-1,2.46E1,-7.13081E-2,3.53E1,1.06666664E2,-7.5675115E-2,-6.931406E-2,1.16E2,6E0,2.1E1,5.1E0,4.02E1,-4.738193E-2,5.8408357E-2,-1.8968008E-2,-5.1212866E-2,-8.880296E-3,2.9168261E-2,-5.6636836E-2,6.366241E-2,-6.1414976E-2,3.1028846E-2,3.5528596E-2,-5.0293803E-2,-7.357209E-2,5.14944E-2,-3.8851175E-2,5.099556E-2,6.134797E-2,3.4437474E-2],"split_indices":[1,3,2,3,3,0,1,2,4,1,4,0,1,3,1,0,0,1,5,0,5,4,0,0,4,3,2,3,5,0,0,0,0,0,0,0,0,0,0,0,0,0,0,0,0,0,0],"split_type":[0,0,0,0,0,0,0,0,0,0,0,0,0,0,0,0,0,0,0,0,0,0,0,0,0,0,0,0,0,0,0,0,0,0,0,0,0,0,0,0,0,0,0,0,0,0,0],"sum_hessian":[1.3929215E3,9.7672455E2,4.1619702E2,3.2838443E2,6.483401E2,6.878415E1,3.4741287E2,1.215919E1,3.1622525E2,5.96128E2,5.2212112E1,1.487702E1,5.390713E1,1.4888557E2,1.9852731E2,1.1523542E0,1.1006836E1,1.3784784E1,3.0244046E2,2.8790741E1,5.673372E2,8.957449E0,4.3254665E1,4.7163196E0,4.919081E1,8.013829E1,6.874728E1,9.535793E1,1.0316938E2,1.214475E0,1.257031E1,1.17282616E2,1.8515784E2,4.3967905E2,1.2765818E2,3.1557472E0,5.8017015E0,3.0291853E0,4.6161625E1,6.5905945E1,1.4232344E1,2.341124E0,6.640615E1,1.2334985E0,9.412443E1,9.8678474E1,4.4909062E0],"tree_param":{"num_deleted":"0","num_feature":"7","num_nodes":"47","size_leaf_vector":"1"}},{"base_weights":[-1.4212282E-3,-3.1422973E-1,7.166721E-1,-6.310742E-1,-1.6534135E-1,-1.2584807E-1,8.878086E-1,8.015178E-1,-7.028268E-1,-9.327127E-2,-7.3797815E-2,-5.7967424E-1,8.558167E-1,6.333271E-1,1.087829E0,-5.4670315E-2,1.0854417E0,-1.198045E0,-4.5471808E-1,-7.050159E-2,-3.4144003E-2,-1.2927455E-1,-7.15011E-2,-5.1496904E-2,1.0245813E0,1.2364343E0,4.6244642E-1,9.6481025E-1,1.1917593E0,3.6588784E-2,6.764911E-2,-7.130443E-2,-2.101005E-2,-3.821486E-2,8.096106E-3,-1.0142583E-2,2.234274E-2,-6.536474E-2,1.7018205E-2,2.9176796E-2,5.9341002E-2,6.710089E-2,3.263523E-2,8.131306E-3,5.0337415E-2,-3.813568E-2,4.9782507E-2,6.043002E-2,3.3566404E-2],"categories":[],"categories_nodes":[],"categories_segments":[],"categories_sizes":[],"default_left":[0,0,0,0,0,0,0,0,0,0,0,0,0,0,0,0,0,0,0,0,0,0,0,0,0,0,0,0,0,0,0,0,0,0,0,0,0,0,0,0,0,0,0,0,0,0,0,0,0],"id":18,"left_children":[1,3,5,7,9,11,13,15,17,19,-1,21,23,25,27,-1,29,31,33,-1,35,37,-1,-1,39,41,43,45,47,-1,-1,-1,-1,-1,-1,-1,-1,-1,-1,-1,-1,-1,-1,-1,-1,-1,-1,-1,-1],"loss_changes":[3.1002115E2,4.524814E1,6.0494995E1,3.211891E1,6.1768253E1,3.238539E1,1.7035309E1,9.315899E0,3.544014E1,4.840189E1,0E0,1.8791233E1,8.385681E0,1.5467865E1,1.3250885E0,0E0,3.0075836E-1,1.6632477E1,3.7679363E1,0E0,4.8502174E1,1.8972958E1,0E0,0E0,8.560982E-1,1.204979E0,1.988801E1,5.761894E0,7.1014404E-2,0E0,0E0,0E0,0E0,0E0,0E0,0E0,0E0,0E0,0E0,0E0,0E0,0E0,0E0,0E0,0E0,0E0,0E0,0E0,0E0],"parents":[2147483647,0,0,1,1,2,2,3,3,4,4,5,5,6,6,7,7,8,8,9,9,11,11,12,12,13,13,14,14,16,16,17,17,18,18,20,20,21,21,24,24,25,25,26,26,27,27,28,28],"right_children":[2,4,6,8,10,12,14,16,18,20,-1,22,24,26,28,-1,30,32,34,-1,36,38,-1,-1,40,42,44,46,48,-1,-1,-1,-1,-1,-1,-1,-1,-1,-1,-1,-1,-1,-1,-1,-1,-1,-1,-1,-1],"split_conditions":[1.12E0,1.20666664E2,1.8E1,9.3E1,7.3E0,7.5E1,1.46E0,9.0666664E1,2.58E1,6E-1,-7.3797815E-2,6.5E0,1.24666664E2,5.5E0,1.99E0,-5.4670315E-2,3.07E1,8.5E0,5.8E1,-7.050159E-2,8.5E0,5.3E1,-7.15011E-2,-5.1496904E-2,1.42E0,1.24E2,1.4933333E2,5.1E0,4.02E1,3.6588784E-2,6.764911E-2,-7.130443E-2,-2.101005E-2,-3.821486E-2,8.096106E-3,-1.0142583E-2,2.234274E-2,-6.536474E-2,1.7018205E-2,2.9176796E-2,5.9341002E-2,6.710089E-2,3.263523E-2,8.131306E-3,5.0337415E-2,-3.813568E-2,4.9782507E-2,6.043002E-2,3.3566404E-2],"split_indices":[1,4,2,4,3,0,1,4,5,1,0,3,4,6,1,0,5,6,0,0,6,0,0,0,1,4,4,3,5,0,0,0,0,0,0,0,0,0,0,0,0,0,0,0,0,0,0,0,0],"split_type":[0,0,0,0,0,0,0,0,0,0,0,0,0,0,0,0,0,0,0,0,0,0,0,0,0,0,0,0,0,0,0,0,0,0,0,0,0,0,0,0,0,0,0,0,0,0,0,0,0],"sum_hessian":[1.3781652E3,9.603776E2,4.1778748E2,3.059842E2,6.5439343E2,7.058008E1,3.472074E2,1.4109397E1,2.918748E2,6.212996E2,3.3093796E1,4.8546432E1,2.2033642E1,1.5463501E2,1.925724E2,1.4670653E0,1.2642332E1,9.6144424E1,1.9573036E2,2.5717829E1,5.955818E2,3.2489758E1,1.6056675E1,1.3907509E0,2.064289E1,3.2763542E1,1.2187146E2,9.289692E1,9.967549E1,7.0534554E0,5.5888767E0,7.370318E1,2.2441246E1,1.3015013E2,6.5580246E1,4.4135666E2,1.5422514E2,8.752291E0,2.3737467E1,6.7876E0,1.3855291E1,2.6645027E1,6.1185174E0,7.942191E1,4.244955E1,1.2130889E0,9.168383E1,9.527026E1,4.4052224E0],"tree_param":{"num_deleted":"0","num_feature":"7","num_nodes":"49","size_leaf_vector":"1"}},{"base_weights":[-1.3607923E-3,-2.498724E-1,8.423497E-1,-6.162493E-1,-9.997507E-2,3.5793933E-1,1.0133364E0,-1.1851145E0,-3.7963864E-1,-5.2427304E-1,8.2671784E-2,-6.0076803E-2,5.1567036E-1,-4.308629E-2,1.0265489E0,7.7664244E-1,-7.160132E-2,-6.923358E-2,-1.9361757E-1,-6.316662E-1,7.853997E-1,-7.2769776E-2,1.1864854E-1,9.8822635E-1,1.5348993E-1,9.15919E-1,1.1651171E0,-5.66533E-2,9.195744E-2,-7.576691E-4,-7.0555724E-2,-6.9378294E-2,-2.3003023E-2,7.894885E-2,-6.9428265E-2,3.7670963E-2,1.5326238E-3,5.532643E-2,-6.084851E-2,-2.7024254E-2,3.999831E-2,-4.4753965E-2,4.7298055E-2,5.9089392E-2,3.271773E-2],"categories":[],"categories_nodes":[],"categories_segments":[],"categories_sizes":[],"default_left":[0,0,0,0,0,0,0,0,0,0,0,0,0,0,0,0,0,0,0,0,0,0,0,0,0,0,0,0,0,0,0,0,0,0,0,0,0,0,0,0,0,0,0,0,0],"id":19,"left_children":[1,3,5,7,9,11,13,15,17,19,21,-1,23,-1,25,27,-1,-1,29,31,33,-1,35,37,39,41,43,-1,-1,-1,-1,-1,-1,-1,-1,-1,-1,-1,-1,-1,-1,-1,-1,-1,-1],"loss_changes":[2.8619073E2,5.7843666E1,2.5360641E1,4.0729332E1,5.8122356E1,2.0929821E1,6.5577545E0,4.4415375E1,4.040258E1,3.223565E1,2.921094E1,0E0,1.2801815E1,0E0,2.4257202E0,2.3678288E1,0E0,0E0,4.0115955E1,2.6487434E1,3.246612E1,0E0,2.8671112E1,9.865553E0,2.018597E1,7.9941864E0,5.66864E-2,0E0,0E0,0E0,0E0,0E0,0E0,0E0,0E0,0E0,0E0,0E0,0E0,0E0,0E0,0E0,0E0,0E0,0E0],"parents":[2147483647,0,0,1,1,2,2,3,3,4,4,5,5,6,6,7,7,8,8,9,9,10,10,12,12,14,14,15,15,18,18,19,19,20,20,22,22,23,23,24,24,25,25,26,26],"right_children":[2,4,6,8,10,12,14,16,18,20,22,-1,24,-1,26,28,-1,-1,30,32,34,-1,36,38,40,42,44,-1,-1,-1,-1,-1,-1,-1,-1,-1,-1,-1,-1,-1,-1,-1,-1,-1,-1],"split_conditions":[1.23E0,4.3E1,1.41E0,8E0,8.3E-1,1.6E1,1.4E1,4E0,2.3E1,1.05E1,1.1E1,-6.0076803E-2,1.25E0,-4.308629E-2,1.99E0,1.02E0,-7.160132E-2,-6.923358E-2,6.3E0,2.45E1,1.1E1,-7.2769776E-2,2.29E1,2.4E1,3.29E1,5.3E0,4.02E1,-5.66533E-2,9.195744E-2,-7.576691E-4,-7.0555724E-2,-6.9378294E-2,-2.3003023E-2,7.894885E-2,-6.9428265E-2,3.7670963E-2,1.5326238E-3,5.532643E-2,-6.084851E-2,-2.7024254E-2,3.999831E-2,-4.4753965E-2,4.7298055E-2,5.9089392E-2,3.271773E-2],"split_indices":[1,0,1,6,1,2,2,6,5,6,2,0,1,0,1,1,0,0,3,5,6,0,5,2,5,3,5,0,0,0,0,0,0,0,0,0,0,0,0,0,0,0,0,0,0],"split_type":[0,0,0,0,0,0,0,0,0,0,0,0,0,0,0,0,0,0,0,0,0,0,0,0,0,0,0,0,0,0,0,0,0,0,0,0,0,0,0,0,0,0,0,0,0],"sum_hessian":[1.362942E3,1.0533776E3,3.095644E2,3.04939E2,7.484386E2,8.1569374E1,2.2799503E2,8.839906E1,2.1653993E2,2.2466347E2,5.2377515E2,6.884564E0,7.4684814E1,1.1459423E0,2.2684908E2,9.642476E0,7.8756584E1,3.281324E1,1.8372668E2,2.0811568E2,1.6547792E1,1.1069774E1,5.127054E2,3.1654701E1,4.303011E1,1.3037248E2,9.64766E1,3.42325E0,6.2192264E0,1.6112148E2,2.2605204E1,3.7194275E1,1.709214E2,1.2323096E1,4.2246957E0,6.150066E1,4.512047E2,3.0515837E1,1.1388648E0,2.0831743E1,2.2198368E1,1.6575536E0,1.2871492E2,9.2155E1,4.3216014E0],"tree_param":{"num_deleted":"0","num_feature":"7","num_nodes":"45","size_leaf_vector":"1"}},{"base_weights":[-1.5277844E-3,-2.8991693E-1,6.790119E-1,-5.9211534E-1,-1.5023115E-1,-1.2966013E-1,8.4516823E-1,7.692787E-1,-6.6096574E-1,-8.1664644E-2,-7.165282E-2,-5.6389195E-1,8.173933E-1,5.980936E-1,1.0476592E0,-5.285759E-2,1.0455488E0,-6.918727E-2,-4.95147E-1,-2.157902E-1,4.633058E-1,-1.2999725E-1,-6.979206E-2,-5.0285447E-2,9.8513585E-1,1.1934537E0,4.316854E-1,9.19958E-1,1.1577592E0,3.4617733E-2,6.5834455E-2,1.0867142E-2,-4.134651E-2,-6.2934156E-3,-7.890572E-2,3.5891306E-2,-7.424069E-2,-6.37592E-2,1.574364E-2,3.2973822E-2,6.24576E-2,6.511423E-2,2.9988576E-2,6.9655017E-3,4.8601884E-2,5.0634243E-2,8.865883E-3,5.8761813E-2,3.189027E-2],"categories":[],"categories_nodes":[],"categories_segments":[],"categories_sizes":[],"default_left":[0,0,0,0,0,0,0,0,0,0,0,0,0,0,0,0,0,0,0,0,0,0,0,0,0,0,0,0,0,0,0,0,0,0,0,0,0,0,0,0,0,0,0,0,0,0,0,0,0],"id":20,"left_children":[1,3,5,7,9,11,13,15,17,19,-1,21,23,25,27,-1,29,-1,31,33,35,37,-1,-1,39,41,43,45,47,-1,-1,-1,-1,-1,-1,-1,-1,-1,-1,-1,-1,-1,-1,-1,-1,-1,-1,-1,-1],"loss_changes":[2.6511575E2,3.9961502E1,5.4132767E1,2.8588905E1,5.7073254E1,2.8999725E1,1.6066727E1,8.615402E0,3.355577E1,4.52917E1,0E0,1.7207762E1,7.787236E0,1.4605015E1,1.4944458E0,0E0,3.7458992E-1,0E0,5.548163E1,6.066514E1,6.1770424E1,1.7092949E1,0E0,0E0,9.694824E-1,1.3363953E0,1.8956314E1,5.9598465E0,1.03652954E-1,0E0,0E0,0E0,0E0,0E0,0E0,0E0,0E0,0E0,0E0,0E0,0E0,0E0,0E0,0E0,0E0,0E0,0E0,0E0,0E0],"parents":[2147483647,0,0,1,1,2,2,3,3,4,4,5,5,6,6,7,7,8,8,9,9,11,11,12,12,13,13,14,14,16,16,18,18,19,19,20,20,21,21,24,24,25,25,26,26,27,27,28,28],"right_children":[2,4,6,8,10,12,14,16,18,20,-1,22,24,26,28,-1,30,-1,32,34,36,38,-1,-1,40,42,44,46,48,-1,-1,-1,-1,-1,-1,-1,-1,-1,-1,-1,-1,-1,-1,-1,-1,-1,-1,-1,-1],"split_conditions":[1.12E0,1.20666664E2,1.8E1,9.3E1,7.3E0,7.5E1,1.46E0,9.0666664E1,1.04666664E2,6.2E0,-7.165282E-2,6.5E0,1.24666664E2,5.5E0,1.99E0,-5.285759E-2,3.07E1,-6.918727E-2,1.09E2,5.9E0,1.46E2,5.3E1,-6.979206E-2,-5.0285447E-2,8.5E0,1.24E2,1.4933333E2,1.85E0,4.02E1,3.4617733E-2,6.5834455E-2,1.0867142E-2,-4.134651E-2,-6.2934156E-3,-7.890572E-2,3.5891306E-2,-7.424069E-2,-6.37592E-2,1.574364E-2,3.2973822E-2,6.24576E-2,6.511423E-2,2.9988576E-2,6.9655017E-3,4.8601884E-2,5.0634243E-2,8.865883E-3,5.8761813E-2,3.189027E-2],"split_indices":[1,4,2,4,3,0,1,4,4,3,0,3,4,6,1,0,5,0,4,3,4,0,0,0,6,4,4,1,5,0,0,0,0,0,0,0,0,0,0,0,0,0,0,0,0,0,0,0,0],"split_type":[0,0,0,0,0,0,0,0,0,0,0,0,0,0,0,0,0,0,0,0,0,0,0,0,0,0,0,0,0,0,0,0,0,0,0,0,0,0,0,0,0,0,0,0,0,0,0,0,0],"sum_hessian":[1.3488346E3,9.4777454E2,4.0106006E2,2.985809E2,6.491936E2,6.839683E1,3.326632E2,1.388362E1,2.846973E2,6.172647E2,3.1928896E1,4.7172455E1,2.1224377E1,1.5161722E2,1.8104599E2,1.4527731E0,1.2430847E1,5.175591E1,2.3294138E2,4.9583597E2,1.2142877E2,3.1763025E1,1.5409428E1,1.3673913E0,1.9856985E1,3.177254E1,1.1984468E2,8.815441E1,9.289159E1,6.9417906E0,5.489057E0,7.4118996E1,1.5882239E2,4.6615897E2,2.9677004E1,1.0795594E2,1.347283E1,8.364546E0,2.339848E1,1.0456692E1,9.400293E0,2.5841776E1,5.9307632E0,7.8582726E1,4.126195E1,7.804589E1,1.0108518E1,8.86515E1,4.2400875E0],"tree_param":{"num_deleted":"0","num_feature":"7","num_nodes":"49","size_leaf_vector":"1"}},{"base_weights":[-1.466659E-3,-1.8968806E-1,9.732039E-1,-3.246486E-1,2.1309194E-1,-4.20582E-2,9.86591E-1,-2.650336E-1,-7.1315326E-2,-6.764754E-2,2.9035398E-1,8.7318444E-1,1.132351E0,-3.6750063E-1,5.6484336E-1,8.7542635E-1,1.4819959E-1,-4.4556674E-2,9.0396076E-1,5.7484757E-2,3.1082956E-2,-3.8912147E-2,-1.037076E-2,4.6459757E-2,-7.475429E-2,5.7124328E-2,-7.065656E-2,2.4630984E-2,-1.1257744E-2,4.876538E-2,5.2567828E-3],"categories":[],"categories_nodes":[],"categories_segments":[],"categories_sizes":[],"default_left":[0,0,0,0,0,0,0,0,0,0,0,0,0,0,0,0,0,0,0,0,0,0,0,0,0,0,0,0,0,0,0],"id":21,"left_children":[1,3,5,7,9,-1,11,13,-1,-1,15,17,19,21,23,25,27,-1,29,-1,-1,-1,-1,-1,-1,-1,-1,-1,-1,-1,-1],"loss_changes":[2.452677E2,6.098135E1,6.085846E0,5.4770233E1,3.449363E1,0E0,2.5696716E0,6.80512E1,0E0,0E0,2.2277039E1,7.616844E0,8.979797E-2,4.6573364E1,6.749511E1,3.3676228E1,2.8137127E1,0E0,6.952469E0,0E0,0E0,0E0,0E0,0E0,0E0,0E0,0E0,0E0,0E0,0E0,0E0],"parents":[2147483647,0,0,1,1,2,2,3,3,4,4,6,6,7,7,10,10,11,11,12,12,13,13,14,14,15,15,16,16,18,18],"right_children":[2,4,6,8,10,-1,12,14,-1,-1,16,18,20,22,24,26,28,-1,30,-1,-1,-1,-1,-1,-1,-1,-1,-1,-1,-1,-1],"split_conditions":[1.41E0,1.03E0,1.4E1,7.1E0,3.2E1,-4.20582E-2,1.99E0,6.5E0,-7.1315326E-2,-6.764754E-2,6E0,5.3E0,4.02E1,8E0,9.3E-1,1.28E2,5.9E0,-4.4556674E-2,1.85E0,5.7484757E-2,3.1082956E-2,-3.8912147E-2,-1.037076E-2,4.6459757E-2,-7.475429E-2,5.7124328E-2,-7.065656E-2,2.4630984E-2,-1.1257744E-2,4.876538E-2,5.2567828E-3],"split_indices":[1,1,2,3,0,0,1,3,0,0,6,3,5,6,1,4,3,0,1,0,0,0,0,0,0,0,0,0,0,0,0],"split_type":[0,0,0,0,0,0,0,0,0,0,0,0,0,0,0,0,0,0,0,0,0,0,0,0,0,0,0,0,0,0,0],"sum_hessian":[1.3349385E3,1.1195453E3,2.1539319E2,8.3871045E2,2.8083487E2,1.1247122E0,2.1426848E2,7.9683136E2,4.1879063E1,1.2427513E1,2.6840738E2,1.2444016E2,8.982832E1,7.097535E2,8.707792E1,5.1458527E1,2.1694884E2,1.6542037E0,1.2278596E2,8.566761E1,4.16071E0,1.9796347E2,5.1178998E2,7.445717E1,1.2620756E1,4.65296E1,4.928928E0,1.12681E2,1.0426784E2,1.12515724E2,1.0270232E1],"tree_param":{"num_deleted":"0","num_feature":"7","num_nodes":"31","size_leaf_vector":"1"}},{"base_weights":[-1.474575E-3,-1.8141764E-1,9.5345664E-1,-5.254117E-1,-2.6796453E-2,-4.1206166E-2,9.6685714E-1,-9.522253E-1,-3.6048815E-1,-6.78527E-2,2.9993763E-2,8.5133976E-1,1.1170806E0,-2.6011035E-1,-6.779905E-2,1.2987854E0,-4.7261438E-1,-1.0121545E0,8.847579E-2,-4.3676864E-2,8.8178587E-1,5.674069E-2,3.0294914E-2,3.2418873E-2,-6.454076E-2,-5.1110007E-2,9.107273E-2,-3.330404E-2,3.1258685E-3,-7.166998E-2,4.1621707E-2,4.17078E-2,8.993361E-4,4.766461E-2,5.0310846E-3],"categories":[],"categories_nodes":[],"categories_segments":[],"categories_sizes":[],"default_left":[0,0,0,0,0,0,0,0,0,0,0,0,0,0,0,0,0,0,0,0,0,0,0,0,0,0,0,0,0,0,0,0,0,0,0],"id":22,"left_children":[1,3,5,7,9,-1,11,13,15,-1,17,19,21,23,-1,25,27,29,31,-1,33,-1,-1,-1,-1,-1,-1,-1,-1,-1,-1,-1,-1,-1,-1],"loss_changes":[2.2765034E2,5.927883E1,5.800583E0,2.3986595E1,5.822047E1,0E0,2.6750183E0,2.6396706E1,4.729563E1,0E0,4.516436E1,7.194214E0,1.0675812E-1,3.5019592E1,0E0,2.1452467E1,2.4450245E1,3.1790638E1,3.6841522E1,0E0,6.646141E0,0E0,0E0,0E0,0E0,0E0,0E0,0E0,0E0,0E0,0E0,0E0,0E0,0E0,0E0],"parents":[2147483647,0,0,1,1,2,2,3,3,4,4,6,6,7,7,8,8,10,10,11,11,12,12,13,13,15,15,16,16,17,17,18,18,20,20],"right_children":[2,4,6,8,10,-1,12,14,16,-1,18,20,22,24,-1,26,28,30,32,-1,34,-1,-1,-1,-1,-1,-1,-1,-1,-1,-1,-1,-1,-1,-1],"split_conditions":[1.41E0,8.2E-1,1.4E1,3.8E1,2.6E1,-4.1206166E-2,1.99E0,2.6E1,3.9E1,-6.78527E-2,1.2E1,5.3E0,4.02E1,1.07E2,-6.779905E-2,4.5E0,8.5E0,7.4E1,4.1E0,-4.3676864E-2,1.85E0,5.674069E-2,3.0294914E-2,3.2418873E-2,-6.454076E-2,-5.1110007E-2,9.107273E-2,-3.330404E-2,3.1258685E-3,-7.166998E-2,4.1621707E-2,4.17078E-2,8.993361E-4,4.766461E-2,5.0310846E-3],"split_indices":[1,1,2,0,0,0,1,0,0,0,2,3,5,4,0,3,6,0,3,0,1,0,0,0,0,0,0,0,0,0,0,0,0,0,0],"split_type":[0,0,0,0,0,0,0,0,0,0,0,0,0,0,0,0,0,0,0,0,0,0,0,0,0,0,0,0,0,0,0,0,0,0,0],"sum_hessian":[1.3228263E3,1.1137635E3,2.0906271E2,3.4463577E2,7.6912775E2,1.1115793E0,2.0795114E2,9.472323E1,2.4991255E2,3.0553144E1,7.385746E2,1.2132382E2,8.662731E1,3.550501E1,5.921822E1,1.5149089E1,2.3476346E2,3.8377712E1,7.001969E2,1.6240581E0,1.1969976E2,8.254382E1,4.0834885E0,1.9068508E1,1.64365E1,2.6087656E0,1.2540323E1,1.7224643E2,6.251703E1,3.1424318E1,6.9533944E0,5.9537357E1,6.4065955E2,1.0945967E2,1.02400875E1],"tree_param":{"num_deleted":"0","num_feature":"7","num_nodes":"35","size_leaf_vector":"1"}},{"base_weights":[-1.5022721E-3,-1.7360246E-1,9.342897E-1,-5.060666E-1,-2.5666585E-2,-4.0387053E-2,9.477058E-1,-6.8912435E-1,-1.3387743E-1,-6.654965E-2,2.8510284E-2,8.30105E-1,1.1024771E0,-6.5938756E-2,-4.7316763E-1,2.0147349E-1,-6.67427E-2,-9.8538625E-1,8.412143E-2,-4.283158E-2,8.602281E-1,5.6031752E-2,2.9525286E-2,-9.775143E-4,-4.0422224E-2,-6.440813E-2,2.4261866E-2,-7.006811E-2,4.0051572E-2,3.970645E-2,8.544155E-4,4.6595823E-2,4.8145815E-3],"categories":[],"categories_nodes":[],"categories_segments":[],"categories_sizes":[],"default_left":[0,0,0,0,0,0,0,0,0,0,0,0,0,0,0,0,0,0,0,0,0,0,0,0,0,0,0,0,0,0,0,0,0],"id":23,"left_children":[1,3,5,7,9,-1,11,13,15,-1,17,19,21,-1,23,25,-1,27,29,-1,31,-1,-1,-1,-1,-1,-1,-1,-1,-1,-1,-1,-1],"loss_changes":[2.1137523E2,5.4511395E1,5.530487E0,2.3163292E1,5.4368374E1,0E0,2.7757263E0,3.0454582E1,4.609098E1,0E0,4.1729584E1,6.7972946E0,1.2387085E-1,0E0,2.6104614E1,3.8587185E1,0E0,2.9720997E1,3.3356586E1,0E0,6.3551865E0,0E0,0E0,0E0,0E0,0E0,0E0,0E0,0E0,0E0,0E0,0E0,0E0],"parents":[2147483647,0,0,1,1,2,2,3,3,4,4,6,6,7,7,8,8,10,10,11,11,12,12,14,14,15,15,17,17,18,18,20,20],"right_children":[2,4,6,8,10,-1,12,14,16,-1,18,20,22,-1,24,26,-1,28,30,-1,32,-1,-1,-1,-1,-1,-1,-1,-1,-1,-1,-1,-1],"split_conditions":[1.41E0,8.2E-1,1.4E1,5.5E0,2.6E1,-4.0387053E-2,1.99E0,8E0,6.6E0,-6.654965E-2,1.2E1,5.3E0,4.02E1,-6.5938756E-2,6.4E-1,6.7E-1,-6.67427E-2,7.4E1,4.1E0,-4.283158E-2,1.85E0,5.6031752E-2,2.9525286E-2,-9.775143E-4,-4.0422224E-2,-6.440813E-2,2.4261866E-2,-7.006811E-2,4.0051572E-2,3.970645E-2,8.544155E-4,4.6595823E-2,4.8145815E-3],"split_indices":[1,1,2,3,0,0,1,6,3,0,2,3,5,0,1,1,0,0,3,0,1,0,0,0,0,0,0,0,0,0,0,0,0],"split_type":[0,0,0,0,0,0,0,0,0,0,0,0,0,0,0,0,0,0,0,0,0,0,0,0,0,0,0,0,0,0,0,0,0],"sum_hessian":[1.3104752E3,1.1075938E3,2.0288152E2,3.4033032E2,7.6726337E2,1.098042E0,2.0178346E2,2.2755702E2,1.1277331E2,2.9636644E1,7.376267E2,1.18276306E2,8.3507164E1,5.6810818E1,1.707462E2,8.880763E1,2.3965677E1,3.7484993E1,7.001417E2,1.593807E0,1.166825E2,7.949873E1,4.008427E0,7.301621E1,9.772999E1,1.3643844E1,7.516379E1,3.057987E1,6.905125E0,5.946353E1,6.406782E2,1.06471275E2,1.0211226E1],"tree_param":{"num_deleted":"0","num_feature":"7","num_nodes":"33","size_leaf_vector":"1"}},{"base_weights":[-1.6359192E-3,-1.6623427E-1,9.156366E-1,-3.0082422E-1,1.8630825E-1,-3.9598748E-2,9.290699E-1,-4.290614E-1,1.58899E-1,-2.7928892E-1,4.4868797E-1,8.0941993E-1,1.0884697E0,-6.1686945E-1,-1.4291877E-3,-6.5410227E-1,4.5040503E-1,-3.559887E-2,-8.481879E-2,-6.036939E-2,5.0203466E-1,-4.201833E-2,8.3922577E-1,5.5354334E-2,2.8773347E-2,-2.4869697E-2,-7.448595E-2,-7.2635435E-2,7.142883E-3,-6.902306E-2,1.0659502E-2,3.4760367E-2,-3.0051826E-2,-3.1004597E-2,2.2536498E-2,-5.641545E-2,2.699894E-2,4.555552E-2,4.606973E-3],"categories":[],"categories_nodes":[],"categories_segments":[],"categories_sizes":[],"default_left":[0,0,0,0,0,0,0,0,0,0,0,0,0,0,0,0,0,0,0,0,0,0,0,0,0,0,0,0,0,0,0,0,0,0,0,0,0,0,0],"id":24,"left_children":[1,3,5,7,9,-1,11,13,15,17,19,21,23,25,27,29,31,33,-1,-1,35,-1,37,-1,-1,-1,-1,-1,-1,-1,-1,-1,-1,-1,-1,-1,-1,-1,-1],"loss_changes":[1.9634744E2,5.237332E1,5.274414E0,4.713382E1,3.7416542E1,0E0,2.8718567E0,5.015416E1,4.173411E1,3.814627E1,1.7888348E1,6.424217E0,1.4100647E-1,4.4510254E1,4.0323208E1,2.9622961E1,3.369857E1,2.7404705E1,0E0,0E0,1.2376698E1,0E0,6.0779724E0,0E0,0E0,0E0,0E0,0E0,0E0,0E0,0E0,0E0,0E0,0E0,0E0,0E0,0E0,0E0,0E0],"parents":[2147483647,0,0,1,1,2,2,3,3,4,4,6,6,7,7,8,8,9,9,10,10,11,11,12,12,13,13,14,14,15,15,16,16,17,17,20,20,22,22],"right_children":[2,4,6,8,10,-1,12,14,16,18,20,22,24,26,28,30,32,34,-1,-1,36,-1,38,-1,-1,-1,-1,-1,-1,-1,-1,-1,-1,-1,-1,-1,-1,-1,-1],"split_conditions":[1.41E0,6.9E1,1.4E1,1.8E1,2.85E1,-3.9598748E-2,1.99E0,1.3266667E2,9.1E-1,2.2E1,4.6E0,5.3E0,4.02E1,1.26E2,6E0,2.1E1,1.32E2,9.5E-1,-8.481879E-2,-6.036939E-2,7.2E-1,-4.201833E-2,1.85E0,5.5354334E-2,2.8773347E-2,-2.4869697E-2,-7.448595E-2,-7.2635435E-2,7.142883E-3,-6.902306E-2,1.0659502E-2,3.4760367E-2,-3.0051826E-2,-3.1004597E-2,2.2536498E-2,-5.641545E-2,2.699894E-2,4.555552E-2,4.606973E-3],"split_indices":[1,0,2,2,5,0,1,4,1,2,3,3,5,4,6,2,4,1,0,0,1,0,1,0,0,0,0,0,0,0,0,0,0,0,0,0,0,0,0],"split_type":[0,0,0,0,0,0,0,0,0,0,0,0,0,0,0,0,0,0,0,0,0,0,0,0,0,0,0,0,0,0,0,0,0,0,0,0,0,0,0],"sum_hessian":[1.298465E3,1.1016077E3,1.9685728E2,7.973504E2,3.042573E2,1.0841646E0,1.9577312E2,6.2349634E2,1.7385408E2,1.0963814E2,1.9461914E2,1.1530209E2,8.047102E1,4.329224E2,1.9057393E2,4.5555984E1,1.282981E2,9.4425354E1,1.5212784E1,5.398457E0,1.8922069E2,1.5635455E0,1.1373855E2,7.653549E1,3.9355254E0,3.8217953E2,5.0742844E1,1.6413538E1,1.7416039E2,2.447034E1,2.1085644E1,1.04343155E2,2.3954933E1,4.275969E1,5.1665665E1,3.650123E0,1.8557056E2,1.0355495E2,1.0183601E1],"tree_param":{"num_deleted":"0","num_feature":"7","num_nodes":"39","size_leaf_vector":"1"}},{"base_weights":[-1.8281335E-3,-1.5946048E-1,8.974385E-1,-5.026338E-1,-3.275738E-2,-3.883932E-2,9.1088986E-1,-1.0679194E0,-2.905895E-1,-6.563699E-2,1.3496995E-2,7.8923225E-1,1.0749941E0,-2.7618426E-1,-6.760513E-2,-9.553226E-2,-6.755555E-2,-1.07025616E-1,3.0020022E-1,-4.1234862E-2,8.187253E-1,5.4705143E-2,2.8038448E-2,-6.280538E-2,7.982824E-2,-3.11642E-2,1.4019305E-2,-1.7996201E-3,-6.996739E-2,-6.3678655E-3,2.4598366E-2,4.4540644E-2,4.407919E-3],"categories":[],"categories_nodes":[],"categories_segments":[],"categories_sizes":[],"default_left":[0,0,0,0,0,0,0,0,0,0,0,0,0,0,0,0,0,0,0,0,0,0,0,0,0,0,0,0,0,0,0,0,0],"id":25,"left_children":[1,3,5,7,9,-1,11,13,15,-1,17,19,21,23,-1,25,-1,27,29,-1,31,-1,-1,-1,-1,-1,-1,-1,-1,-1,-1,-1,-1],"loss_changes":[1.8247926E2,4.7608162E1,5.0314484E0,3.5083405E1,4.7441677E1,0E0,2.9633179E0,1.7665504E1,4.457486E1,0E0,2.6779476E1,6.0732346E0,1.5802765E-1,4.317353E1,0E0,3.6601112E1,0E0,5.0044846E1,1.8867918E1,0E0,5.813156E0,0E0,0E0,0E0,0E0,0E0,0E0,0E0,0E0,0E0,0E0,0E0,0E0],"parents":[2147483647,0,0,1,1,2,2,3,3,4,4,6,6,7,7,8,8,10,10,11,11,12,12,13,13,15,15,17,17,18,18,20,20],"right_children":[2,4,6,8,10,-1,12,14,16,-1,18,20,22,24,-1,26,-1,28,30,-1,32,-1,-1,-1,-1,-1,-1,-1,-1,-1,-1,-1,-1],"split_conditions":[1.41E0,4.3E1,1.4E1,2.58E1,6E-1,-3.883932E-2,1.99E0,3.8E0,6.3E0,-6.563699E-2,1.04E0,5.3E0,4.02E1,3.7E0,-6.760513E-2,5.3E0,-6.755555E-2,7.1E0,1.8E1,-4.1234862E-2,1.85E0,5.4705143E-2,2.8038448E-2,-6.280538E-2,7.982824E-2,-3.11642E-2,1.4019305E-2,-1.7996201E-3,-6.996739E-2,-6.3678655E-3,2.4598366E-2,4.4540644E-2,4.407919E-3],"split_indices":[1,0,2,5,1,0,1,3,3,0,1,3,5,3,0,3,0,3,2,0,1,0,0,0,0,0,0,0,0,0,0,0,0],"split_type":[0,0,0,0,0,0,0,0,0,0,0,0,0,0,0,0,0,0,0,0,0,0,0,0,0,0,0,0,0,0,0,0,0],"sum_hessian":[1.2852902E3,1.0942942E3,1.9099603E2,2.9427853E2,8.000156E2,1.070007E0,1.8992603E2,7.917385E1,2.1510469E2,2.6946724E1,7.730689E2,1.1240477E2,7.7521255E1,2.143308E1,5.7740772E1,1.8260837E2,3.249631E1,5.447126E2,2.2835635E2,1.5333579E0,1.10871414E2,7.365649E1,3.8647704E0,1.4286753E1,7.146328E0,7.568965E1,1.0691872E2,5.173064E2,2.7406187E1,7.081204E1,1.5754431E2,1.0071425E2,1.01571665E1],"tree_param":{"num_deleted":"0","num_feature":"7","num_nodes":"33","size_leaf_vector":"1"}},{"base_weights":[-1.941266E-3,-1.5277898E-1,8.7964296E-1,-2.7810374E-1,1.7395677E-1,-3.8107E-2,8.9311284E-1,-3.9843205E-1,1.5132186E-1,-2.7308008E-1,4.2569467E-1,7.6949626E-1,1.0619916E0,-5.797546E-1,8.619464E-3,3.778928E-1,-7.9848665E-1,-3.8151573E-2,-8.2456104E-2,-5.9103936E-2,4.766812E-1,-4.047913E-2,7.9867977E-1,5.408121E-2,2.7320003E-2,-2.361123E-2,-7.7045605E-2,-7.05193E-2,7.2900034E-3,-3.9960925E-2,3.1145174E-2,-7.593645E-2,3.2475084E-2,-2.9483778E-2,2.1070452E-2,5.0123125E-2,1.7876748E-2,4.354849E-2,4.217082E-3],"categories":[],"categories_nodes":[],"categories_segments":[],"categories_sizes":[],"default_left":[0,0,0,0,0,0,0,0,0,0,0,0,0,0,0,0,0,0,0,0,0,0,0,0,0,0,0,0,0,0,0,0,0,0,0,0,0,0,0],"id":26,"left_children":[1,3,5,7,9,-1,11,13,15,17,19,21,23,25,27,29,31,33,-1,-1,35,-1,37,-1,-1,-1,-1,-1,-1,-1,-1,-1,-1,-1,-1,-1,-1,-1,-1],"loss_changes":[1.695657E2,4.463453E1,4.8006744E0,4.0745327E1,3.415573E1,0E0,3.050064E0,4.5419434E1,3.7544445E1,3.5360546E1,1.6458218E1,5.742775E0,1.7484283E-1,4.326979E1,3.7309467E1,4.0992397E1,3.608316E1,2.4231245E1,0E0,0E0,1.1459587E1,0E0,5.559578E0,0E0,0E0,0E0,0E0,0E0,0E0,0E0,0E0,0E0,0E0,0E0,0E0,0E0,0E0,0E0,0E0],"parents":[2147483647,0,0,1,1,2,2,3,3,4,4,6,6,7,7,8,8,9,9,10,10,11,11,12,12,13,13,14,14,15,15,16,16,17,17,20,20,22,22],"right_children":[2,4,6,8,10,-1,12,14,16,18,20,22,24,26,28,30,32,34,-1,-1,36,-1,38,-1,-1,-1,-1,-1,-1,-1,-1,-1,-1,-1,-1,-1,-1,-1,-1],"split_conditions":[1.41E0,6.9E1,1.4E1,1.8E1,2.85E1,-3.8107E-2,1.99E0,1.3266667E2,1.32E2,2.2E1,4.6E0,5.3E0,4.02E1,6.1E1,6E0,5E0,1.6333333E2,9.5E-1,-8.2456104E-2,-5.9103936E-2,7E1,-4.047913E-2,1.85E0,5.408121E-2,2.7320003E-2,-2.361123E-2,-7.7045605E-2,-7.05193E-2,7.2900034E-3,-3.9960925E-2,3.1145174E-2,-7.593645E-2,3.2475084E-2,-2.9483778E-2,2.1070452E-2,5.0123125E-2,1.7876748E-2,4.354849E-2,4.217082E-3],"split_indices":[1,0,2,2,5,0,1,4,4,2,3,3,5,0,6,3,4,1,0,0,0,0,1,0,0,0,0,0,0,0,0,0,0,0,0,0,0,0,0],"split_type":[0,0,0,0,0,0,0,0,0,0,0,0,0,0,0,0,0,0,0,0,0,0,0,0,0,0,0,0,0,0,0,0,0,0,0,0,0,0,0],"sum_hessian":[1.2731482E3,1.0878461E3,1.8530211E2,7.8637006E2,3.0147604E2,1.0556232E0,1.8424648E2,6.1430835E2,1.7206169E2,1.08578064E2,1.9289798E2,1.0958702E2,7.4659454E1,4.2469998E2,1.8960838E2,1.3940874E2,3.265295E1,9.362193E1,1.4956134E1,5.247359E0,1.8765063E2,1.5033188E0,1.080837E2,7.086331E1,3.7961435E0,3.8330847E2,4.1391514E1,1.5896163E1,1.7371222E2,2.362837E1,1.15780365E2,2.1773676E1,1.0879275E1,4.2424576E1,5.1197353E1,3.3297623E1,1.54353E2,9.7951836E1,1.0131865E1],"tree_param":{"num_deleted":"0","num_feature":"7","num_nodes":"39","size_leaf_vector":"1"}},{"base_weights":[-2.0434456E-3,-1.4646074E-1,8.62204E-1,-4.7072533E-1,-2.802737E-2,-3.7400167E-2,8.756922E-1,-1.0331271E0,-2.6465914E-1,-6.416216E-2,1.579979E-2,6.258271E-1,9.591438E-1,-2.4517672E-1,-6.6077724E-2,-7.57274E-2,-6.607566E-2,1.3147635E0,-9.591645E-3,-5.7970023E-1,7.8396165E-1,6.666705E-1,1.0154109E0,-6.1333742E-2,7.616525E-2,-2.9112104E-2,1.3948338E-2,7.663617E-2,-3.8980994E-2,-2.0669146E-2,5.4385457E-3,-1.3670109E-1,3.6947872E-2,4.6979737E-2,1.77536E-2,-1.13222174E-1,4.769092E-2,1.6424702E-2,5.168165E-2],"categories":[],"categories_nodes":[],"categories_segments":[],"categories_sizes":[],"default_left":[0,0,0,0,0,0,0,0,0,0,0,0,0,0,0,0,0,0,0,0,0,0,0,0,0,0,0,0,0,0,0,0,0,0,0,0,0,0,0],"id":27,"left_children":[1,3,5,7,9,-1,11,13,15,-1,17,19,21,23,-1,25,-1,27,29,31,33,35,37,-1,-1,-1,-1,-1,-1,-1,-1,-1,-1,-1,-1,-1,-1,-1,-1],"loss_changes":[1.5759087E2,4.153324E1,4.581314E0,3.3260544E1,4.367148E1,0E0,3.1475525E0,1.7231598E1,4.2452007E1,0E0,2.5333143E1,9.581703E0,1.5094757E0,3.992852E1,0E0,3.2833206E1,0E0,7.9172363E0,3.6079964E1,1.9425907E1,2.5199776E0,2.2652431E1,1.0312271E0,0E0,0E0,0E0,0E0,0E0,0E0,0E0,0E0,0E0,0E0,0E0,0E0,0E0,0E0,0E0,0E0],"parents":[2147483647,0,0,1,1,2,2,3,3,4,4,6,6,7,7,8,8,10,10,11,11,12,12,13,13,15,15,17,17,18,18,19,19,20,20,21,21,22,22],"right_children":[2,4,6,8,10,-1,12,14,16,-1,18,20,22,24,-1,26,-1,28,30,32,34,36,38,-1,-1,-1,-1,-1,-1,-1,-1,-1,-1,-1,-1,-1,-1,-1,-1],"split_conditions":[1.41E0,4.3E1,1.4E1,2.58E1,6E-1,-3.7400167E-2,1.58E0,3.8E0,6.3E0,-6.416216E-2,6.1E-1,1.19333336E2,2.67E1,3.7E0,-6.6077724E-2,5.3E0,-6.607566E-2,4.8E0,8.3E-1,6.9E1,6.7E0,2.7E1,1.06E2,-6.1333742E-2,7.616525E-2,-2.9112104E-2,1.3948338E-2,7.663617E-2,-3.8980994E-2,-2.0669146E-2,5.4385457E-3,-1.3670109E-1,3.6947872E-2,4.6979737E-2,1.77536E-2,-1.13222174E-1,4.769092E-2,1.6424702E-2,5.168165E-2],"split_indices":[1,0,2,5,1,0,1,3,3,0,1,4,5,3,0,3,0,3,1,0,3,2,4,0,0,0,0,0,0,0,0,0,0,0,0,0,0,0,0],"split_type":[0,0,0,0,0,0,0,0,0,0,0,0,0,0,0,0,0,0,0,0,0,0,0,0,0,0,0,0,0,0,0,0,0,0,0,0,0,0,0],"sum_hessian":[1.2606112E3,1.0808328E3,1.7977853E2,2.8835544E2,7.9247723E2,1.0410631E0,1.7873747E2,7.624685E1,2.121086E2,2.578253E1,7.6669476E2,4.687795E1,1.3185953E2,2.0926931E1,5.5319916E1,1.8085004E2,3.1258554E1,1.37260065E1,7.5296875E2,5.126973E0,4.1750977E1,2.3347706E1,1.0851182E2,1.3654901E1,7.2720304E0,7.4219986E1,1.0663006E2,1.2675098E1,1.0509076E0,1.70119E2,5.8284973E2,1.5391277E0,3.5878456E0,2.9760786E1,1.19901905E1,1.4687895E0,2.1878918E1,3.2958534E0,1.05215965E2],"tree_param":{"num_deleted":"0","num_feature":"7","num_nodes":"39","size_leaf_vector":"1"}},{"base_weights":[-2.1695269E-3,-1.4020605E-1,8.444274E-1,-2.501188E-1,1.8355894E-1,-3.6717333E-2,8.5792804E-1,-1.9519177E-1,-6.707461E-2,-6.275483E-2,2.4810201E-1,7.292129E-1,1.0379859E0,-2.9521918E-1,6.0299253E-1,8.2343346E-1,1.11465834E-1,3.2739973E-1,8.662203E-1,1.0591644E0,2.5280898E-2,-3.4393635E-2,-7.334385E-3,4.709779E-2,-7.006419E-2,5.3633E-2,-6.682422E-2,2.1982655E-2,-1.2203785E-2,-2.4373429E-2,3.842598E-2,-5.1045466E-2,4.5567494E-2,3.6248006E-2,5.4797556E-2],"categories":[],"categories_nodes":[],"categories_segments":[],"categories_sizes":[],"default_left":[0,0,0,0,0,0,0,0,0,0,0,0,0,0,0,0,0,0,0,0,0,0,0,0,0,0,0,0,0,0,0,0,0,0,0],"id":28,"left_children":[1,3,5,7,9,-1,11,13,-1,-1,15,17,19,21,23,25,27,29,31,33,-1,-1,-1,-1,-1,-1,-1,-1,-1,-1,-1,-1,-1,-1,-1],"loss_changes":[1.4624834E2,3.8336746E1,4.369522E0,4.791827E1,2.5687313E1,0E0,3.2854462E0,6.1366425E1,0E0,0E0,2.053463E1,5.500759E0,2.5759888E-1,3.9657345E1,5.952582E1,2.8456028E1,2.4982843E1,1.0556029E1,7.5517845E0,2.6016235E-2,0E0,0E0,0E0,0E0,0E0,0E0,0E0,0E0,0E0,0E0,0E0,0E0,0E0,0E0,0E0],"parents":[2147483647,0,0,1,1,2,2,3,3,4,4,6,6,7,7,10,10,11,11,12,12,13,13,14,14,15,15,16,16,17,17,18,18,19,19],"right_children":[2,4,6,8,10,-1,12,14,-1,-1,16,18,20,22,24,26,28,30,32,34,-1,-1,-1,-1,-1,-1,-1,-1,-1,-1,-1,-1,-1,-1,-1],"split_conditions":[1.41E0,1.03E0,1.4E1,7.1E0,3.2E1,-3.6717333E-2,1.99E0,6.5E0,-6.707461E-2,-6.275483E-2,6E0,6.7E1,4.02E1,8E0,9.3E-1,1.28E2,5.9E0,7.5E0,5.4E0,2.17E0,2.5280898E-2,-3.4393635E-2,-7.334385E-3,4.709779E-2,-7.006419E-2,5.3633E-2,-6.682422E-2,2.1982655E-2,-1.2203785E-2,-2.4373429E-2,3.842598E-2,-5.1045466E-2,4.5567494E-2,3.6248006E-2,5.4797556E-2],"split_indices":[1,1,2,3,0,0,1,3,0,0,6,0,5,6,1,4,3,3,3,1,0,0,0,0,0,0,0,0,0,0,0,0,0,0,0],"split_type":[0,0,0,0,0,0,0,0,0,0,0,0,0,0,0,0,0,0,0,0,0,0,0,0,0,0,0,0,0,0,0,0,0,0,0],"sum_hessian":[1.2494562E3,1.0750114E3,1.7444481E2,8.027267E2,2.722847E2,1.0263723E0,1.7341844E2,7.6538495E2,3.7341717E1,1.0899118E1,2.613856E2,1.0407198E2,6.934645E1,6.807095E2,8.467548E1,4.919877E1,2.1218681E2,2.7324577E1,7.6747406E1,6.5741615E1,3.6048412E0,1.8582822E2,4.948813E2,7.2880035E1,1.1795447E1,4.456045E1,4.638318E0,1.1021492E2,1.019719E2,9.559855E0,1.7764723E1,1.2875056E0,7.54599E1,8.572082E0,5.7169533E1],"tree_param":{"num_deleted":"0","num_feature":"7","num_nodes":"35","size_leaf_vector":"1"}},{"base_weights":[-2.1308085E-3,-1.341431E-1,8.276623E-1,-2.500496E-1,1.6533649E-1,5.452196E-1,9.2770946E-1,-3.6264995E-1,1.4932302E-1,-2.6472676E-1,4.0674236E-1,-6.451957E-1,7.1563506E-1,6.2451065E-1,9.8653364E-1,-5.3712726E-1,2.3292394E-2,3.6362273E-1,-7.662172E-1,-3.887714E-2,-7.994402E-2,-5.7586253E-2,4.5492864E-1,-1.20283365E-1,3.5248097E-2,8.751451E-1,2.8552294E-1,-1.0787624E-1,9.2248464E-1,1.4636004E-2,1.0055583E0,-2.0962577E-2,-7.089313E-2,-6.8004794E-2,7.6026507E-3,-3.7159737E-2,2.960251E-2,-7.195018E-2,3.538375E-2,-2.8162751E-2,1.9793093E-2,-5.4125734E-2,2.4481727E-2,1.029298E-2,4.8883148E-2,-1.4591865E-1,4.6172816E-2,4.9768995E-2,1.6783101E-2,5.1472057E-2,2.5508732E-2],"categories":[],"categories_nodes":[],"categories_segments":[],"categories_sizes":[],"default_left":[0,0,0,0,0,0,0,0,0,0,0,0,0,0,0,0,0,0,0,0,0,0,0,0,0,0,0,0,0,0,0,0,0,0,0,0,0,0,0,0,0,0,0,0,0,0,0,0,0,0,0],"id":29,"left_children":[1,3,5,7,9,11,13,15,17,19,21,23,25,27,29,31,33,35,37,39,-1,-1,41,-1,-1,43,45,-1,47,-1,49,-1,-1,-1,-1,-1,-1,-1,-1,-1,-1,-1,-1,-1,-1,-1,-1,-1,-1,-1,-1],"loss_changes":[1.3592369E2,3.7200253E1,4.306732E0,3.477939E1,3.1181759E1,9.990912E0,1.6014938E0,4.0594193E1,3.3738663E1,3.2544254E1,1.4949678E1,1.69278E1,2.6017704E0,2.0997158E1,1.0573883E0,4.249701E1,3.379868E1,3.555062E1,3.341311E1,2.155413E1,0E0,0E0,1.0510761E1,0E0,0E0,1.8458977E0,2.8710876E1,0E0,5.817566E-1,0E0,6.492233E-1,0E0,0E0,0E0,0E0,0E0,0E0,0E0,0E0,0E0,0E0,0E0,0E0,0E0,0E0,0E0,0E0,0E0,0E0,0E0,0E0],"parents":[2147483647,0,0,1,1,2,2,3,3,4,4,5,5,6,6,7,7,8,8,9,9,10,10,11,11,12,12,13,13,14,14,15,15,16,16,17,17,18,18,19,19,22,22,25,25,26,26,28,28,30,30],"right_children":[2,4,6,8,10,12,14,16,18,20,22,24,26,28,30,32,34,36,38,40,-1,-1,42,-1,-1,44,46,-1,48,-1,50,-1,-1,-1,-1,-1,-1,-1,-1,-1,-1,-1,-1,-1,-1,-1,-1,-1,-1,-1,-1],"split_conditions":[1.41E0,6.9E1,1.58E0,1.8E1,2.85E1,1.20666664E2,2.67E1,1.3266667E2,1.32E2,2.2E1,4.6E0,7.5E1,6.7E0,2.7E1,1.06E2,1.26E2,6E0,5E0,1.27E0,9.5E-1,-7.994402E-2,-5.7586253E-2,7.2E-1,-1.20283365E-1,3.5248097E-2,2.52E1,8.5E0,-1.0787624E-1,5.5E1,1.4636004E-2,1.03E1,-2.0962577E-2,-7.089313E-2,-6.8004794E-2,7.6026507E-3,-3.7159737E-2,2.960251E-2,-7.195018E-2,3.538375E-2,-2.8162751E-2,1.9793093E-2,-5.4125734E-2,2.4481727E-2,1.029298E-2,4.8883148E-2,-1.4591865E-1,4.6172816E-2,4.9768995E-2,1.6783101E-2,5.1472057E-2,2.5508732E-2],"split_indices":[1,0,1,2,5,4,5,4,4,2,3,0,3,2,4,4,6,3,1,1,0,0,1,0,0,5,3,0,2,0,3,0,0,0,0,0,0,0,0,0,0,0,0,0,0,0,0,0,0,0,0],"split_type":[0,0,0,0,0,0,0,0,0,0,0,0,0,0,0,0,0,0,0,0,0,0,0,0,0,0,0,0,0,0,0,0,0,0,0,0,0,0,0,0,0,0,0,0,0,0,0,0,0,0,0],"sum_hessian":[1.2388127E3,1.0695032E3,1.6930957E2,7.711953E2,2.9830786E2,4.597301E1,1.2333656E2,6.0165485E2,1.6954051E2,1.0721261E2,1.9109526E2,5.4082646E0,4.0564747E1,2.1928183E1,1.0140838E2,4.140699E2,1.8758496E2,1.3787181E2,3.1668705E1,9.257104E1,1.464157E1,5.044416E0,1.8605084E2,2.0081146E0,3.40015E0,2.883602E1,1.1728725E1,1.517683E0,2.04105E1,3.1437702E0,9.826461E1,3.66495E2,4.7574875E1,1.5158707E1,1.7242625E2,2.3200941E1,1.1467087E2,2.175973E1,9.908976E0,4.1825687E1,5.0745346E1,3.440674E0,1.8261017E2,4.229814E0,2.4606207E1,1.3539658E0,1.037476E1,1.753596E1,2.87454E0,9.27166E1,5.5480103E0],"tree_param":{"num_deleted":"0","num_feature":"7","num_nodes":"51","size_leaf_vector":"1"}},{"base_weights":[-2.3884464E-3,-1.2877448E-1,8.1069666E-1,-4.2971924E-1,-2.058225E-2,5.274155E-1,9.121979E-1,-9.9248654E-1,-2.289486E-1,-6.2574185E-2,2.0565819E-2,-6.262868E-1,6.963826E-1,6.0815954E-1,9.7158116E-1,-2.0487647E-1,-6.4408615E-2,-4.7931213E-2,-6.428247E-2,1.2779058E0,-4.187903E-3,-1.135834E-1,3.4522202E-2,8.5639536E-1,2.691269E-1,-1.0227116E-1,9.079481E-1,1.4187269E-2,9.909624E-1,-5.972851E-2,7.330864E-2,-2.659796E-2,1.422367E-2,7.4203484E-2,-3.7532907E-2,-1.8836187E-2,5.179369E-3,9.923595E-3,4.7987968E-2,-1.3596259E-1,4.5351945E-2,4.9094748E-2,1.6314669E-2,5.0760806E-2,2.4838666E-2],"categories":[],"categories_nodes":[],"categories_segments":[],"categories_sizes":[],"default_left":[0,0,0,0,0,0,0,0,0,0,0,0,0,0,0,0,0,0,0,0,0,0,0,0,0,0,0,0,0,0,0,0,0,0,0,0,0,0,0,0,0,0,0,0,0],"id":30,"left_children":[1,3,5,7,9,11,13,15,17,-1,19,21,23,25,27,29,-1,31,-1,33,35,-1,-1,37,39,-1,41,-1,43,-1,-1,-1,-1,-1,-1,-1,-1,-1,-1,-1,-1,-1,-1,-1,-1],"loss_changes":[1.2624068E2,3.4608437E1,4.2708282E0,3.1533386E1,3.9688583E1,9.396591E0,1.5811005E0,1.687983E1,3.9817577E1,0E0,2.3620308E1,1.5430925E1,2.5429573E0,1.9621264E1,1.0381775E0,3.6948597E1,0E0,2.8956402E1,0E0,7.2419434E0,2.9954464E1,0E0,0E0,1.7854595E0,2.631763E1,0E0,5.723705E-1,0E0,6.44577E-1,0E0,0E0,0E0,0E0,0E0,0E0,0E0,0E0,0E0,0E0,0E0,0E0,0E0,0E0,0E0,0E0],"parents":[2147483647,0,0,1,1,2,2,3,3,4,4,5,5,6,6,7,7,8,8,10,10,11,11,12,12,13,13,14,14,15,15,17,17,19,19,20,20,23,23,24,24,26,26,28,28],"right_children":[2,4,6,8,10,12,14,16,18,-1,20,22,24,26,28,30,-1,32,-1,34,36,-1,-1,38,40,-1,42,-1,44,-1,-1,-1,-1,-1,-1,-1,-1,-1,-1,-1,-1,-1,-1,-1,-1],"split_conditions":[1.41E0,4.3E1,1.58E0,2.58E1,6E-1,1.20666664E2,2.67E1,3.8E0,6.3E0,-6.2574185E-2,6.1E-1,7.5E1,6.7E0,2.7E1,1.06E2,3.7E0,-6.4408615E-2,5.3E0,-6.428247E-2,4.8E0,8.3E-1,-1.135834E-1,3.4522202E-2,2.52E1,8.5E0,-1.0227116E-1,5.5E1,1.4187269E-2,1.03E1,-5.972851E-2,7.330864E-2,-2.659796E-2,1.422367E-2,7.4203484E-2,-3.7532907E-2,-1.8836187E-2,5.179369E-3,9.923595E-3,4.7987968E-2,-1.3596259E-1,4.5351945E-2,4.9094748E-2,1.6314669E-2,5.0760806E-2,2.4838666E-2],"split_indices":[1,0,1,5,1,4,5,3,3,0,1,0,3,2,4,3,0,3,0,3,1,0,0,5,3,0,2,0,3,0,0,0,0,0,0,0,0,0,0,0,0,0,0,0,0],"split_type":[0,0,0,0,0,0,0,0,0,0,0,0,0,0,0,0,0,0,0,0,0,0,0,0,0,0,0,0,0,0,0,0,0,0,0,0,0,0,0,0,0,0,0,0,0],"sum_hessian":[1.2264532E3,1.0621882E3,1.6426503E2,2.800993E2,7.820889E2,4.496574E1,1.19299286E2,7.26146E1,2.074847E2,2.4347412E1,7.577415E2,5.398483E0,3.9567257E1,2.133038E1,9.796891E1,2.0282242E1,5.2332363E1,1.7803235E2,2.9452347E1,1.365249E1,7.4408905E2,2.0773733E0,3.3211098E0,2.8055645E1,1.1511611E1,1.5741225E0,1.9756256E1,3.1134543E0,9.485545E1,1.2917108E1,7.3651333E0,7.224016E1,1.0579219E2,1.2636636E1,1.0158536E0,1.6640352E2,5.7768555E2,4.205744E0,2.3849901E1,1.4510847E0,1.0060527E1,1.691741E1,2.8388476E0,8.9412964E1,5.4424872E0],"tree_param":{"num_deleted":"0","num_feature":"7","num_nodes":"45","size_leaf_vector":"1"}},{"base_weights":[-2.489477E-3,-1.232923E-1,7.9414165E-1,-4.1427073E-1,-1.9701201E-2,6.492171E-1,1.0059695E0,-6.2177446E-2,-2.8259322E-1,-6.1639376E-2,1.9590858E-2,-4.5256E-2,6.897109E-1,1.0298932E0,2.1931095E-2,-1.2810072E-1,-6.346019E-2,1.2239373E0,-4.017511E-3,2.5448206E-1,8.4612286E-1,6.6763586E-1,1.0704172E0,-3.808062E-2,5.329693E-3,7.115545E-2,-3.6850553E-2,-1.802585E-2,4.921589E-3,-1.03053965E-1,2.1957265E-2,5.211216E-2,2.8176142E-2,4.677086E-2,4.5144795E-3,5.528695E-2,3.15139E-2],"categories":[],"categories_nodes":[],"categories_segments":[],"categories_sizes":[],"default_left":[0,0,0,0,0,0,0,0,0,0,0,0,0,0,0,0,0,0,0,0,0,0,0,0,0,0,0,0,0,0,0,0,0,0,0,0,0],"id":31,"left_children":[1,3,5,7,9,11,13,-1,15,-1,17,-1,19,21,-1,23,-1,25,27,29,31,33,35,-1,-1,-1,-1,-1,-1,-1,-1,-1,-1,-1,-1,-1,-1],"loss_changes":[1.17208626E2,3.1869291E1,4.2701874E0,2.9961864E1,3.7247757E1,6.795227E0,4.0782166E-1,0E0,3.6549652E1,0E0,2.1540684E1,0E0,6.3281593E0,1.6651535E-1,0E0,3.1209074E1,0E0,6.737612E0,2.7203766E1,1.2382633E1,3.3078308E0,1.2600634E0,1.1659241E-1,0E0,0E0,0E0,0E0,0E0,0E0,0E0,0E0,0E0,0E0,0E0,0E0,0E0,0E0],"parents":[2147483647,0,0,1,1,2,2,3,3,4,4,5,5,6,6,8,8,10,10,12,12,13,13,15,15,17,17,18,18,19,19,20,20,21,21,22,22],"right_children":[2,4,6,8,10,12,14,-1,16,-1,18,-1,20,22,-1,24,-1,26,28,30,32,34,36,-1,-1,-1,-1,-1,-1,-1,-1,-1,-1,-1,-1,-1,-1],"split_conditions":[1.41E0,4.3E1,1.99E0,2.3E1,6E-1,5.3E0,4.02E1,-6.2177446E-2,6.3E0,-6.1639376E-2,6.1E-1,-4.5256E-2,6.7E1,2.47E1,2.1931095E-2,8E0,-6.346019E-2,4.8E0,8.3E-1,2.57E1,7.7E1,4.3E0,9.3E0,-3.808062E-2,5.329693E-3,7.115545E-2,-3.6850553E-2,-1.802585E-2,4.921589E-3,-1.03053965E-1,2.1957265E-2,5.211216E-2,2.8176142E-2,4.677086E-2,4.5144795E-3,5.528695E-2,3.15139E-2],"split_indices":[1,0,1,5,1,3,5,0,3,0,1,0,0,5,0,6,0,3,1,5,0,3,3,0,0,0,0,0,0,0,0,0,0,0,0,0,0],"split_type":[0,0,0,0,0,0,0,0,0,0,0,0,0,0,0,0,0,0,0,0,0,0,0,0,0,0,0,0,0,0,0,0,0,0,0,0,0],"sum_hessian":[1.2159208E3,1.0565488E3,1.5937206E2,2.766011E2,7.799477E2,9.704347E1,6.2328575E1,3.674496E1,2.3985614E2,2.351706E1,7.564306E2,1.9218543E0,9.512162E1,5.902439E1,3.3041863E0,2.0835919E2,3.1496944E1,1.3565454E1,7.428652E2,2.5841785E1,6.927983E1,7.6966357E0,5.1327755E1,5.5717007E1,1.5264218E2,1.256365E1,1.0018036E0,1.652645E2,5.7760065E2,1.1581407E0,2.4683645E1,3.9310722E1,2.9969112E1,4.8342443E0,2.8623917E0,4.6114727E1,5.213028E0],"tree_param":{"num_deleted":"0","num_feature":"7","num_nodes":"37","size_leaf_vector":"1"}},{"base_weights":[-2.4658546E-3,-1.17998675E-1,7.78204E-1,-2.0395504E-1,2.2181693E-1,6.317242E-1,9.951839E-1,-1.6001704E-1,-9.946376E-1,-7.1315795E-2,2.7953106E-1,-4.439702E-2,6.716539E-1,1.0197936E0,2.1346284E-2,-2.6491722E-1,2.5727215E-1,6.4042985E-1,-6.720229E-2,1.3167235E-1,8.370633E-1,2.4188675E-1,8.2859784E-1,6.4936376E-1,5.3085834E-2,-3.4486618E-2,-5.3392607E-3,-6.5725975E-2,2.9725382E-2,-4.2543676E-2,6.345482E-2,-7.7670254E-2,1.3904097E-2,-6.8609774E-2,5.493462E-2,-9.883926E-2,2.1205008E-2,5.136127E-2,2.733968E-2,4.6264403E-2,3.1609552E-3],"categories":[],"categories_nodes":[],"categories_segments":[],"categories_sizes":[],"default_left":[0,0,0,0,0,0,0,0,0,0,0,0,0,0,0,0,0,0,0,0,0,0,0,0,0,0,0,0,0,0,0,0,0,0,0,0,0,0,0,0,0],"id":32,"left_children":[1,3,5,7,9,11,13,15,17,-1,19,-1,21,23,-1,25,27,29,-1,31,33,35,37,39,-1,-1,-1,-1,-1,-1,-1,-1,-1,-1,-1,-1,-1,-1,-1,-1,-1],"loss_changes":[1.0897549E2,3.0787155E1,4.321869E0,2.904115E1,2.0655125E1,6.4049377E0,4.1819E-1,3.4975845E1,2.6030525E1,0E0,1.691995E1,0E0,6.1292267E0,2.0788574E-1,0E0,4.276859E1,8.596535E1,8.987316E0,0E0,4.1008636E1,2.6429193E1,1.15576515E1,3.2629128E0,1.3080292E0,0E0,0E0,0E0,0E0,0E0,0E0,0E0,0E0,0E0,0E0,0E0,0E0,0E0,0E0,0E0,0E0,0E0],"parents":[2147483647,0,0,1,1,2,2,3,3,4,4,5,5,6,6,7,7,8,8,10,10,12,12,13,13,15,15,16,16,17,17,19,19,20,20,21,21,22,22,23,23],"right_children":[2,4,6,8,10,12,14,16,18,-1,20,-1,22,24,-1,26,28,30,-1,32,34,36,38,40,-1,-1,-1,-1,-1,-1,-1,-1,-1,-1,-1,-1,-1,-1,-1,-1,-1],"split_conditions":[1.41E0,2E1,1.99E0,7.3E0,1.06E2,5.3E0,4.02E1,3.53E1,1.07E2,-7.1315795E-2,9.5E0,-4.439702E-2,6.7E1,2.17E0,2.1346284E-2,8E0,5.2E0,7E1,-6.720229E-2,5.2E1,5.2E0,2.57E1,7.7E1,2.1E0,5.3085834E-2,-3.4486618E-2,-5.3392607E-3,-6.5725975E-2,2.9725382E-2,-4.2543676E-2,6.345482E-2,-7.7670254E-2,1.3904097E-2,-6.8609774E-2,5.493462E-2,-9.883926E-2,2.1205008E-2,5.136127E-2,2.733968E-2,4.6264403E-2,3.1609552E-3],"split_indices":[1,2,1,3,4,3,5,5,4,0,6,0,0,1,0,6,3,0,0,0,3,5,0,1,0,0,0,0,0,0,0,0,0,0,0,0,0,0,0,0,0],"split_type":[0,0,0,0,0,0,0,0,0,0,0,0,0,0,0,0,0,0,0,0,0,0,0,0,0,0,0,0,0,0,0,0,0,0,0,0,0,0,0,0,0],"sum_hessian":[1.2062297E3,1.0514696E3,1.5476013E2,8.395142E2,2.1195534E2,9.472449E1,6.003564E1,7.964577E2,4.3056534E1,6.3688087E0,2.0558653E2,1.8814605E0,9.284303E1,5.678197E1,3.253669E0,6.367528E2,1.5970488E2,7.4343476E0,3.562219E1,1.634701E2,4.2116432E1,2.5515078E1,6.732795E1,7.4493465E0,4.9332626E1,1.718156E2,4.6493726E2,2.770043E1,1.3200444E2,2.0998027E0,5.334545E0,1.2299619E1,1.5117047E2,4.0100236E0,3.810641E1,1.1889853E0,2.4326092E1,3.7940628E1,2.9387325E1,4.6716123E0,2.7777345E0],"tree_param":{"num_deleted":"0","num_feature":"7","num_nodes":"41","size_leaf_vector":"1"}},{"base_weights":[-2.5243468E-3,-1.1302912E-1,7.6239604E-1,-4.2190284E-1,-2.107328E-2,6.1456424E-1,9.8445505E-1,-1.0054286E0,-2.0369563E-1,-6.1394732E-2,1.6002873E-2,-4.3570288E-2,6.539302E-1,1.0097804E0,2.0774348E-2,7.8945726E-1,-6.2214643E-2,1.4580321E0,-3.5506588E-1,-8.196495E-2,3.836848E-1,7.376154E-1,-1.2282036E-1,6.320595E-1,1.0531089E0,-4.9990807E-2,6.520155E-2,-4.3940213E-2,9.4057955E-2,-2.4524746E-2,4.5945555E-2,-1.36957485E-2,7.5917104E-3,1.1721374E-1,1.08960485E-2,1.9365776E-2,4.381313E-2,-1.3421968E-1,3.996182E-2,4.5628563E-2,2.7190398E-3,5.4556448E-2,2.9671839E-2],"categories":[],"categories_nodes":[],"categories_segments":[],"categories_sizes":[],"default_left":[0,0,0,0,0,0,0,0,0,0,0,0,0,0,0,0,0,0,0,0,0,0,0,0,0,0,0,0,0,0,0,0,0,0,0,0,0,0,0,0,0,0,0],"id":33,"left_children":[1,3,5,7,9,11,13,15,17,-1,19,-1,21,23,-1,25,-1,27,29,31,33,35,37,39,41,-1,-1,-1,-1,-1,-1,-1,-1,-1,-1,-1,-1,-1,-1,-1,-1,-1,-1],"loss_changes":[1.0130311E2,2.9733418E1,4.361191E0,3.0377361E1,3.6172245E1,6.0382195E0,4.2772675E-1,2.889972E1,4.4804478E1,0E0,2.8303837E1,0E0,6.0474663E0,2.4425888E-1,0E0,8.908601E0,0E0,1.6381033E1,2.8430525E1,2.7891748E1,5.3213345E1,3.6854668E0,2.5221718E1,1.2827606E0,1.9789124E-1,0E0,0E0,0E0,0E0,0E0,0E0,0E0,0E0,0E0,0E0,0E0,0E0,0E0,0E0,0E0,0E0,0E0,0E0],"parents":[2147483647,0,0,1,1,2,2,3,3,4,4,5,5,6,6,7,7,8,8,10,10,12,12,13,13,15,15,17,17,18,18,19,19,20,20,21,21,22,22,23,23,24,24],"right_children":[2,4,6,8,10,12,14,16,18,-1,20,-1,22,24,-1,26,-1,28,30,32,34,36,38,40,42,-1,-1,-1,-1,-1,-1,-1,-1,-1,-1,-1,-1,-1,-1,-1,-1,-1,-1],"split_conditions":[1.41E0,7.7E-1,1.99E0,3.8E1,2.5E1,5.3E0,4.02E1,9.3E1,3.9E1,-6.1394732E-2,3.49E1,-4.3570288E-2,1.85E0,2.47E1,2.0774348E-2,3.07E1,-6.2214643E-2,4.5E0,1.05E1,6.5E1,2.7E1,6.7E1,3.02E1,4.3E0,9.3E0,-4.9990807E-2,6.520155E-2,-4.3940213E-2,9.4057955E-2,-2.4524746E-2,4.5945555E-2,-1.36957485E-2,7.5917104E-3,1.1721374E-1,1.08960485E-2,1.9365776E-2,4.381313E-2,-1.3421968E-1,3.996182E-2,4.5628563E-2,2.7190398E-3,5.4556448E-2,2.9671839E-2],"split_indices":[1,1,1,0,0,3,5,4,0,0,5,0,1,5,0,5,0,3,6,0,0,0,5,3,3,0,0,0,0,0,0,0,0,0,0,0,0,0,0,0,0,0,0],"split_type":[0,0,0,0,0,0,0,0,0,0,0,0,0,0,0,0,0,0,0,0,0,0,0,0,0,0,0,0,0,0,0,0,0,0,0,0,0,0,0,0,0,0,0],"sum_hessian":[1.1964459E3,1.0461633E3,1.502825E2,2.3918117E2,8.069822E2,9.248191E1,5.7800594E1,6.4115906E1,1.7506526E2,2.3095938E1,7.838863E2,1.8412983E0,9.064061E1,5.4595726E1,3.2048693E0,7.259695E0,5.6856213E1,1.3895007E1,1.6117024E2,6.195784E2,1.6430785E2,8.187047E1,8.7701435E0,7.2222924E0,4.7373432E1,1.4108602E0,5.848835E0,1.9651257E0,1.1929882E1,1.4623938E2,1.4930867E1,3.401458E2,2.7943262E2,1.1784393E1,1.5252345E2,2.4291117E1,5.7579353E1,1.8154147E0,6.9547286E0,4.4713526E0,2.7509398E0,4.248569E1,4.887741E0],"tree_param":{"num_deleted":"0","num_feature":"7","num_nodes":"43","size_leaf_vector":"1"}},{"base_weights":[-2.3073275E-3,-1.0797661E-1,7.468487E-1,-6.0429335E-2,-8.2906894E-2,4.5022008E-1,8.573185E-1,-1.7103416E-1,2.1311328E-1,-7.252033E-1,6.29195E-1,6.8315315E-1,9.883817E-1,-5.300492E-1,-3.3897545E-2,-6.952195E-1,3.5295573E-1,-1.1010664E-1,3.0851588E-2,8.017465E-1,1.858681E-1,2.0720536E-1,9.254463E-1,5.078988E-2,1.7841337E-2,7.121479E-2,-3.365384E-2,-3.544418E-2,3.1944562E-3,4.2444862E-2,-7.067543E-2,3.1318814E-2,-2.1963445E-2,6.8242885E-3,4.5547638E-2,-1.3367338E-1,4.3053087E-2,3.4751624E-2,-1.2451958E-1,4.883766E-2,1.1273128E-2],"categories":[],"categories_nodes":[],"categories_segments":[],"categories_sizes":[],"default_left":[0,0,0,0,0,0,0,0,0,0,0,0,0,0,0,0,0,0,0,0,0,0,0,0,0,0,0,0,0,0,0,0,0,0,0,0,0,0,0,0,0],"id":34,"left_children":[1,3,5,-1,7,9,11,13,15,17,19,21,23,25,27,29,31,-1,-1,33,35,37,39,-1,-1,-1,-1,-1,-1,-1,-1,-1,-1,-1,-1,-1,-1,-1,-1,-1,-1],"loss_changes":[9.411285E1,2.864714E1,4.4296722E0,0E0,2.6638956E1,9.288723E0,1.7438583E0,3.869771E1,3.0017727E1,1.3278071E1,2.679245E0,5.429268E0,6.4580536E-1,6.169441E1,3.7673023E1,3.625615E1,4.4415478E1,0E0,0E0,1.7872524E0,2.4813639E1,2.5065105E1,9.294491E-1,0E0,0E0,0E0,0E0,0E0,0E0,0E0,0E0,0E0,0E0,0E0,0E0,0E0,0E0,0E0,0E0,0E0,0E0],"parents":[2147483647,0,0,1,1,2,2,4,4,5,5,6,6,7,7,8,8,9,9,10,10,11,11,12,12,13,13,14,14,15,15,16,16,19,19,20,20,21,21,22,22],"right_children":[2,4,6,-1,8,10,12,14,16,18,20,22,24,26,28,30,32,-1,-1,34,36,38,40,-1,-1,-1,-1,-1,-1,-1,-1,-1,-1,-1,-1,-1,-1,-1,-1,-1,-1],"split_conditions":[1.41E0,5.6E-1,1.58E0,-6.0429335E-2,8.5E0,1.20666664E2,3.02E1,4.5E1,1.15E2,7.5E1,6.7E0,1.99E0,4.79E1,5.8E-1,7.5E-1,3.8E0,1.33E2,-1.1010664E-1,3.0851588E-2,2.52E1,8.5E0,1.85E0,9.3E0,5.078988E-2,1.7841337E-2,7.121479E-2,-3.365384E-2,-3.544418E-2,3.1944562E-3,4.2444862E-2,-7.067543E-2,3.1318814E-2,-2.1963445E-2,6.8242885E-3,4.5547638E-2,-1.3367338E-1,4.3053087E-2,3.4751624E-2,-1.2451958E-1,4.883766E-2,1.1273128E-2],"split_indices":[1,1,1,0,6,4,5,0,4,0,3,1,5,1,1,3,4,0,0,5,3,1,3,0,0,0,0,0,0,0,0,0,0,0,0,0,0,0,0,0,0],"split_type":[0,0,0,0,0,0,0,0,0,0,0,0,0,0,0,0,0,0,0,0,0,0,0,0,0,0,0,0,0,0,0,0,0,0,0,0,0,0,0,0,0],"sum_hessian":[1.1868335E3,1.040873E3,1.4596042E2,2.2129625E1,1.01874347E3,4.0984962E1,1.04975464E2,7.853589E2,2.3338458E2,5.012595E0,3.5972366E1,4.7743343E1,5.7232117E1,2.1628175E2,5.690771E2,3.0607183E1,2.027774E2,2.0815327E0,2.9310625E0,2.5311972E1,1.0660395E1,1.6731684E1,3.101166E1,5.4267933E1,2.964185E0,1.4138165E1,2.0214359E2,7.122024E1,4.9785687E2,9.659717E0,2.0947468E1,1.509049E2,5.1872486E1,3.8864374E0,2.1425533E1,1.4710748E0,9.189321E0,1.4798E1,1.9336846E0,2.8525427E1,2.486233E0],"tree_param":{"num_deleted":"0","num_feature":"7","num_nodes":"41","size_leaf_vector":"1"}},{"base_weights":[-2.3383568E-3,-1.032954E-1,7.3117304E-1,-1.9805491E-1,1.7257021E-1,5.807284E-1,9.632843E-1,-1.4638379E-1,-6.4738E-2,1.085291E0,8.191722E-2,-4.3177184E-2,6.207416E-1,