{"learner":{"attributes":{"best_iteration":"36","best_score":"0.9502854822910759"},"feature_names":["RIDAGEYR","RIAGENDR","BMXBMI","BMXWAIST","avg_systolic","LBXGH","LBXGLU","LBDHDD","LBXTR","PAD675","PAD660","SLD010H"],"feature_types":["float","float","float","float","float","float","float","float","float","float","float","float"],"gradient_booster":{"model":{"cats":{"enc":[],"feature_segments":[],"sorted_idx":[]},"gbtree_model_param":{"num_parallel_tree":"1","num_trees":"57"},"iteration_indptr":[0,1,2,3,4,5,6,7,8,9,10,11,12,13,14,15,16,17,18,19,20,21,22,23,24,25,26,27,28,29,30,31,32,33,34,35,36,37,38,39,40,41,42,43,44,45,46,47,48,49,50,51,52,53,54,55,56,57],"tree_info":[0,0,0,0,0,0,0,0,0,0,0,0,0,0,0,0,0,0,0,0,0,0,0,0,0,0,0,0,0,0,0,0,0,0,0,0,0,0,0,0,0,0,0,0,0,0,0,0,0,0,0,0,0,0,0,0,0],"trees":[{"base_weights":[1.43122705E-8,-1.2133435E0,1.5887969E0,-1.6547854E0,2.187856E-1,4.8680866E-1,1.8185042E0,-1.8426243E0,-1.0736616E0,5.584722E-1,-7.527679E-1,-1.6630572E-1,8.2736003E-1,1.3797733E0,1.9054824E0,-1.8601735E0,1.8954082E-1,-1.3815844E0,-2.7636096E-1,-3.8376E-1,7.8284454E-1,-1.1515253E0,-4.9969986E-2,2.7166665E-1,-1.1715147E0,-7.258949E-1,9.4275916E-1,-5.555556E-2,1.3939198E0,1.7290231E0,1.9371321E0,-6.7977062E-3,-9.3300715E-2,7.6411E-2,-3.606228E-2,-8.5825734E-2,-5.2807342E-2,1.886878E-2,-3.5983726E-2,-4.2394128E-2,5.078162E-2,5.6441437E-2,5.318637E-3,-6.4696185E-2,4.7429956E-2,-6.469754E-2,2.0166269E-2,-8.709677E-2,2.270091E-2,1.0969505E-2,-7.984159E-2,-8.9999996E-2,3.030465E-2,4.9578395E-2,-7.894737E-2,-5E-2,7.026613E-2,2.715084E-2,8.730517E-2,7.271738E-2,9.7135425E-2],"categories":[],"categories_nodes":[],"categories_segments":[],"categories_sizes":[],"default_left":[0,0,0,0,0,0,0,0,0,0,0,0,0,0,0,0,0,0,0,0,0,0,0,0,0,0,0,0,0,0,0,0,0,0,0,0,0,0,0,0,0,0,0,0,0,0,0,0,0,0,0,0,0,0,0,0,0,0,0,0,0],"id":0,"left_children":[1,3,5,7,9,11,13,15,17,19,21,23,25,27,29,31,33,35,37,39,41,43,45,47,49,51,53,-1,55,57,59,-1,-1,-1,-1,-1,-1,-1,-1,-1,-1,-1,-1,-1,-1,-1,-1,-1,-1,-1,-1,-1,-1,-1,-1,-1,-1,-1,-1,-1,-1],"loss_changes":[9.635891E3,1.7920981E3,5.469946E2,2.3450781E2,2.210891E2,8.347908E1,6.570264E1,5.8691895E1,1.3013312E2,1.0516052E2,4.86053E1,5.7222076E1,4.4859512E1,1.211615E1,4.9819336E0,1.6081055E1,1.928533E1,3.996118E1,4.3557995E1,6.3255455E1,9.3718155E1,3.434468E1,3.6556404E1,3.4145428E1,2.3666302E1,2.6283928E1,2.9855087E1,0E0,9.557373E0,3.8363037E0,5.576172E-1,0E0,0E0,0E0,0E0,0E0,0E0,0E0,0E0,0E0,0E0,0E0,0E0,0E0,0E0,0E0,0E0,0E0,0E0,0E0,0E0,0E0,0E0,0E0,0E0,0E0,0E0,0E0,0E0,0E0,0E0],"parents":[2147483647,0,0,1,1,2,2,3,3,4,4,5,5,6,6,7,7,8,8,9,9,10,10,11,11,12,12,13,13,14,14,15,15,16,16,17,17,18,18,19,19,20,20,21,21,22,22,23,23,24,24,25,25,26,26,28,28,29,29,30,30],"right_children":[2,4,6,8,10,12,14,16,18,20,22,24,26,28,30,32,34,36,38,40,42,44,46,48,50,52,54,-1,56,58,60,-1,-1,-1,-1,-1,-1,-1,-1,-1,-1,-1,-1,-1,-1,-1,-1,-1,-1,-1,-1,-1,-1,-1,-1,-1,-1,-1,-1,-1,-1],"split_conditions":[5.9E0,6E1,6.2E0,3.9E1,5.8E1,6E1,6.5E0,1.2E1,1.083E2,5.5E0,5.7E0,1.25E2,8.74E1,2.9E1,6.8E0,8.1E1,3.8E1,5.5E0,1.131E2,1.16E2,5.6E0,1.22E2,2.56E1,3E1,3.4E1,8E1,8E1,-5.555556E-2,2.7E1,3.3E1,3.2E1,-6.7977062E-3,-9.3300715E-2,7.6411E-2,-3.606228E-2,-8.5825734E-2,-5.2807342E-2,1.886878E-2,-3.5983726E-2,-4.2394128E-2,5.078162E-2,5.6441437E-2,5.318637E-3,-6.4696185E-2,4.7429956E-2,-6.469754E-2,2.0166269E-2,-8.709677E-2,2.270091E-2,1.0969505E-2,-7.984159E-2,-8.9999996E-2,3.030465E-2,4.9578395E-2,-7.894737E-2,-5E-2,7.026613E-2,2.715084E-2,8.730517E-2,7.271738E-2,9.7135425E-2],"split_indices":[5,0,5,0,7,0,5,11,3,5,5,4,3,0,5,6,7,5,3,3,5,6,2,0,0,0,7,0,7,7,0,0,0,0,0,0,0,0,0,0,0,0,0,0,0,0,0,0,0,0,0,0,0,0,0,0,0,0,0,0,0],"split_type":[0,0,0,0,0,0,0,0,0,0,0,0,0,0,0,0,0,0,0,0,0,0,0,0,0,0,0,0,0,0,0,0,0,0,0,0,0,0,0,0,0,0,0,0,0,0,0,0,0,0,0,0,0,0,0,0,0,0,0,0,0],"sum_hessian":[4.9965E3,2.8331196E3,2.1633804E3,2.1654746E3,6.6764496E2,3.7370477E2,1.7896757E3,1.6348612E3,5.306135E2,4.9500153E2,1.726434E2,1.282523E2,2.4545245E2,2.9889035E2,1.4907853E3,1.6209479E3,1.3913343E1,3.822523E2,1.4836119E2,9.506672E1,3.999348E2,1.0974003E2,6.2903374E1,8.983896E1,3.8413345E1,1.6608896E1,2.2884357E2,1.25E0,2.9764035E2,2.3518253E2,1.2556028E3,5.554448E0,1.6153934E3,5.358896E0,8.554448E0,1.8627223E2,1.9598006E2,6.001227E1,8.834893E1,7.1685585E1,2.3381136E1,2.6416028E2,1.3577454E2,1.03131134E2,6.608896E0,1.6304447E1,4.6598927E1,6.75E0,8.308896E1,9.108896E0,2.9304447E1,9E0,7.608896E0,2.2509357E2,3.75E0,1E0,2.9664035E2,3.804448E0,2.3137807E2,1.7326687E1,1.2382761E3],"tree_param":{"num_deleted":"0","num_feature":"12","num_nodes":"61","size_leaf_vector":"1"}},{"base_weights":[-3.7033456E-5,-1.1545951E0,1.5122052E0,-1.5751348E0,2.0798239E-1,4.6216425E-1,1.7314066E0,-1.7543725E0,-1.0212809E0,5.3097427E-1,-7.160502E-1,-1.5912013E-1,7.8616047E-1,1.3123034E0,1.8145826E0,-1.7711272E0,1.8291025E-1,-1.3145424E0,-2.6271927E-1,-3.646661E-1,7.442583E-1,-9.753747E-1,2.6967302E-1,2.5743765E-1,-1.1160467E0,-6.938062E-1,8.960645E-1,-5.40359E-2,1.3259475E0,1.6461848E0,1.8448011E0,-6.5097376E-3,-8.8834874E-2,4.2211622E-2,-7.671205E-2,-9.1029584E-2,-5.503862E-2,6.1710726E-4,-6.338268E-2,-4.032175E-2,4.83771E-2,5.367331E-2,5.0546858E-3,-5.6826025E-2,5.5134144E-2,-8.2543306E-2,3.0220835E-2,-8.34439E-2,2.1582149E-2,1.0475574E-2,-7.610045E-2,-8.610945E-2,2.897141E-2,4.7139775E-2,-7.592594E-2,4.0224183E-2,6.886571E-2,6.81844E-2,8.693376E-2,6.9368035E-2,9.250406E-2],"categories":[],"categories_nodes":[],"categories_segments":[],"categories_sizes":[],"default_left":[0,0,0,0,0,0,0,0,0,0,0,0,0,0,0,0,0,0,0,0,0,0,0,0,0,0,0,0,0,0,0,0,0,0,0,0,0,0,0,0,0,0,0,0,0,0,0,0,0,0,0,0,0,0,0,0,0,0,0,0,0],"id":1,"left_children":[1,3,5,7,9,11,13,15,17,19,21,23,25,27,29,31,33,35,37,39,41,43,45,47,49,51,53,-1,55,57,59,-1,-1,-1,-1,-1,-1,-1,-1,-1,-1,-1,-1,-1,-1,-1,-1,-1,-1,-1,-1,-1,-1,-1,-1,-1,-1,-1,-1,-1,-1],"loss_changes":[8.71256E3,1.6217922E3,4.9645947E2,2.1287695E2,1.998237E2,7.550366E1,5.990918E1,5.3307617E1,1.17801636E2,9.4971085E1,4.4616066E1,5.1781174E1,4.068155E1,1.1212585E1,4.5375977E0,1.4562012E1,1.8218672E1,3.9403687E1,4.129249E1,5.7290405E1,8.473869E1,4.732704E1,2.4735119E1,3.1195711E1,2.1502995E1,2.4028366E1,2.7349976E1,0E0,6.881531E0,3.7885132E0,4.609375E-1,0E0,0E0,0E0,0E0,0E0,0E0,0E0,0E0,0E0,0E0,0E0,0E0,0E0,0E0,0E0,0E0,0E0,0E0,0E0,0E0,0E0,0E0,0E0,0E0,0E0,0E0,0E0,0E0,0E0,0E0],"parents":[2147483647,0,0,1,1,2,2,3,3,4,4,5,5,6,6,7,7,8,8,9,9,10,10,11,11,12,12,13,13,14,14,15,15,16,16,17,17,18,18,19,19,20,20,21,21,22,22,23,23,24,24,25,25,26,26,28,28,29,29,30,30],"right_children":[2,4,6,8,10,12,14,16,18,20,22,24,26,28,30,32,34,36,38,40,42,44,46,48,50,52,54,-1,56,58,60,-1,-1,-1,-1,-1,-1,-1,-1,-1,-1,-1,-1,-1,-1,-1,-1,-1,-1,-1,-1,-1,-1,-1,-1,-1,-1,-1,-1,-1,-1],"split_conditions":[5.9E0,6E1,6.2E0,3.9E1,5.8E1,6E1,6.5E0,1.2E1,1.083E2,5.5E0,5.8E0,1.25E2,8.74E1,2.9E1,6.8E0,8.1E1,2E0,8.9E1,4E1,1.16E2,5.6E0,1.22E2,6.2E1,3E1,3.4E1,8E1,8E1,-5.40359E-2,4.7E1,5.9E1,3.2E1,-6.5097376E-3,-8.8834874E-2,4.2211622E-2,-7.671205E-2,-9.1029584E-2,-5.503862E-2,6.1710726E-4,-6.338268E-2,-4.032175E-2,4.83771E-2,5.367331E-2,5.0546858E-3,-5.6826025E-2,5.5134144E-2,-8.2543306E-2,3.0220835E-2,-8.34439E-2,2.1582149E-2,1.0475574E-2,-7.610045E-2,-8.610945E-2,2.897141E-2,4.7139775E-2,-7.592594E-2,4.0224183E-2,6.886571E-2,6.81844E-2,8.693376E-2,6.9368035E-2,9.250406E-2],"split_indices":[5,0,5,0,7,0,5,11,3,5,5,4,3,0,5,6,1,3,2,3,5,6,7,0,0,0,7,0,0,0,0,0,0,0,0,0,0,0,0,0,0,0,0,0,0,0,0,0,0,0,0,0,0,0,0,0,0,0,0,0,0],"split_type":[0,0,0,0,0,0,0,0,0,0,0,0,0,0,0,0,0,0,0,0,0,0,0,0,0,0,0,0,0,0,0,0,0,0,0,0,0,0,0,0,0,0,0,0,0,0,0,0,0,0,0,0,0,0,0,0,0,0,0,0,0],"sum_hessian":[4.988092E3,2.8286936E3,2.1593982E3,2.1614407E3,6.672531E2,3.734703E2,1.785928E3,1.6313402E3,5.301004E2,4.9474304E2,1.7251007E2,1.2818188E2,2.452884E2,2.985229E2,1.4874052E3,1.6174374E3,1.3902749E1,3.8177313E2,1.4832726E2,9.5019455E1,3.997236E2,1.3658716E2,3.592291E1,8.981547E1,3.8366417E1,1.658895E1,2.2869946E2,1.249036E0,2.9727386E2,2.3474149E2,1.2526636E3,5.5543838E0,1.611883E3,1.040417E1,3.498579E0,1.1114571E2,2.706274E2,1.1722832E2,3.1098944E1,7.165339E1,2.3366066E1,2.6395E2,1.3577357E2,1.2717805E2,9.409107E0,4.748337E0,3.1174574E1,6.7372155E0,8.3078255E1,9.108622E0,2.9257793E1,8.9818E0,7.6071496E0,2.249553E2,3.744163E0,2.8151125E1,2.6912274E2,6.1782154E1,1.7295932E2,1.7303802E1,1.2353599E3],"tree_param":{"num_deleted":"0","num_feature":"12","num_nodes":"61","size_leaf_vector":"1"}},{"base_weights":[-7.1188966E-5,-1.1019005E0,1.4442924E0,-1.5045263E0,1.9792232E-1,4.3925822E-1,1.6549631E0,-1.6770722E0,-9.7319806E-1,5.0532556E-1,-6.8187547E-1,-1.524266E-1,7.479238E-1,1.2512269E0,1.7353318E0,-1.6931363E0,1.7164546E-1,-1.2535709E0,-2.501251E-1,-3.4683535E-1,7.082728E-1,-1.0483675E0,-3.7766907E-2,7.671625E-2,-8.7811746E-2,-6.6459465E-1,8.526684E-1,-5.2601963E-2,1.2644225E0,1.572906E0,1.7645229E0,-6.2340973E-3,-8.492464E-2,7.185456E-2,-3.435423E-2,-8.699592E-2,-5.243538E-2,1.7938439E-2,-3.317518E-2,-3.838223E-2,4.6139505E-2,5.1116057E-2,4.8039034E-3,-5.890066E-2,4.3077853E-2,-6.1170258E-2,1.967423E-2,-8.3517715E-2,9.454172E-3,-8.266941E-2,2.7707383E-2,4.4871945E-2,-7.319125E-2,3.8349178E-2,6.567539E-2,4.9421262E-2,8.0550015E-2,6.6327475E-2,8.847952E-2],"categories":[],"categories_nodes":[],"categories_segments":[],"categories_sizes":[],"default_left":[0,0,0,0,0,0,0,0,0,0,0,0,0,0,0,0,0,0,0,0,0,0,0,0,0,0,0,0,0,0,0,0,0,0,0,0,0,0,0,0,0,0,0,0,0,0,0,0,0,0,0,0,0,0,0,0,0,0,0],"id":2,"left_children":[1,3,5,7,9,11,13,15,17,19,21,23,25,27,29,31,33,35,37,39,41,43,45,47,-1,49,51,-1,53,55,57,-1,-1,-1,-1,-1,-1,-1,-1,-1,-1,-1,-1,-1,-1,-1,-1,-1,-1,-1,-1,-1,-1,-1,-1,-1,-1,-1,-1],"loss_changes":[7.90426E3,1.4747869E3,4.5434326E2,1.9559082E2,1.807918E2,6.8384445E1,5.547168E1,4.8476074E1,1.0707904E2,8.585609E1,4.0842712E1,4.7536602E1,3.693788E1,1.0402618E1,4.2368164E0,1.3302734E1,1.7162636E1,3.6183105E1,3.780779E1,5.1937855E1,7.683064E1,2.8337318E1,3.3124718E1,2.2659771E1,0E0,2.2044718E1,2.509407E1,0E0,6.250702E0,3.6292725E0,4.169922E-1,0E0,0E0,0E0,0E0,0E0,0E0,0E0,0E0,0E0,0E0,0E0,0E0,0E0,0E0,0E0,0E0,0E0,0E0,0E0,0E0,0E0,0E0,0E0,0E0,0E0,0E0,0E0,0E0],"parents":[2147483647,0,0,1,1,2,2,3,3,4,4,5,5,6,6,7,7,8,8,9,9,10,10,11,11,12,12,13,13,14,14,15,15,16,16,17,17,18,18,19,19,20,20,21,21,22,22,23,23,25,25,26,26,28,28,29,29,30,30],"right_children":[2,4,6,8,10,12,14,16,18,20,22,24,26,28,30,32,34,36,38,40,42,44,46,48,-1,50,52,-1,54,56,58,-1,-1,-1,-1,-1,-1,-1,-1,-1,-1,-1,-1,-1,-1,-1,-1,-1,-1,-1,-1,-1,-1,-1,-1,-1,-1,-1,-1],"split_conditions":[5.9E0,6E1,6.2E0,3.9E1,5.8E1,6E1,6.5E0,1.2E1,1.083E2,5.5E0,5.7E0,1.36E2,8.74E1,2.9E1,6.8E0,8.1E1,3.8E1,8.9E1,1.131E2,1.16E2,5.6E0,1.22E2,2.56E1,3E1,-8.7811746E-2,8E1,8E1,-5.2601963E-2,4.7E1,4.6E1,3.2E1,-6.2340973E-3,-8.492464E-2,7.185456E-2,-3.435423E-2,-8.699592E-2,-5.243538E-2,1.7938439E-2,-3.317518E-2,-3.838223E-2,4.6139505E-2,5.1116057E-2,4.8039034E-3,-5.890066E-2,4.3077853E-2,-6.1170258E-2,1.967423E-2,-8.3517715E-2,9.454172E-3,-8.266941E-2,2.7707383E-2,4.4871945E-2,-7.319125E-2,3.8349178E-2,6.567539E-2,4.9421262E-2,8.0550015E-2,6.6327475E-2,8.847952E-2],"split_indices":[5,0,5,0,7,0,5,11,3,5,5,4,3,0,5,6,7,3,3,3,5,6,2,9,0,0,7,0,0,0,0,0,0,0,0,0,0,0,0,0,0,0,0,0,0,0,0,0,0,0,0,0,0,0,0,0,0,0,0],"split_type":[0,0,0,0,0,0,0,0,0,0,0,0,0,0,0,0,0,0,0,0,0,0,0,0,0,0,0,0,0,0,0,0,0,0,0,0,0,0,0,0,0,0,0,0,0,0,0,0,0,0,0,0,0,0,0,0,0,0,0],"sum_hessian":[4.964728E3,2.8164463E3,2.148282E3,2.1502417E3,6.6620447E2,3.7281262E2,1.7754694E3,1.6215094E3,5.287323E2,4.940189E2,1.7218561E2,1.2798425E2,2.4482837E2,2.975048E2,1.4779645E3,1.6076244E3,1.3885052E1,3.804705E2,1.4826181E2,9.488686E1,3.9913202E2,1.09342865E2,6.2842743E1,1.1281768E2,1.5166573E1,1.6532793E1,2.2829558E2,1.2462543E0,2.9625854E2,2.335156E2,1.244449E3,5.554202E0,1.6020702E3,5.3409657E0,8.544086E0,1.1054426E2,2.6992624E2,6.0006374E1,8.825544E1,7.156311E1,2.3323755E1,2.633611E2,1.3577089E2,1.0275132E2,6.591546E0,1.6271284E1,4.6571457E1,5.9797745E0,1.06837906E2,8.930577E0,7.602216E0,2.2456798E2,3.7276027E0,2.8101244E1,2.681573E2,1.5937243E1,2.1757835E2,1.723953E1,1.2272094E3],"tree_param":{"num_deleted":"0","num_feature":"12","num_nodes":"59","size_leaf_vector":"1"}},{"base_weights":[-9.4152805E-5,-1.0542195E0,1.3833674E0,-1.4413255E0,1.8851404E-1,4.1761062E-1,1.5871912E0,-1.6086717E0,-9.287464E-1,4.813184E-1,-6.5020055E-1,-1.4627516E-1,7.122873E-1,1.1953121E0,1.6655664E0,-1.6241993E0,1.6604626E-1,-1.1978292E0,-2.3792787E-1,-3.3013096E-1,6.7459506E-1,-8.899809E-1,2.568631E-1,2.3832747E-1,-1.0349519E0,3.5568827E-1,1.1267854E0,-5.1246453E-2,1.208103E0,1.5072951E0,1.6940806E0,-8.175724E-2,-4.192705E-2,3.961777E-2,-7.2962366E-2,-7.5849555E-2,-4.4482004E-2,9.4516977E-4,-5.898071E-2,-3.656169E-2,4.404908E-2,4.8741862E-2,4.5656073E-3,-5.1948674E-2,5.1295497E-2,-7.9259805E-2,2.8878743E-2,-8.03012E-2,2.022663E-2,9.828773E-3,-7.202032E-2,4.588312E-2,-1.4131049E-3,5.965616E-2,-7.438102E-2,3.658591E-2,6.276318E-2,6.232373E-2,7.993163E-2,6.354858E-2,8.495004E-2],"categories":[],"categories_nodes":[],"categories_segments":[],"categories_sizes":[],"default_left":[0,0,0,0,0,0,0,0,0,0,0,0,0,0,0,0,0,0,0,0,0,0,0,0,0,0,0,0,0,0,0,0,0,0,0,0,0,0,0,0,0,0,0,0,0,0,0,0,0,0,0,0,0,0,0,0,0,0,0,0,0],"id":3,"left_children":[1,3,5,7,9,11,13,15,17,19,21,23,25,27,29,31,33,35,37,39,41,43,45,47,49,51,53,-1,55,57,59,-1,-1,-1,-1,-1,-1,-1,-1,-1,-1,-1,-1,-1,-1,-1,-1,-1,-1,-1,-1,-1,-1,-1,-1,-1,-1,-1,-1,-1,-1],"loss_changes":[7.1906875E3,1.3465222E3,4.1906226E2,1.8154785E2,1.6375816E2,6.2075096E1,5.2075195E1,4.456299E1,9.7783875E1,7.768298E1,3.7779373E1,4.4280506E1,3.5829765E1,9.670593E0,4.05542E0,1.2332031E1,1.6270948E1,3.597223E1,3.6092113E1,4.7124466E1,6.982445E1,4.010932E1,2.2699324E1,2.8462631E1,1.9808064E1,2.8771248E1,2.135463E1,0E0,5.7244873E0,3.5490112E0,4.0649414E-1,0E0,0E0,0E0,0E0,0E0,0E0,0E0,0E0,0E0,0E0,0E0,0E0,0E0,0E0,0E0,0E0,0E0,0E0,0E0,0E0,0E0,0E0,0E0,0E0,0E0,0E0,0E0,0E0,0E0,0E0],"parents":[2147483647,0,0,1,1,2,2,3,3,4,4,5,5,6,6,7,7,8,8,9,9,10,10,11,11,12,12,13,13,14,14,15,15,16,16,17,17,18,18,19,19,20,20,21,21,22,22,23,23,24,24,25,25,26,26,28,28,29,29,30,30],"right_children":[2,4,6,8,10,12,14,16,18,20,22,24,26,28,30,32,34,36,38,40,42,44,46,48,50,52,54,-1,56,58,60,-1,-1,-1,-1,-1,-1,-1,-1,-1,-1,-1,-1,-1,-1,-1,-1,-1,-1,-1,-1,-1,-1,-1,-1,-1,-1,-1,-1,-1,-1],"split_conditions":[5.9E0,6E1,6.2E0,3.9E1,5.8E1,6E1,6.5E0,1.2E1,1.083E2,5.5E0,5.8E0,1.25E2,3.16E1,2.9E1,6.8E0,1.316E2,2E0,5.5E0,4E1,1.16E2,5.6E0,1.22E2,6.2E1,3E1,3.5E1,4.6E1,2.13E2,-5.1246453E-2,4.7E1,6E1,3.2E1,-8.175724E-2,-4.192705E-2,3.961777E-2,-7.2962366E-2,-7.5849555E-2,-4.4482004E-2,9.4516977E-4,-5.898071E-2,-3.656169E-2,4.404908E-2,4.8741862E-2,4.5656073E-3,-5.1948674E-2,5.1295497E-2,-7.9259805E-2,2.8878743E-2,-8.03012E-2,2.022663E-2,9.828773E-3,-7.202032E-2,4.588312E-2,-1.4131049E-3,5.965616E-2,-7.438102E-2,3.658591E-2,6.276318E-2,6.232373E-2,7.993163E-2,6.354858E-2,8.495004E-2],"split_indices":[5,0,5,0,7,0,5,11,3,5,5,4,2,0,5,3,1,5,2,3,5,6,7,0,7,7,8,0,0,0,0,0,0,0,0,0,0,0,0,0,0,0,0,0,0,0,0,0,0,0,0,0,0,0,0,0,0,0,0,0,0],"split_type":[0,0,0,0,0,0,0,0,0,0,0,0,0,0,0,0,0,0,0,0,0,0,0,0,0,0,0,0,0,0,0,0,0,0,0,0,0,0,0,0,0,0,0,0,0,0,0,0,0,0,0,0,0,0,0,0,0,0,0,0,0],"sum_hessian":[4.9287275E3,2.7974526E3,2.1312747E3,2.132903E3,6.645496E2,3.7195035E2,1.7593245E3,1.6063318E3,5.2657135E2,4.9289926E2,1.7165036E2,1.2783402E2,2.4411633E2,2.959276E2,1.4633969E3,1.5924834E3,1.3848384E1,3.784329E2,1.4813847E2,9.468158E1,3.9821768E2,1.3577686E2,3.5873493E1,8.973166E1,3.810236E1,1.3222192E2,1.1189441E2,1.2418151E0,2.946858E2,2.3162073E2,1.2317761E3,1.569536E3,2.2947302E1,1.0366228E1,3.4821556E0,1.8398018E2,1.9445271E2,1.17163704E2,3.0974773E1,7.1423416E1,2.3258163E1,2.6245096E2,1.3576672E2,1.264045E2,9.372356E0,4.7349296E0,3.1138563E1,6.7016473E0,8.3030014E1,9.56495E0,2.8537409E1,5.3104603E1,7.911732E1,1.0965565E2,2.2387607E0,2.8032713E1,2.6665308E2,6.3873245E1,1.6774748E2,1.713989E1,1.2146362E3],"tree_param":{"num_deleted":"0","num_feature":"12","num_nodes":"61","size_leaf_vector":"1"}},{"base_weights":[-1.0869823E-4,-1.0107756E0,1.328384E0,-1.4091306E0,1.0718249E-1,5.274707E-1,1.5595605E0,-1.5476853E0,-9.262977E-1,3.829376E-1,-6.5465194E-1,7.90932E-3,7.798498E-1,1.3174847E0,1.6242931E0,-1.562729E0,1.5590838E-1,-1.1498436E0,-2.559944E-1,-3.639907E-1,5.646975E-1,-9.973657E-1,-1.6870301E-2,3.4298313E-1,-1.188577E0,-7.554707E-1,8.7233675E-1,-5.2674115E-2,1.3288732E0,1.1724273E0,8.1475444E-2,-2.5146378E-3,-7.8401975E-2,6.7927144E-2,-3.2785434E-2,-7.213388E-2,-4.2438194E-2,3.975792E-2,-3.6749102E-2,-3.69077E-2,4.88847E-2,4.4830773E-2,-3.5944094E-3,-5.506296E-2,3.9233036E-2,-8.42873E-2,1.2989084E-2,-8.050334E-2,2.4567543E-2,-7.262126E-2,6.618413E-2,-8.217887E-2,1.8184206E-2,5.3598154E-2,2.9786682E-2,5.3807594E-2,7.188124E-2,7.9618074E-2,-7.6585844E-2],"categories":[],"categories_nodes":[],"categories_segments":[],"categories_sizes":[],"default_left":[0,0,0,0,0,0,0,0,0,0,0,0,0,0,0,0,0,0,0,0,0,0,0,0,0,0,0,0,0,0,0,0,0,0,0,0,0,0,0,0,0,0,0,0,0,0,0,0,0,0,0,0,0,0,0,0,0,0,0],"id":4,"left_children":[1,3,5,7,9,11,13,15,17,19,21,23,25,27,29,31,33,35,37,39,41,43,45,47,49,51,53,-1,55,57,-1,-1,-1,-1,-1,-1,-1,-1,-1,-1,-1,-1,-1,-1,-1,-1,-1,-1,-1,-1,-1,-1,-1,-1,-1,-1,-1,-1,-1],"loss_changes":[6.557922E3,1.235513E3,3.8990698E2,1.3539209E2,1.5354198E2,6.217372E1,2.3513916E1,4.0934326E1,6.841437E1,7.302648E1,4.245105E1,6.296787E1,4.5977783E1,1.0869568E1,1.1235352E0,1.2562744E1,1.5343703E1,2.9067139E1,5.897073E1,5.3727966E1,9.1301346E1,2.425933E1,3.2262127E1,3.6340523E1,2.47005E1,1.9153557E1,1.60085E1,0E0,8.057617E0,2.3169653E1,0E0,0E0,0E0,0E0,0E0,0E0,0E0,0E0,0E0,0E0,0E0,0E0,0E0,0E0,0E0,0E0,0E0,0E0,0E0,0E0,0E0,0E0,0E0,0E0,0E0,0E0,0E0,0E0,0E0],"parents":[2147483647,0,0,1,1,2,2,3,3,4,4,5,5,6,6,7,7,8,8,9,9,10,10,11,11,12,12,13,13,14,14,15,15,16,16,17,17,18,18,19,19,20,20,21,21,22,22,23,23,24,24,25,25,26,26,28,28,29,29],"right_children":[2,4,6,8,10,12,14,16,18,20,22,24,26,28,30,32,34,36,38,40,42,44,46,48,50,52,54,-1,56,58,-1,-1,-1,-1,-1,-1,-1,-1,-1,-1,-1,-1,-1,-1,-1,-1,-1,-1,-1,-1,-1,-1,-1,-1,-1,-1,-1,-1,-1],"split_conditions":[5.9E0,5.7E1,6.3E0,3.9E1,5.8E1,6E1,6.7E0,1.2E1,1.094E2,5.5E0,5.7E0,1.28E2,8.74E1,2.9E1,3.2E1,8.1E1,3.8E1,5.5E0,1.12E2,1.178E2,5.6E0,1.22E2,8.86E1,3E1,2.13E2,8E1,5E1,-5.2674115E-2,4.5E1,1.15E2,8.1475444E-2,-2.5146378E-3,-7.8401975E-2,6.7927144E-2,-3.2785434E-2,-7.213388E-2,-4.2438194E-2,3.975792E-2,-3.6749102E-2,-3.69077E-2,4.88847E-2,4.4830773E-2,-3.5944094E-3,-5.506296E-2,3.9233036E-2,-8.42873E-2,1.2989084E-2,-8.050334E-2,2.4567543E-2,-7.262126E-2,6.618413E-2,-8.217887E-2,1.8184206E-2,5.3598154E-2,2.9786682E-2,5.3807594E-2,7.188124E-2,7.9618074E-2,-7.6585844E-2],"split_indices":[5,0,5,0,7,0,5,11,3,5,5,4,3,0,0,6,7,5,3,3,5,6,3,0,8,0,7,0,7,4,0,0,0,0,0,0,0,0,0,0,0,0,0,0,0,0,0,0,0,0,0,0,0,0,0,0,0,0,0],"split_type":[0,0,0,0,0,0,0,0,0,0,0,0,0,0,0,0,0,0,0,0,0,0,0,0,0,0,0,0,0,0,0,0,0,0,0,0,0,0,0,0,0,0,0,0,0,0,0,0,0,0,0,0,0,0,0,0,0,0,0],"sum_hessian":[4.8822627E3,2.772948E3,2.1093145E3,2.0442667E3,7.2868134E2,4.7319785E2,1.6361167E3,1.5867301E3,4.5753656E2,5.353884E2,1.9329292E2,1.5504504E2,3.181528E2,3.4970413E2,1.2864126E3,1.5729231E3,1.38071E1,3.4257318E2,1.1496339E2,1.04588295E2,4.3080014E2,1.2536427E2,6.792865E1,1.21681656E2,3.3363384E1,1.7669157E1,3.0048364E2,1.2342858E0,3.4846985E2,1.72558E1,1.2691567E3,5.540223E0,1.5673828E3,5.2918673E0,8.515233E0,1.7174252E2,1.7083064E2,3.5780945E1,7.918244E1,8.213318E1,2.2455114E1,2.828912E2,1.4790892E2,1.18819046E2,6.545227E0,8.935109E0,5.8993538E1,7.895591E0,1.13786064E2,3.0574213E1,2.7891693E0,9.59023E0,8.078927E0,1.7285648E2,1.2762717E2,1.08117485E2,2.4035237E2,1.5292175E1,1.9636251E0],"tree_param":{"num_deleted":"0","num_feature":"12","num_nodes":"59","size_leaf_vector":"1"}},{"base_weights":[-1.250821E-4,-9.708025E-1,1.2783333E0,-1.3333464E0,1.7434932E-1,3.7500328E-1,1.4727172E0,-1.4928823E0,-8.5239404E-1,4.413126E-1,-5.921631E-1,-1.3860926E-1,6.4392495E-1,1.0984476E0,1.5486174E0,-1.5075577E0,1.5116219E-1,-1.1033036E0,-2.1612154E-1,-2.9591018E-1,6.169389E-1,-8.148211E-1,2.4298204E-1,6.48136E-2,-7.967791E-2,3.0748713E-1,1.0368E0,5.5827606E-1,1.1558479E0,1.3951621E0,1.5764631E0,-7.5935535E-2,-3.6827844E-2,3.7291795E-2,-6.9679484E-2,-7.892762E-2,-4.5289364E-2,6.495564E-2,-1.8023191E-2,3.8315006E-2,-3.5719153E-2,4.4529863E-2,4.51743E-3,-4.7672544E-2,4.799997E-2,-7.6464824E-2,2.7535254E-2,8.568878E-3,-8.298032E-2,-2.9223073E-2,2.6862873E-2,5.507047E-2,-7.32964E-2,7.312093E-2,-3.885063E-4,3.6268577E-2,6.2153067E-2,5.7026118E-2,7.4260004E-2,5.8558296E-2,7.90627E-2],"categories":[],"categories_nodes":[],"categories_segments":[],"categories_sizes":[],"default_left":[0,0,0,0,0,0,0,0,0,0,0,0,0,0,0,0,0,0,0,0,0,0,0,0,0,0,0,0,0,0,0,0,0,0,0,0,0,0,0,0,0,0,0,0,0,0,0,0,0,0,0,0,0,0,0,0,0,0,0,0,0],"id":5,"left_children":[1,3,5,7,9,11,13,15,17,19,21,23,25,27,29,31,33,35,37,39,41,43,45,47,-1,49,51,53,55,57,59,-1,-1,-1,-1,-1,-1,-1,-1,-1,-1,-1,-1,-1,-1,-1,-1,-1,-1,-1,-1,-1,-1,-1,-1,-1,-1,-1,-1,-1,-1],"loss_changes":[5.99275E3,1.1398501E3,3.654048E2,1.5870898E2,1.3551051E2,5.1249447E1,4.7009277E1,3.7970947E1,8.304556E1,6.3727135E1,3.2025333E1,3.802075E1,3.1838432E1,8.425476E0,3.8825684E0,1.22146E1,1.4588415E1,3.3667328E1,3.3008778E1,4.2819756E1,5.7084045E1,3.422E1,2.0910614E1,2.1115326E1,0E0,2.746459E1,1.9694054E1,1.5382986E1,8.991486E0,3.5169678E0,4.716797E-1,0E0,0E0,0E0,0E0,0E0,0E0,0E0,0E0,0E0,0E0,0E0,0E0,0E0,0E0,0E0,0E0,0E0,0E0,0E0,0E0,0E0,0E0,0E0,0E0,0E0,0E0,0E0,0E0,0E0,0E0],"parents":[2147483647,0,0,1,1,2,2,3,3,4,4,5,5,6,6,7,7,8,8,9,9,10,10,11,11,12,12,13,13,14,14,15,15,16,16,17,17,18,18,19,19,20,20,21,21,22,22,23,23,25,25,26,26,27,27,28,28,29,29,30,30],"right_children":[2,4,6,8,10,12,14,16,18,20,22,24,26,28,30,32,34,36,38,40,42,44,46,48,-1,50,52,54,56,58,60,-1,-1,-1,-1,-1,-1,-1,-1,-1,-1,-1,-1,-1,-1,-1,-1,-1,-1,-1,-1,-1,-1,-1,-1,-1,-1,-1,-1,-1,-1],"split_conditions":[5.9E0,6E1,6.2E0,3.9E1,5.8E1,6E1,6.5E0,1.2E1,1.083E2,5.5E0,5.8E0,1.36E2,3.16E1,4.7E1,6.8E0,8.6E1,2E0,8.9E1,1.04E2,5E1,5.6E0,1.22E2,6.2E1,6.4E1,-7.967791E-2,6.7E1,2.13E2,8.92E1,2.64E1,6E1,3.2E1,-7.5935535E-2,-3.6827844E-2,3.7291795E-2,-6.9679484E-2,-7.892762E-2,-4.5289364E-2,6.495564E-2,-1.8023191E-2,3.8315006E-2,-3.5719153E-2,4.4529863E-2,4.51743E-3,-4.7672544E-2,4.799997E-2,-7.6464824E-2,2.7535254E-2,8.568878E-3,-8.298032E-2,-2.9223073E-2,2.6862873E-2,5.507047E-2,-7.32964E-2,7.312093E-2,-3.885063E-4,3.6268577E-2,6.2153067E-2,5.7026118E-2,7.4260004E-2,5.8558296E-2,7.90627E-2],"split_indices":[5,0,5,0,7,0,5,11,3,5,5,4,2,0,5,7,1,3,4,9,5,6,7,7,0,0,8,3,2,0,0,0,0,0,0,0,0,0,0,0,0,0,0,0,0,0,0,0,0,0,0,0,0,0,0,0,0,0,0,0,0],"split_type":[0,0,0,0,0,0,0,0,0,0,0,0,0,0,0,0,0,0,0,0,0,0,0,0,0,0,0,0,0,0,0,0,0,0,0,0,0,0,0,0,0,0,0,0,0,0,0,0,0,0,0,0,0,0,0,0,0,0,0,0,0],"sum_hessian":[4.8270825E3,2.743957E3,2.0831255E3,2.0840142E3,6.5994293E2,3.6939984E2,1.7137257E3,1.5633381E3,5.20676E2,4.8978378E2,1.7015912E2,1.2711257E2,2.4228726E2,2.9154852E2,1.4221772E3,1.5495887E3,1.3749272E1,3.728939E2,1.477821E2,9.4099495E1,3.956843E2,1.3436137E2,3.579775E1,1.1235866E2,1.4753908E1,1.3147853E2,1.1080873E2,2.9035234E1,2.6251328E2,2.2627954E2,1.1958976E3,1.526537E3,2.3051842E1,1.0300957E1,3.4483159E0,1.0742473E2,2.6546918E2,1.2157582E1,1.3562451E2,2.635963E1,6.773986E1,2.599186E2,1.3576569E2,1.2505614E2,9.305238E0,4.7087555E0,3.1088993E1,1.0666754E2,5.691117E0,2.6615555E1,1.0486298E2,1.0856595E2,2.242779E0,1.0569332E1,1.8465902E1,4.5794334E1,2.1671893E2,6.267976E1,1.635998E2,1.6838488E1,1.1790592E3],"tree_param":{"num_deleted":"0","num_feature":"12","num_nodes":"61","size_leaf_vector":"1"}},{"base_weights":[-1.1216761E-4,-9.338278E-1,1.2324438E0,-1.3090997E0,9.8224744E-2,4.784475E-1,1.4551295E0,-1.4433149E0,-8.4975153E-1,3.4917504E-1,-5.977439E-1,-9.17434E-2,6.743532E-1,1.2193831E0,1.5189757E0,-1.4576449E0,1.4195265E-1,-1.0581057E0,-2.3446082E-1,-3.3030966E-1,5.1490605E-1,-9.1896087E-1,-6.3133794E-3,1.9160657E-1,-1.2660604E0,-4.65224E-1,7.702224E-1,-5.1675297E-2,1.2305008E0,1.0804883E0,7.620691E-2,-7.3436014E-2,-3.3800866E-2,-7.180481E-2,3.54318E-2,-6.73013E-2,-3.827543E-2,3.8113896E-2,-3.448015E-2,-3.6775157E-2,4.0794514E-2,4.1131254E-2,-3.4674897E-3,7.431906E-2,-4.9248923E-2,-5.715536E-2,1.8839827E-2,-7.765685E-2,1.7963754E-2,1.5883645E-2,-8.285544E-2,3.599927E-2,-6.0193297E-2,3.4438837E-2,6.701538E-2,4.9171027E-2,6.687891E-2,7.482276E-2,-7.586202E-2],"categories":[],"categories_nodes":[],"categories_segments":[],"categories_sizes":[],"default_left":[0,0,0,0,0,0,0,0,0,0,0,0,0,0,0,0,0,0,0,0,0,0,0,0,0,0,0,0,0,0,0,0,0,0,0,0,0,0,0,0,0,0,0,0,0,0,0,0,0,0,0,0,0,0,0,0,0,0,0],"id":6,"left_children":[1,3,5,7,9,11,13,15,17,19,21,23,25,27,29,31,33,35,37,39,41,43,45,47,49,51,53,-1,55,57,-1,-1,-1,-1,-1,-1,-1,-1,-1,-1,-1,-1,-1,-1,-1,-1,-1,-1,-1,-1,-1,-1,-1,-1,-1,-1,-1,-1,-1],"loss_changes":[5.486199E3,1.0506184E3,3.4429956E2,1.2140747E2,1.2669149E2,5.255925E1,2.201538E1,3.5144043E1,5.7724854E1,6.0180832E1,3.6525467E1,4.0524643E1,3.8586105E1,9.863098E0,1.1687012E0,1.2202393E1,1.4153331E1,2.740506E1,5.3004425E1,4.9412384E1,7.714939E1,2.1250854E1,3.0344875E1,2.9342848E1,1.5181892E1,2.5183151E1,1.4080231E1,0E0,7.7269897E0,2.1621172E1,0E0,0E0,0E0,0E0,0E0,0E0,0E0,0E0,0E0,0E0,0E0,0E0,0E0,0E0,0E0,0E0,0E0,0E0,0E0,0E0,0E0,0E0,0E0,0E0,0E0,0E0,0E0,0E0,0E0],"parents":[2147483647,0,0,1,1,2,2,3,3,4,4,5,5,6,6,7,7,8,8,9,9,10,10,11,11,12,12,13,13,14,14,15,15,16,16,17,17,18,18,19,19,20,20,21,21,22,22,23,23,24,24,25,25,26,26,28,28,29,29],"right_children":[2,4,6,8,10,12,14,16,18,20,22,24,26,28,30,32,34,36,38,40,42,44,46,48,50,52,54,-1,56,58,-1,-1,-1,-1,-1,-1,-1,-1,-1,-1,-1,-1,-1,-1,-1,-1,-1,-1,-1,-1,-1,-1,-1,-1,-1,-1,-1,-1,-1],"split_conditions":[5.9E0,5.7E1,6.3E0,3.9E1,5.8E1,5.6E1,6.7E0,1.2E1,1.094E2,5.5E0,5.7E0,1.28E2,8.88E1,2.9E1,3.2E1,1.316E2,8.63E1,5.5E0,1.12E2,1.16E2,5.6E0,8.4E1,2.56E1,3E1,2.8E1,4.6E1,1.286E2,-5.1675297E-2,4.5E1,1.15E2,7.620691E-2,-7.3436014E-2,-3.3800866E-2,-7.180481E-2,3.54318E-2,-6.73013E-2,-3.827543E-2,3.8113896E-2,-3.448015E-2,-3.6775157E-2,4.0794514E-2,4.1131254E-2,-3.4674897E-3,7.431906E-2,-4.9248923E-2,-5.715536E-2,1.8839827E-2,-7.765685E-2,1.7963754E-2,1.5883645E-2,-8.285544E-2,3.599927E-2,-6.0193297E-2,3.4438837E-2,6.701538E-2,4.9171027E-2,6.687891E-2,7.482276E-2,-7.586202E-2],"split_indices":[5,0,5,0,7,0,5,11,3,5,5,4,3,0,0,3,3,5,3,3,5,6,2,0,0,7,3,0,7,4,0,0,0,0,0,0,0,0,0,0,0,0,0,0,0,0,0,0,0,0,0,0,0,0,0,0,0,0,0],"split_type":[0,0,0,0,0,0,0,0,0,0,0,0,0,0,0,0,0,0,0,0,0,0,0,0,0,0,0,0,0,0,0,0,0,0,0,0,0,0,0,0,0,0,0,0,0,0,0,0,0,0,0,0,0,0,0,0,0,0,0],"sum_hessian":[4.765056E3,2.7113394E3,2.053717E3,1.9881467E3,7.2319244E2,4.6897018E2,1.584747E3,1.5369338E3,4.512129E2,5.318999E2,1.9129259E2,1.200607E2,3.489095E2,3.4200848E2,1.2427384E3,1.5232449E3,1.3688961E1,3.3653375E2,1.1467916E2,1.0410089E2,4.2779898E2,1.2360604E2,6.768654E1,9.739675E1,2.2663948E1,2.6776022E1,3.2213345E2,1.2278984E0,3.4078058E2,1.6907867E1,1.2258306E3,1.5010961E3,2.214881E1,3.21154E0,1.0477421E1,1.6780782E2,1.6872592E2,3.5738594E1,7.894057E1,7.717651E1,2.6924381E1,2.7994696E2,1.47852E2,2.7271662E0,1.20878876E2,1.6561172E1,5.1125366E1,7.814687E0,8.958207E1,4.525096E0,1.8138851E1,1.0290061E1,1.648596E1,2.8379678E2,3.8336685E1,1.0611199E2,2.3466858E2,1.4939573E1,1.9682943E0],"tree_param":{"num_deleted":"0","num_feature":"12","num_nodes":"59","size_leaf_vector":"1"}},{"base_weights":[-1.4052067E-4,-8.995115E-1,1.1901081E0,-1.2429905E0,1.6170028E-1,4.566991E-1,1.4098102E0,-1.3981893E0,-7.850522E-1,4.0527827E-1,-5.398431E-1,-6.460984E-2,6.538028E-1,1.174646E0,1.4739804E0,-1.412248E0,1.3275348E-1,-1.0213826E0,-1.9566803E-1,-9.288933E-2,4.5465273E-1,-8.14425E-2,-3.703533E-1,2.3316361E-1,-1.2668598E0,-4.0164843E-1,7.415678E-1,-5.0385304E-2,1.1855433E0,1.040179E0,7.3956825E-2,3.8507145E-3,-7.088824E-2,6.333238E-2,-3.1151293E-2,-7.456723E-2,-4.1443594E-2,1.9485748E-3,-5.3273197E-2,-1.0191153E-2,3.0399317E-2,-2.9536713E-2,1.8949505E-2,-7.5070605E-2,1.9355709E-2,1.5219628E-2,-8.078405E-2,3.446314E-2,-5.6183334E-2,-7.169636E-2,3.7994575E-2,5.1176693E-2,6.773459E-2,7.24534E-2,-7.294105E-2],"categories":[],"categories_nodes":[],"categories_segments":[],"categories_sizes":[],"default_left":[0,0,0,0,0,0,0,0,0,0,0,0,0,0,0,0,0,0,0,0,0,0,0,0,0,0,0,0,0,0,0,0,0,0,0,0,0,0,0,0,0,0,0,0,0,0,0,0,0,0,0,0,0,0,0],"id":7,"left_children":[1,3,5,7,9,11,13,15,17,19,21,23,25,27,29,31,33,35,37,-1,39,-1,41,43,45,47,49,-1,51,53,-1,-1,-1,-1,-1,-1,-1,-1,-1,-1,-1,-1,-1,-1,-1,-1,-1,-1,-1,-1,-1,-1,-1,-1,-1],"loss_changes":[5.030122E3,9.758071E2,3.252334E2,1.4262134E2,1.1220669E2,4.8096306E1,2.1746094E1,3.2666748E1,7.141406E1,5.5264145E1,3.0650654E1,4.655598E1,3.174173E1,9.243408E0,1.1862793E0,1.239502E1,1.3339997E1,3.194458E1,3.0326225E1,0E0,4.8328743E1,0E0,2.4634745E1,2.8463531E1,1.4636414E1,2.1811565E1,1.3596359E1,0E0,7.854492E0,2.0179531E1,0E0,0E0,0E0,0E0,0E0,0E0,0E0,0E0,0E0,0E0,0E0,0E0,0E0,0E0,0E0,0E0,0E0,0E0,0E0,0E0,0E0,0E0,0E0,0E0,0E0],"parents":[2147483647,0,0,1,1,2,2,3,3,4,4,5,5,6,6,7,7,8,8,9,9,10,10,11,11,12,12,13,13,14,14,15,15,16,16,17,17,18,18,20,20,22,22,23,23,24,24,25,25,26,26,28,28,29,29],"right_children":[2,4,6,8,10,12,14,16,18,20,22,24,26,28,30,32,34,36,38,-1,40,-1,42,44,46,48,50,-1,52,54,-1,-1,-1,-1,-1,-1,-1,-1,-1,-1,-1,-1,-1,-1,-1,-1,-1,-1,-1,-1,-1,-1,-1,-1,-1],"split_conditions":[5.9E0,6E1,6.3E0,3.9E1,5.8E1,5.7E1,6.7E0,1.2E1,1.083E2,8.22E1,8.4E1,1.28E2,8.88E1,2.9E1,3.2E1,8.1E1,3.8E1,8.9E1,4E1,-9.288933E-2,5.5E0,-8.14425E-2,5.8E0,3E1,2.8E1,4.6E1,2.5E1,-5.0385304E-2,6.6E1,1.15E2,7.3956825E-2,3.8507145E-3,-7.088824E-2,6.333238E-2,-3.1151293E-2,-7.456723E-2,-4.1443594E-2,1.9485748E-3,-5.3273197E-2,-1.0191153E-2,3.0399317E-2,-2.9536713E-2,1.8949505E-2,-7.5070605E-2,1.9355709E-2,1.5219628E-2,-8.078405E-2,3.446314E-2,-5.6183334E-2,-7.169636E-2,3.7994575E-2,5.1176693E-2,6.773459E-2,7.24534E-2,-7.294105E-2],"split_indices":[5,0,5,0,7,0,5,11,3,3,3,4,3,0,0,6,7,3,2,0,5,0,5,0,0,7,10,0,0,4,0,0,0,0,0,0,0,0,0,0,0,0,0,0,0,0,0,0,0,0,0,0,0,0,0],"split_type":[0,0,0,0,0,0,0,0,0,0,0,0,0,0,0,0,0,0,0,0,0,0,0,0,0,0,0,0,0,0,0,0,0,0,0,0,0,0,0,0,0,0,0,0,0,0,0,0,0,0,0,0,0,0,0],"sum_hessian":[4.696962E3,2.6755315E3,2.0214305E3,2.0211737E3,6.543579E2,4.6667078E2,1.5547598E3,1.5080354E3,5.131382E2,4.8602933E2,1.6832855E2,1.2822023E2,3.3845056E2,3.374426E2,1.2173171E3,1.4943899E3,1.3645539E1,3.6574814E2,1.4739008E2,9.595509E0,4.7643384E2,2.1510273E1,1.4681828E2,1.0341295E2,2.4807276E1,2.5708378E1,3.127422E2,1.2221133E0,3.362205E2,1.6679932E1,1.2006372E3,5.467498E0,1.4889224E3,5.187218E0,8.458322E0,1.0432368E2,2.6142447E2,1.1682902E2,3.0561056E1,8.992608E1,3.8650775E2,1.1361571E2,3.320257E1,7.716609E0,9.569634E1,4.529897E0,2.027738E1,1.02567E1,1.5451678E1,1.9668828E0,3.107753E2,1.753359E2,1.6088458E2,1.4695568E1,1.984364E0],"tree_param":{"num_deleted":"0","num_feature":"12","num_nodes":"55","size_leaf_vector":"1"}},{"base_weights":[-2.3250635E-4,-7.740584E-1,1.2902639E0,-1.1888485E0,1.5634076E-1,7.762266E-1,1.3933905E0,-1.3193356E0,-6.8132794E-1,3.7062275E-1,-4.6752974E-1,-7.594765E-2,8.1643367E-1,1.2199082E0,1.4414024E0,-1.4572805E0,-1.1487976E0,-1.1428874E0,-3.1157422E-1,1.8554737E-1,8.452088E-1,-8.998106E-1,1.2338885E-1,-7.866313E-2,8.425265E-1,8.1762296E-1,1.2545044E0,1.0485115E0,7.230937E-2,-2.5036981E-2,-7.3392786E-2,-2.2356776E-3,-6.0703892E-2,-6.1805423E-2,2.9724255E-2,-8.03392E-2,-7.104402E-3,-3.385335E-2,1.737591E-2,-6.742885E-2,4.3786608E-2,7.2306134E-2,-4.8037704E-2,-1.973675E-2,3.626282E-2,4.3248024E-2,-7.0963986E-2,4.834178E-2,-6.978324E-2,1.50387585E-2,6.3221864E-2,7.0296E-2,-6.709612E-2],"categories":[],"categories_nodes":[],"categories_segments":[],"categories_sizes":[],"default_left":[0,0,0,0,0,0,0,0,0,0,0,0,0,0,0,0,0,0,0,0,0,0,0,0,0,0,0,0,0,0,0,0,0,0,0,0,0,0,0,0,0,0,0,0,0,0,0,0,0,0,0,0,0],"id":8,"left_children":[1,3,5,7,9,11,13,15,17,19,21,-1,23,25,27,29,31,33,35,37,39,41,43,-1,45,47,49,51,-1,-1,-1,-1,-1,-1,-1,-1,-1,-1,-1,-1,-1,-1,-1,-1,-1,-1,-1,-1,-1,-1,-1,-1,-1],"loss_changes":[4.6202036E3,1.1163757E3,9.08562E1,1.3158789E2,1.1951591E2,2.8191849E1,1.0262695E1,3.573828E1,6.982539E1,5.8256912E1,5.8524426E1,0E0,1.9263428E1,3.4189148E0,5.983887E-1,8.120605E0,5.1542297E1,3.029773E1,5.019451E1,6.7263885E1,1.3656235E1,2.0287773E1,3.0687738E1,0E0,1.570018E1,1.0649467E1,2.3876648E0,1.6557648E1,0E0,0E0,0E0,0E0,0E0,0E0,0E0,0E0,0E0,0E0,0E0,0E0,0E0,0E0,0E0,0E0,0E0,0E0,0E0,0E0,0E0,0E0,0E0,0E0,0E0],"parents":[2147483647,0,0,1,1,2,2,3,3,4,4,5,5,6,6,7,7,8,8,9,9,10,10,12,12,13,13,14,14,15,15,16,16,17,17,18,18,19,19,20,20,21,21,22,22,24,24,25,25,26,26,27,27],"right_children":[2,4,6,8,10,12,14,16,18,20,22,-1,24,26,28,30,32,34,36,38,40,42,44,-1,46,48,50,52,-1,-1,-1,-1,-1,-1,-1,-1,-1,-1,-1,-1,-1,-1,-1,-1,-1,-1,-1,-1,-1,-1,-1,-1,-1],"split_conditions":[6.1E0,5.7E1,6.4E0,1.014E2,5.8E1,3.5E1,6.8E0,8.46E1,5.5E0,3.32E1,1.011E2,-7.594765E-2,4.5E1,4.6E1,3.2E1,4.5E0,9.8E1,7.7E1,8.7E1,5.5E0,1.01E2,8.4E1,5.8E0,-7.866313E-2,7E1,1.19E2,4E1,1.15E2,7.230937E-2,-2.5036981E-2,-7.3392786E-2,-2.2356776E-3,-6.0703892E-2,-6.1805423E-2,2.9724255E-2,-8.03392E-2,-7.104402E-3,-3.385335E-2,1.737591E-2,-6.742885E-2,4.3786608E-2,7.2306134E-2,-4.8037704E-2,-1.973675E-2,3.626282E-2,4.3248024E-2,-7.0963986E-2,4.834178E-2,-6.978324E-2,1.50387585E-2,6.3221864E-2,7.0296E-2,-6.709612E-2],"split_indices":[5,0,5,3,7,0,5,3,5,2,3,0,10,0,0,11,4,7,8,5,6,6,5,0,10,6,10,4,0,0,0,0,0,0,0,0,0,0,0,0,0,0,0,0,0,0,0,0,0,0,0,0,0],"split_type":[0,0,0,0,0,0,0,0,0,0,0,0,0,0,0,0,0,0,0,0,0,0,0,0,0,0,0,0,0,0,0,0,0,0,0,0,0,0,0,0,0,0,0,0,0,0,0,0,0,0,0,0,0],"sum_hessian":[4.624591E3,2.8912803E3,1.7333105E3,1.9995597E3,8.9172046E2,2.9105682E2,1.4422537E3,1.5893319E3,4.1022787E2,6.640454E2,2.2767503E2,4.377776E0,2.8667905E2,3.1835242E2,1.1239012E3,8.7445526E2,7.148766E2,1.8153229E2,2.286956E2,4.7874075E2,1.8530464E2,1.3118509E2,9.6489944E1,2.4559655E0,2.8422308E2,2.7160706E1,2.911917E2,1.617191E1,1.1077294E3,1.0090639E1,8.643646E2,4.0002277E1,6.748743E2,1.7256177E2,8.970515E0,2.5482044E1,2.0321356E2,7.517867E1,4.0356207E2,1.9502906E0,1.8335435E2,2.7461724E0,1.2843892E2,5.2037273E1,4.4452667E1,2.8204318E2,2.1798885E0,2.5972866E1,1.1878386E0,3.3238223E0,2.878679E2,1.4426735E1,1.7451735E0],"tree_param":{"num_deleted":"0","num_feature":"12","num_nodes":"53","size_leaf_vector":"1"}},{"base_weights":[-2.942183E-4,-7.458457E-1,1.2517798E0,-1.207076E0,4.29677E-2,7.4290746E-1,1.355419E0,-1.3124275E0,-7.5206983E-1,-6.3271344E-1,2.3177885E-1,-7.3358916E-2,7.816738E-1,1.1801962E0,1.4042752E0,-1.4154314E0,-1.1731026E0,-1.2003622E0,-3.6921763E-1,1.9661757E-1,-9.409936E-1,4.0896335E-1,-3.853864E-1,-7.55701E-2,8.070302E-1,9.941752E-1,1.2615163E0,1.0136777E0,7.0453726E-2,-7.133003E-2,-2.009103E-2,-2.5301931E-2,-6.561782E-2,-6.564585E-2,3.1075794E-2,2.1223474E-2,-4.0236842E-2,-7.462634E-2,3.878469E-2,-5.7433482E-2,6.7717694E-3,1.70346E-2,7.316639E-2,-3.8255695E-2,1.0677397E-2,4.1440856E-2,-6.857305E-2,2.8232241E-2,5.4451663E-2,6.426569E-2,-4.221096E-3,6.8321444E-2,-6.486134E-2],"categories":[],"categories_nodes":[],"categories_segments":[],"categories_sizes":[],"default_left":[0,0,0,0,0,0,0,0,0,0,0,0,0,0,0,0,0,0,0,0,0,0,0,0,0,0,0,0,0,0,0,0,0,0,0,0,0,0,0,0,0,0,0,0,0,0,0,0,0,0,0,0,0],"id":9,"left_children":[1,3,5,7,9,11,13,15,17,19,21,-1,23,25,27,29,31,33,35,37,39,41,43,-1,45,47,49,51,-1,-1,-1,-1,-1,-1,-1,-1,-1,-1,-1,-1,-1,-1,-1,-1,-1,-1,-1,-1,-1,-1,-1,-1,-1],"loss_changes":[4.249901E3,1.0382472E3,8.860547E1,8.53313E1,1.3459245E2,2.5968948E1,1.0416992E1,1.9303955E1,5.806369E1,5.9099686E1,9.030881E1,0E0,1.7812714E1,3.4926147E0,6.2939453E-1,8.880371E0,5.75578E1,3.2924667E1,6.43967E1,6.3047554E1,3.7748184E1,4.5643013E1,4.2102936E1,0E0,1.4564148E1,3.4663315E0,6.9827576E0,1.55384865E1,0E0,0E0,0E0,0E0,0E0,0E0,0E0,0E0,0E0,0E0,0E0,0E0,0E0,0E0,0E0,0E0,0E0,0E0,0E0,0E0,0E0,0E0,0E0,0E0,0E0],"parents":[2147483647,0,0,1,1,2,2,3,3,4,4,5,5,6,6,7,7,8,8,9,9,10,10,12,12,13,13,14,14,15,15,16,16,17,17,18,18,19,19,20,20,21,21,22,22,24,24,25,25,26,26,27,27],"right_children":[2,4,6,8,10,12,14,16,18,20,22,-1,24,26,28,30,32,34,36,38,40,42,44,-1,46,48,50,52,-1,-1,-1,-1,-1,-1,-1,-1,-1,-1,-1,-1,-1,-1,-1,-1,-1,-1,-1,-1,-1,-1,-1,-1,-1],"split_conditions":[6.1E0,5.1E1,6.4E0,1.014E2,5.5E0,3.5E1,6.8E0,8.46E1,5.5E0,5E1,5.8E1,-7.3358916E-2,4.5E1,4.5E1,3.2E1,4.8E1,1.04666664E2,7.7E1,1.13333336E2,9.22E1,1.16E2,1.24E2,1.027E2,-7.55701E-2,7E1,4.8E1,7E1,1.15E2,7.0453726E-2,-7.133003E-2,-2.009103E-2,-2.5301931E-2,-6.561782E-2,-6.564585E-2,3.1075794E-2,2.1223474E-2,-4.0236842E-2,-7.462634E-2,3.878469E-2,-5.7433482E-2,6.7717694E-3,1.70346E-2,7.316639E-2,-3.8255695E-2,1.0677397E-2,4.1440856E-2,-6.857305E-2,2.8232241E-2,5.4451663E-2,6.426569E-2,-4.221096E-3,6.8321444E-2,-6.486134E-2],"split_indices":[5,0,5,3,5,0,5,3,5,9,7,0,10,7,0,0,4,7,4,3,3,6,3,0,10,0,10,4,0,0,0,0,0,0,0,0,0,0,0,0,0,0,0,0,0,0,0,0,0,0,0,0,0],"split_type":[0,0,0,0,0,0,0,0,0,0,0,0,0,0,0,0,0,0,0,0,0,0,0,0,0,0,0,0,0,0,0,0,0,0,0,0,0,0,0,0,0,0,0,0,0,0,0,0,0,0,0,0,0],"sum_hessian":[4.5507227E3,2.8525608E3,1.6981621E3,1.799713E3,1.0528477E3,2.887175E2,1.4094446E3,1.4598229E3,3.3989017E2,2.294358E2,8.234119E2,4.341819E0,2.843757E2,3.127875E2,1.0966571E3,8.340466E2,6.257763E2,1.5558086E2,1.843093E2,6.2272747E1,1.6716306E2,6.40007E2,1.834049E2,2.469215E0,2.8190646E2,9.916711E1,2.1362038E2,1.5887087E1,1.08077E3,8.245532E2,9.493346E0,1.08873856E2,5.1690247E2,1.467915E2,8.78935E0,6.5311485E1,1.1899782E2,1.5495502E1,4.6777245E1,1.4007181E2,2.7091246E1,6.023286E2,3.7678387E1,1.1207275E2,7.133216E1,2.797285E2,2.1779945E0,1.9196266E1,7.997084E1,2.0995326E2,3.6671274E0,1.4137719E1,1.7493672E0],"tree_param":{"num_deleted":"0","num_feature":"12","num_nodes":"53","size_leaf_vector":"1"}},{"base_weights":[-3.443403E-4,-7.1909547E-1,1.2160478E0,-1.1707746E0,4.089824E-2,7.1139413E-1,1.3204801E0,-1.2761409E0,-7.216815E-1,-6.067191E-1,2.2083086E-1,-7.099583E-2,7.487755E-1,1.1432254E0,1.3702993E0,-1.3506812E0,-1.0811596E0,-1.1604575E0,-3.520571E-1,1.8637891E-1,-9.039827E-1,3.8954476E-1,-3.6764464E-1,-7.275528E-2,7.734116E-1,9.5975924E-1,1.2238852E0,9.8152524E-1,6.875583E-2,-6.878599E-2,-2.524404E-2,-5.5071454E-2,6.729776E-2,-6.356343E-2,2.9490827E-2,2.0109462E-2,-3.8505018E-2,-7.256486E-2,3.674106E-2,-5.528493E-2,6.447173E-3,3.3607055E-2,6.684236E-3,-3.6574293E-2,1.0152614E-2,3.9728563E-2,-6.6363156E-2,2.5130635E-2,5.221442E-2,6.23732E-2,-4.0510143E-3,6.6505484E-2,-6.279003E-2],"categories":[],"categories_nodes":[],"categories_segments":[],"categories_sizes":[],"default_left":[0,0,0,0,0,0,0,0,0,0,0,0,0,0,0,0,0,0,0,0,0,0,0,0,0,0,0,0,0,0,0,0,0,0,0,0,0,0,0,0,0,0,0,0,0,0,0,0,0,0,0,0,0],"id":10,"left_children":[1,3,5,7,9,11,13,15,17,19,21,-1,23,25,27,29,31,33,35,37,39,41,43,-1,45,47,49,51,-1,-1,-1,-1,-1,-1,-1,-1,-1,-1,-1,-1,-1,-1,-1,-1,-1,-1,-1,-1,-1,-1,-1,-1,-1],"loss_changes":[3.91373E3,9.659634E2,8.668652E1,8.2595215E1,1.2247497E2,2.3948257E1,1.0588379E1,1.9297852E1,5.436084E1,5.4049454E1,8.178914E1,0E0,1.6488052E1,3.383484E0,6.5283203E-1,2.1101929E1,2.1161743E1,3.061264E1,5.855667E1,5.777356E1,3.481456E1,4.6156532E1,3.830223E1,0E0,1.35215E1,3.2889938E0,6.572174E0,1.460283E1,0E0,0E0,0E0,0E0,0E0,0E0,0E0,0E0,0E0,0E0,0E0,0E0,0E0,0E0,0E0,0E0,0E0,0E0,0E0,0E0,0E0,0E0,0E0,0E0,0E0],"parents":[2147483647,0,0,1,1,2,2,3,3,4,4,5,5,6,6,7,7,8,8,9,9,10,10,12,12,13,13,14,14,15,15,16,16,17,17,18,18,19,19,20,20,21,21,22,22,24,24,25,25,26,26,27,27],"right_children":[2,4,6,8,10,12,14,16,18,20,22,-1,24,26,28,30,32,34,36,38,40,42,44,-1,46,48,50,52,-1,-1,-1,-1,-1,-1,-1,-1,-1,-1,-1,-1,-1,-1,-1,-1,-1,-1,-1,-1,-1,-1,-1,-1,-1],"split_conditions":[6.1E0,5.1E1,6.4E0,1.014E2,5.5E0,3.5E1,6.8E0,3.2E1,5.5E0,5E1,5.8E1,-7.099583E-2,4.5E1,4.5E1,3.2E1,5.7E0,1.25E1,7.7E1,1.13333336E2,9.22E1,1.16E2,5.6E0,1.027E2,-7.275528E-2,7E1,4.6E1,7E1,1.15E2,6.875583E-2,-6.878599E-2,-2.524404E-2,-5.5071454E-2,6.729776E-2,-6.356343E-2,2.9490827E-2,2.0109462E-2,-3.8505018E-2,-7.256486E-2,3.674106E-2,-5.528493E-2,6.447173E-3,3.3607055E-2,6.684236E-3,-3.6574293E-2,1.0152614E-2,3.9728563E-2,-6.6363156E-2,2.5130635E-2,5.221442E-2,6.23732E-2,-4.0510143E-3,6.6505484E-2,-6.279003E-2],"split_indices":[5,0,5,3,5,0,5,0,5,9,7,0,10,7,0,5,11,7,4,3,3,5,3,0,10,0,10,4,0,0,0,0,0,0,0,0,0,0,0,0,0,0,0,0,0,0,0,0,0,0,0,0,0],"split_type":[0,0,0,0,0,0,0,0,0,0,0,0,0,0,0,0,0,0,0,0,0,0,0,0,0,0,0,0,0,0,0,0,0,0,0,0,0,0,0,0,0,0,0,0,0,0,0,0,0,0,0,0,0],"sum_hessian":[4.474501E3,2.8128384E3,1.6616627E3,1.7639487E3,1.0488896E3,2.8624393E2,1.3754188E3,1.4272461E3,3.3670258E2,2.2754237E2,8.213473E2,4.2964315E0,2.8194748E2,3.0701605E2,1.0684027E3,1.0282317E3,3.9901447E2,1.5297203E2,1.8373055E2,6.2136227E1,1.6540614E2,6.386007E2,1.8274658E2,2.4750175E0,2.7947247E2,9.769679E1,2.0931926E2,1.5582297E1,1.0528204E3,9.980593E2,3.0172356E1,3.9625146E2,2.7630038E0,1.4412129E2,8.850752E0,6.5532585E1,1.1819795E2,1.5175426E1,4.69608E1,1.3832314E2,2.7083006E1,3.0267285E2,3.359279E2,1.1142629E2,7.132029E1,2.7730103E2,2.171445E0,1.632964E1,8.136715E1,2.0564737E2,3.671891E0,1.3832613E1,1.749685E0],"tree_param":{"num_deleted":"0","num_feature":"12","num_nodes":"53","size_leaf_vector":"1"}},{"base_weights":[-3.7998974E-4,-7.827297E-1,1.0506103E0,-1.1003375E0,1.4357424E-1,4.542143E-1,1.2881461E0,-1.2550828E0,-6.6684514E-1,-8.238219E-2,2.214325E-1,7.766434E-2,6.4344925E-1,1.1084787E0,1.3390715E0,-1.270026E0,2.4740136E-1,-1.3600568E0,-4.9498123E-1,3.9228994E-1,-3.191008E-1,4.156475E-1,-7.6335734E-1,-5.034351E-1,7.132028E-1,9.2708397E-1,1.1887275E0,9.5171E-1,1.3439097E0,-6.410265E-2,-2.351123E-2,3.9304253E-2,-6.1407592E-2,9.885452E-3,-7.315375E-2,-4.7677718E-2,-1.0150306E-2,1.4642137E-2,6.59026E-2,-2.5911942E-2,1.81457E-2,2.6137406E-2,-9.047208E-2,-8.1953615E-2,-1.5125769E-2,-7.921269E-2,2.7978528E-2,3.643754E-2,-7.455521E-2,5.8784198E-2,3.7654843E-2,6.0606968E-2,-3.8879344E-3,6.4827755E-2,-6.0864497E-2,6.731934E-2,4.290728E-2],"categories":[],"categories_nodes":[],"categories_segments":[],"categories_sizes":[],"default_left":[0,0,0,0,0,0,0,0,0,0,0,0,0,0,0,0,0,0,0,0,0,0,0,0,0,0,0,0,0,0,0,0,0,0,0,0,0,0,0,0,0,0,0,0,0,0,0,0,0,0,0,0,0,0,0,0,0],"id":11,"left_children":[1,3,5,7,9,11,13,15,17,-1,19,21,23,25,27,29,31,33,35,37,39,41,43,45,47,49,51,53,55,-1,-1,-1,-1,-1,-1,-1,-1,-1,-1,-1,-1,-1,-1,-1,-1,-1,-1,-1,-1,-1,-1,-1,-1,-1,-1,-1,-1],"loss_changes":[3.61576E3,7.4181006E2,2.6525586E2,1.2509766E2,9.02539E1,3.81474E1,1.0789795E1,3.135083E1,5.8419495E1,0E0,5.7253407E1,5.1604362E1,2.88889E1,3.2950745E0,6.7077637E-1,1.2564697E1,1.2451045E1,1.6011017E1,5.323381E1,4.2926674E1,2.0440506E1,3.1771788E1,2.0520147E1,2.5051302E1,1.2622589E1,3.3184052E0,6.1987E0,1.374138E1,7.800293E-2,0E0,0E0,0E0,0E0,0E0,0E0,0E0,0E0,0E0,0E0,0E0,0E0,0E0,0E0,0E0,0E0,0E0,0E0,0E0,0E0,0E0,0E0,0E0,0E0,0E0,0E0,0E0,0E0],"parents":[2147483647,0,0,1,1,2,2,3,3,4,4,5,5,6,6,7,7,8,8,10,10,11,11,12,12,13,13,14,14,15,15,16,16,17,17,18,18,19,19,20,20,21,21,22,22,23,23,24,24,25,25,26,26,27,27,28,28],"right_children":[2,4,6,8,10,12,14,16,18,-1,20,22,24,26,28,30,32,34,36,38,40,42,44,46,48,50,52,54,56,-1,-1,-1,-1,-1,-1,-1,-1,-1,-1,-1,-1,-1,-1,-1,-1,-1,-1,-1,-1,-1,-1,-1,-1,-1,-1,-1,-1],"split_conditions":[5.9E0,6E1,6.4E0,3.9E1,8.22E1,6E1,6.8E0,1.2E1,8.9E1,-8.238219E-2,5.8E1,1.25E2,8.74E1,4.5E1,3.2E1,8.6E1,2E0,4.5E0,5.5E0,1.14E2,5.8E0,1.56E2,1.036E2,8E1,1.8666667E2,3.6E1,7E1,1.15E2,8E1,-6.410265E-2,-2.351123E-2,3.9304253E-2,-6.1407592E-2,9.885452E-3,-7.315375E-2,-4.7677718E-2,-1.0150306E-2,1.4642137E-2,6.59026E-2,-2.5911942E-2,1.81457E-2,2.6137406E-2,-9.047208E-2,-8.1953615E-2,-1.5125769E-2,-7.921269E-2,2.7978528E-2,3.643754E-2,-7.455521E-2,5.8784198E-2,3.7654843E-2,6.0606968E-2,-3.8879344E-3,6.4827755E-2,-6.0864497E-2,6.731934E-2,4.290728E-2],"split_indices":[5,0,5,0,3,0,5,11,3,0,7,4,3,7,0,7,1,11,5,6,5,8,3,0,4,7,10,4,7,0,0,0,0,0,0,0,0,0,0,0,0,0,0,0,0,0,0,0,0,0,0,0,0,0,0,0,0],"split_type":[0,0,0,0,0,0,0,0,0,0,0,0,0,0,0,0,0,0,0,0,0,0,0,0,0,0,0,0,0,0,0,0,0,0,0,0,0,0,0,0,0,0,0,0,0,0,0,0,0,0,0,0,0,0,0,0,0],"sum_hessian":[4.3954404E3,2.5199001E3,1.8755403E3,1.8763545E3,6.4354565E2,5.3505524E2,1.340485E3,1.3813525E3,4.9500195E2,2.5967676E1,6.1757794E2,1.7942871E2,3.5562656E2,3.01068E2,1.039417E3,1.3679026E3,1.3449923E1,9.6968155E1,3.980338E2,4.694603E2,1.4811768E2,1.28353E2,5.107571E1,2.0032684E1,3.3559387E2,9.619071E1,2.0487729E2,1.5261499E1,1.0241555E3,1.3470435E3,2.0859137E1,1.0195198E1,3.2547243E0,5.9579043E0,9.1010254E1,1.5395998E2,2.4407384E2,4.251104E2,4.4349876E1,1.1482937E2,3.3288307E1,1.2318861E2,5.164393E0,1.6729256E1,3.4346455E1,9.689977E0,1.0342708E1,3.3390805E2,1.6858176E0,3.723315E1,5.895756E1,2.0120085E2,3.6764405E0,1.3515008E1,1.7464912E0,1.017197E3,6.958523E0],"tree_param":{"num_deleted":"0","num_feature":"12","num_nodes":"57","size_leaf_vector":"1"}},{"base_weights":[-4.3222078E-4,-6.7116106E-1,1.1525617E0,-1.1060529E0,3.5975188E-2,7.40685E-1,1.2804097E0,-1.212758E0,-6.621528E-1,-1.3849578E0,1.06965646E-1,-5.7744008E-2,7.566774E-1,1.1231666E0,1.31027E0,-1.3214412E0,-1.067933E0,-1.2162883E0,-3.8167125E-1,4.255209E-2,-7.70125E-2,-4.7834262E-1,2.593434E-1,-5.360445E-1,7.7700704E-1,8.561757E-1,1.221768E0,9.239421E-1,1.3151324E0,-1.4334378E-2,-6.665288E-2,6.814379E-3,-5.7472438E-2,6.1793853E-2,-6.476144E-2,1.7093848E-2,-3.9118733E-2,6.379368E-2,-6.383854E-2,1.584094E-2,-3.9413884E-2,9.690061E-3,6.842327E-2,-8.141168E-2,5.1421314E-2,3.634584E-2,6.35273E-2,5.113699E-2,1.0851661E-2,6.1954547E-2,1.236894E-2,6.327109E-2,-5.9069335E-2,6.588059E-2,4.1706778E-2],"categories":[],"categories_nodes":[],"categories_segments":[],"categories_sizes":[],"default_left":[0,0,0,0,0,0,0,0,0,0,0,0,0,0,0,0,0,0,0,0,0,0,0,0,0,0,0,0,0,0,0,0,0,0,0,0,0,0,0,0,0,0,0,0,0,0,0,0,0,0,0,0,0,0,0],"id":12,"left_children":[1,3,5,7,9,11,13,15,17,19,21,-1,23,25,27,29,31,33,35,37,-1,39,41,43,45,47,49,51,53,-1,-1,-1,-1,-1,-1,-1,-1,-1,-1,-1,-1,-1,-1,-1,-1,-1,-1,-1,-1,-1,-1,-1,-1,-1,-1],"loss_changes":[3.3380918E3,8.392615E2,8.264502E1,7.923535E1,1.0507218E2,1.2345322E1,4.209961E0,2.001233E1,5.077507E1,1.1053375E1,8.856258E1,0E0,1.0294067E1,4.222336E0,6.8408203E-1,8.913696E0,5.794873E1,2.2958313E1,6.415028E1,1.1125268E1,0E0,5.0815445E1,5.6975674E1,1.2628891E1,8.234222E0,5.879753E0,2.1208038E0,1.2946156E1,8.874512E-2,0E0,0E0,0E0,0E0,0E0,0E0,0E0,0E0,0E0,0E0,0E0,0E0,0E0,0E0,0E0,0E0,0E0,0E0,0E0,0E0,0E0,0E0,0E0,0E0,0E0,0E0],"parents":[2147483647,0,0,1,1,2,2,3,3,4,4,5,5,6,6,7,7,8,8,9,9,10,10,12,12,13,13,14,14,15,15,16,16,17,17,18,18,19,19,21,21,22,22,23,23,24,24,25,25,26,26,27,27,28,28],"right_children":[2,4,6,8,10,12,14,16,18,20,22,-1,24,26,28,30,32,34,36,38,-1,40,42,44,46,48,50,52,54,-1,-1,-1,-1,-1,-1,-1,-1,-1,-1,-1,-1,-1,-1,-1,-1,-1,-1,-1,-1,-1,-1,-1,-1,-1,-1],"split_conditions":[6.1E0,5.1E1,6.5E0,1.014E2,8.22E1,2.9E1,6.8E0,8.46E1,5.4E0,4.5E0,5.5E0,-5.7744008E-2,4.5E1,6E1,3.2E1,4.5E0,9.8E1,4.2E0,1.13333336E2,4.6E1,-7.70125E-2,5E1,1.25E2,1.75E2,1.26E2,1.2866667E2,1.399E2,1.15E2,8E1,-1.4334378E-2,-6.665288E-2,6.814379E-3,-5.7472438E-2,6.1793853E-2,-6.476144E-2,1.7093848E-2,-3.9118733E-2,6.379368E-2,-6.383854E-2,1.584094E-2,-3.9413884E-2,9.690061E-3,6.842327E-2,-8.141168E-2,5.1421314E-2,3.634584E-2,6.35273E-2,5.113699E-2,1.0851661E-2,6.1954547E-2,1.236894E-2,6.327109E-2,-5.9069335E-2,6.588059E-2,4.1706778E-2],"split_indices":[5,0,5,3,3,0,5,3,5,11,5,0,10,0,0,11,4,5,4,7,0,9,6,8,6,4,3,4,7,0,0,0,0,0,0,0,0,0,0,0,0,0,0,0,0,0,0,0,0,0,0,0,0,0,0],"split_type":[0,0,0,0,0,0,0,0,0,0,0,0,0,0,0,0,0,0,0,0,0,0,0,0,0,0,0,0,0,0,0,0,0,0,0,0,0,0,0,0,0,0,0,0,0,0,0,0,0,0,0,0,0,0,0],"sum_hessian":[4.3144253E3,2.72793E3,1.5864954E3,1.6887668E3,1.0391631E3,3.7741254E2,1.2090829E3,1.3600942E3,3.2867258E2,4.8565964E1,9.905971E2,2.5617044E0,3.7485083E2,1.9912274E2,1.00996014E3,7.72358E2,5.877363E2,1.0933253E2,2.1934006E2,4.836139E0,4.3729824E1,2.0417764E2,7.8641943E2,5.4109473E0,3.6943988E2,5.6315643E1,1.428071E2,1.4928187E1,9.950319E2,8.859514E0,7.634984E2,3.7219933E1,5.505164E2,2.9527826E0,1.06379745E2,7.822905E1,1.4111101E2,2.5165582E0,2.3195808E0,5.7257378E1,1.4692027E2,7.436492E2,4.2770287E1,3.1624322E0,2.2485154E0,3.3764456E2,3.1795328E1,4.4197384E1,1.2118257E1,1.4004568E2,2.7614202E0,1.3188058E1,1.7401303E0,9.8819904E2,6.832882E0],"tree_param":{"num_deleted":"0","num_feature":"12","num_nodes":"55","size_leaf_vector":"1"}},{"base_weights":[-4.119783E-4,-6.4792454E-1,1.1228997E0,-1.0237197E0,1.3072622E-1,7.1155536E-1,1.2528924E0,-1.1534841E0,-5.5171573E-1,3.0665866E-1,-3.8659152E-1,-5.6292977E-2,7.2705185E-1,1.0925825E0,1.2835858E0,-1.2974896E0,-9.8174983E-1,-9.633401E-1,-2.4151142E-1,1.333296E-1,7.5251794E-1,-7.643456E-1,1.1709684E-1,4.6559805E-1,8.299819E-1,8.273747E-1,1.1915382E0,8.9797354E-1,1.2884752E0,-1.7884113E-2,-6.543767E-2,4.3692566E-3,-5.242395E-2,-2.4405712E-2,-6.757123E-2,-7.572441E-2,-3.9825863E-3,1.8688222E-2,-1.5587436E-2,4.938307E-2,2.0270549E-2,7.679439E-2,-4.1324537E-2,-1.9740384E-2,3.04848E-2,2.6175348E-2,-7.161381E-2,5.977813E-2,3.699149E-2,4.95616E-2,1.0389052E-2,6.044147E-2,1.1960222E-2,6.1820786E-2,-5.7391148E-2,6.454835E-2,4.0550094E-2],"categories":[],"categories_nodes":[],"categories_segments":[],"categories_sizes":[],"default_left":[0,0,0,0,0,0,0,0,0,0,0,0,0,0,0,0,0,0,0,0,0,0,0,0,0,0,0,0,0,0,0,0,0,0,0,0,0,0,0,0,0,0,0,0,0,0,0,0,0,0,0,0,0,0,0,0,0],"id":13,"left_children":[1,3,5,7,9,11,13,15,17,19,21,-1,23,25,27,29,31,33,35,37,39,41,43,45,47,49,51,53,55,-1,-1,-1,-1,-1,-1,-1,-1,-1,-1,-1,-1,-1,-1,-1,-1,-1,-1,-1,-1,-1,-1,-1,-1,-1,-1,-1,-1],"loss_changes":[3.0817378E3,7.8657434E2,8.194934E1,1.1040112E2,7.982488E1,1.1477295E1,4.383667E0,3.3869385E1,4.9928505E1,5.0446785E1,4.2461605E1,0E0,9.619675E0,4.1496124E0,6.9299316E-1,7.680786E0,4.6623108E1,3.0414368E1,4.631212E1,5.064724E1,1.4526199E1,1.9479355E1,2.4525537E1,1.254327E1,7.866104E0,5.5246964E0,2.0201416E0,1.2210294E1,1.03027344E-1,0E0,0E0,0E0,0E0,0E0,0E0,0E0,0E0,0E0,0E0,0E0,0E0,0E0,0E0,0E0,0E0,0E0,0E0,0E0,0E0,0E0,0E0,0E0,0E0,0E0,0E0,0E0,0E0],"parents":[2147483647,0,0,1,1,2,2,3,3,4,4,5,5,6,6,7,7,8,8,9,9,10,10,12,12,13,13,14,14,15,15,16,16,17,17,18,18,19,19,20,20,21,21,22,22,23,23,24,24,25,25,26,26,27,27,28,28],"right_children":[2,4,6,8,10,12,14,16,18,20,22,-1,24,26,28,30,32,34,36,38,40,42,44,46,48,50,52,54,56,-1,-1,-1,-1,-1,-1,-1,-1,-1,-1,-1,-1,-1,-1,-1,-1,-1,-1,-1,-1,-1,-1,-1,-1,-1,-1,-1,-1],"split_conditions":[6.1E0,5.7E1,6.5E0,1.014E2,5.8E1,2.9E1,6.8E0,8.46E1,5.5E0,3.32E1,1.011E2,-5.6292977E-2,6.2E0,6E1,3.2E1,4.5E0,9.8E1,3.28E1,8.7E1,9.7E1,5.7E0,8.4E1,8E0,7.5E1,1.13333336E2,1.2866667E2,1.399E2,1.15E2,8E1,-1.7884113E-2,-6.543767E-2,4.3692566E-3,-5.242395E-2,-2.4405712E-2,-6.757123E-2,-7.572441E-2,-3.9825863E-3,1.8688222E-2,-1.5587436E-2,4.938307E-2,2.0270549E-2,7.679439E-2,-4.1324537E-2,-1.9740384E-2,3.04848E-2,2.6175348E-2,-7.161381E-2,5.977813E-2,3.699149E-2,4.95616E-2,1.0389052E-2,6.044147E-2,1.1960222E-2,6.1820786E-2,-5.7391148E-2,6.454835E-2,4.0550094E-2],"split_indices":[5,0,5,3,7,0,5,3,5,2,3,0,5,0,0,11,4,2,8,3,5,6,11,7,4,4,3,4,7,0,0,0,0,0,0,0,0,0,0,0,0,0,0,0,0,0,0,0,0,0,0,0,0,0,0,0,0],"split_type":[0,0,0,0,0,0,0,0,0,0,0,0,0,0,0,0,0,0,0,0,0,0,0,0,0,0,0,0,0,0,0,0,0,0,0,0,0,0,0,0,0,0,0,0,0,0,0,0,0,0,0,0,0,0,0,0,0],"sum_hessian":[4.23489E3,2.6866455E3,1.5482448E3,1.8118766E3,8.74769E2,3.7333896E2,1.1749059E3,1.4200338E3,3.9184274E2,6.530747E2,2.2169423E2,2.5231016E0,3.7081586E2,1.9468285E2,9.80223E2,7.688062E2,6.5122766E2,1.6748872E2,2.24354E2,4.7119528E2,1.8187944E2,1.2638845E2,9.530578E1,1.0630719E2,2.6450867E2,5.544574E1,1.392371E2,1.4585439E1,9.656376E2,9.4930105E0,7.593132E2,3.8239784E1,6.129879E2,7.6306244E1,9.118248E1,2.4366014E1,1.9998799E2,3.060337E2,1.6516159E2,1.07326775E2,7.4552666E1,2.700957E0,1.2368749E2,4.6834408E1,4.8471367E1,1.0386226E2,2.4449353E0,4.9899025E1,2.1460963E2,4.3375004E1,1.2070735E1,1.3648958E2,2.7475276E0,1.285451E1,1.7309284E0,9.5892944E2,6.708122E0],"tree_param":{"num_deleted":"0","num_feature":"12","num_nodes":"57","size_leaf_vector":"1"}},{"base_weights":[-3.8679747E-4,-7.095993E-1,9.660562E-1,-1.0131176E0,1.2902282E-1,4.0396076E-1,1.2044073E0,-1.1715047E0,-5.8921355E-1,-7.728682E-2,1.9935107E-1,5.9618898E-2,5.783021E-1,1.0183505E0,1.2587698E0,-1.1872963E0,3.1756234E-1,-1.2798669E0,-4.256702E-1,1.2738544E-1,1.2473412E0,3.809375E-1,-7.412829E-1,-5.0630724E-1,6.4447844E-1,6.132677E-1,1.0553944E0,8.735934E-1,1.2636887E0,1.873395E-2,-5.9694733E-2,-5.8905866E-2,4.0780146E-2,1.1647509E-2,-6.931149E-2,-4.2943407E-2,-7.841539E-3,1.4316616E-2,-1.8969841E-2,1.7071007E-2,7.209161E-2,2.4180083E-2,-8.620577E-2,-7.939055E-2,-1.5235173E-2,-7.6530024E-2,2.459866E-2,3.3462487E-2,-3.6409732E-2,3.8388204E-2,-7.30263E-2,5.2896226E-3,5.331372E-2,6.04643E-2,-5.581819E-2,6.331012E-2,3.9433613E-2],"categories":[],"categories_nodes":[],"categories_segments":[],"categories_sizes":[],"default_left":[0,0,0,0,0,0,0,0,0,0,0,0,0,0,0,0,0,0,0,0,0,0,0,0,0,0,0,0,0,0,0,0,0,0,0,0,0,0,0,0,0,0,0,0,0,0,0,0,0,0,0,0,0,0,0,0,0],"id":14,"left_children":[1,3,5,7,9,11,13,15,17,-1,19,21,23,25,27,29,31,33,35,37,39,41,43,45,47,49,51,53,55,-1,-1,-1,-1,-1,-1,-1,-1,-1,-1,-1,-1,-1,-1,-1,-1,-1,-1,-1,-1,-1,-1,-1,-1,-1,-1,-1,-1],"loss_changes":[2.8488552E3,6.1031384E2,2.3520105E2,1.1749707E2,7.5446365E1,3.150322E1,1.1207886E1,3.0486816E1,5.3764984E1,0E0,4.608179E1,4.6010868E1,2.5350525E1,3.6212158E0,6.986084E-1,1.3508179E1,1.1557815E1,1.5055511E1,4.5315636E1,4.6412136E1,6.4292374E0,2.838311E1,1.844494E1,2.1826416E1,1.1675537E1,9.522075E0,2.5654907E0,1.1527839E1,1.2023926E-1,0E0,0E0,0E0,0E0,0E0,0E0,0E0,0E0,0E0,0E0,0E0,0E0,0E0,0E0,0E0,0E0,0E0,0E0,0E0,0E0,0E0,0E0,0E0,0E0,0E0,0E0,0E0,0E0],"parents":[2147483647,0,0,1,1,2,2,3,3,4,4,5,5,6,6,7,7,8,8,10,10,11,11,12,12,13,13,14,14,15,15,16,16,17,17,18,18,19,19,20,20,21,21,22,22,23,23,24,24,25,25,26,26,27,27,28,28],"right_children":[2,4,6,8,10,12,14,16,18,-1,20,22,24,26,28,30,32,34,36,38,40,42,44,46,48,50,52,54,56,-1,-1,-1,-1,-1,-1,-1,-1,-1,-1,-1,-1,-1,-1,-1,-1,-1,-1,-1,-1,-1,-1,-1,-1,-1,-1,-1,-1],"split_conditions":[5.9E0,6E1,6.4E0,3.9E1,8.22E1,6E1,6.8E0,1.2E1,8.9E1,-7.728682E-2,1.22E2,1.25E2,8.74E1,4.6E1,3.2E1,8.1E1,8.63E1,4.5E0,5.5E0,5.8E1,8.7E1,1.56E2,1.036E2,8E1,2.26E2,1.19E2,4E1,1.15E2,8E1,1.873395E-2,-5.9694733E-2,-5.8905866E-2,4.0780146E-2,1.1647509E-2,-6.931149E-2,-4.2943407E-2,-7.841539E-3,1.4316616E-2,-1.8969841E-2,1.7071007E-2,7.209161E-2,2.4180083E-2,-8.620577E-2,-7.939055E-2,-1.5235173E-2,-7.6530024E-2,2.459866E-2,3.3462487E-2,-3.6409732E-2,3.8388204E-2,-7.30263E-2,5.2896226E-3,5.331372E-2,6.04643E-2,-5.581819E-2,6.331012E-2,3.9433613E-2],"split_indices":[5,0,5,0,3,0,5,11,3,0,6,4,3,0,0,6,3,11,5,7,8,8,3,0,8,6,10,4,7,0,0,0,0,0,0,0,0,0,0,0,0,0,0,0,0,0,0,0,0,0,0,0,0,0,0,0,0],"split_type":[0,0,0,0,0,0,0,0,0,0,0,0,0,0,0,0,0,0,0,0,0,0,0,0,0,0,0,0,0,0,0,0,0,0,0,0,0,0,0,0,0,0,0,0,0,0,0,0,0,0,0,0,0,0,0,0,0],"sum_hessian":[4.154404E3,2.3962273E3,1.7581766E3,1.7592888E3,6.369385E2,5.2433936E2,1.2338373E3,1.2794662E3,4.7982272E2,2.4823605E1,6.1211487E2,1.7669354E2,3.476458E2,2.8345117E2,9.503861E2,1.2662404E3,1.3225815E1,9.055936E1,3.8926337E2,5.7383136E2,3.828353E1,1.2647617E2,5.021737E1,1.9609041E1,3.2803677E2,2.5220057E1,2.582311E2,1.4235962E1,9.3615015E2,5.091834E0,1.2611484E3,2.9627604E0,1.0263054E1,5.870602E0,8.468875E1,1.4822476E2,2.410386E2,4.3715677E2,1.3667456E2,7.253388E0,3.1030144E1,1.2132918E2,5.147E0,1.6189322E1,3.402805E1,9.415233E0,1.0193808E1,3.227253E2,5.3114557E0,2.4057562E1,1.1624949E0,3.0466309E0,2.551845E2,1.251677E1,1.7191912E0,9.2956555E2,6.5846267E0],"tree_param":{"num_deleted":"0","num_feature":"12","num_nodes":"57","size_leaf_vector":"1"}},{"base_weights":[-4.4754974E-4,-6.0598576E-1,1.0693495E0,-1.0217191E0,3.2519206E-2,6.617359E-1,1.2031208E0,-1.1307161E0,-5.874109E-1,2.691359E-1,-3.302433E-1,5.310559E-1,8.9834046E-1,1.0364588E0,1.2356075E0,-1.2135409E0,-9.2087364E-1,1.6018353E0,-6.5643907E-1,-8.5727364E-2,3.2458523E-1,-7.1419775E-2,-1.996858E-1,1.0705035E0,3.480384E-1,-9.820349E-2,9.6453696E-1,7.683055E-1,1.1383213E0,8.5061985E-1,1.2405581E0,-6.2049158E-2,-1.673689E-2,6.105547E-2,-4.7188655E-2,1.00122906E-1,-4.091918E-2,-3.740875E-2,3.9201226E-2,8.359599E-3,3.6126535E-2,-5.6736983E-2,-2.8859435E-3,-4.967395E-2,5.7197656E-2,-8.9669004E-2,1.9133417E-2,7.005413E-3,5.1836323E-2,4.665439E-2,7.923797E-3,5.780483E-2,9.795811E-3,5.919081E-2,-5.4340143E-2,6.215511E-2,3.8354147E-2],"categories":[],"categories_nodes":[],"categories_segments":[],"categories_sizes":[],"default_left":[0,0,0,0,0,0,0,0,0,0,0,0,0,0,0,0,0,0,0,0,0,0,0,0,0,0,0,0,0,0,0,0,0,0,0,0,0,0,0,0,0,0,0,0,0,0,0,0,0,0,0,0,0,0,0,0,0],"id":15,"left_children":[1,3,5,7,9,11,13,15,17,19,21,23,25,27,29,31,33,35,37,-1,39,-1,41,43,45,-1,47,49,51,53,55,-1,-1,-1,-1,-1,-1,-1,-1,-1,-1,-1,-1,-1,-1,-1,-1,-1,-1,-1,-1,-1,-1,-1,-1,-1,-1],"loss_changes":[2.6391912E3,6.906013E2,7.949707E1,7.3924805E1,8.823056E1,1.0841736E1,4.715454E0,2.0754883E1,4.913582E1,6.8977264E1,5.789863E1,2.3151497E1,2.6300255E1,4.229553E0,7.01416E-1,2.126941E1,1.882492E1,1.1350855E1,4.144107E1,0E0,3.78333E1,0E0,4.8236477E1,1.0213898E1,1.3989517E1,0E0,7.3871384E0,5.3306236E0,2.0072174E0,1.0893615E1,1.3989258E-1,0E0,0E0,0E0,0E0,0E0,0E0,0E0,0E0,0E0,0E0,0E0,0E0,0E0,0E0,0E0,0E0,0E0,0E0,0E0,0E0,0E0,0E0,0E0,0E0,0E0,0E0],"parents":[2147483647,0,0,1,1,2,2,3,3,4,4,5,5,6,6,7,7,8,8,9,9,10,10,11,11,12,12,13,13,14,14,15,15,16,16,17,17,18,18,20,20,22,22,23,23,24,24,26,26,27,27,28,28,29,29,30,30],"right_children":[2,4,6,8,10,12,14,16,18,20,22,24,26,28,30,32,34,36,38,-1,40,-1,42,44,46,-1,48,50,52,54,56,-1,-1,-1,-1,-1,-1,-1,-1,-1,-1,-1,-1,-1,-1,-1,-1,-1,-1,-1,-1,-1,-1,-1,-1,-1,-1],"split_conditions":[6.1E0,5.1E1,6.5E0,1.014E2,5.2E1,7.2E1,6.8E0,3.2E1,2.66E1,1.02E2,8.4E1,1.13333336E2,1.11E2,6E1,3.2E1,5.7E0,8.1E1,4.4E1,6E0,-8.5727364E-2,3.32E1,-7.1419775E-2,1.14666664E2,3.1E1,1.14666664E2,-9.820349E-2,8.86E1,1.2866667E2,1.399E2,1.15E2,8E1,-6.2049158E-2,-1.673689E-2,6.105547E-2,-4.7188655E-2,1.00122906E-1,-4.091918E-2,-3.740875E-2,3.9201226E-2,8.359599E-3,3.6126535E-2,-5.6736983E-2,-2.8859435E-3,-4.967395E-2,5.7197656E-2,-8.9669004E-2,1.9133417E-2,7.005413E-3,5.1836323E-2,4.665439E-2,7.923797E-3,5.780483E-2,9.795811E-3,5.919081E-2,-5.4340143E-2,6.215511E-2,3.8354147E-2],"split_indices":[5,0,5,3,7,0,5,0,2,6,3,4,4,0,0,5,6,0,5,0,2,0,4,0,4,0,3,4,3,4,7,0,0,0,0,0,0,0,0,0,0,0,0,0,0,0,0,0,0,0,0,0,0,0,0,0,0],"split_type":[0,0,0,0,0,0,0,0,0,0,0,0,0,0,0,0,0,0,0,0,0,0,0,0,0,0,0,0,0,0,0,0,0,0,0,0,0,0,0,0,0,0,0,0,0,0,0,0,0,0,0,0,0,0,0,0,0],"sum_hessian":[4.0720637E3,2.6005217E3,1.471542E3,1.5746562E3,1.0258655E3,3.65074E2,1.106468E3,1.2574692E3,3.1718698E2,6.210412E2,4.048243E2,2.3727066E2,1.27803345E2,1.8586293E2,9.206051E2,8.981763E2,3.592929E2,9.016633E0,3.0817035E2,1.6074104E1,6.049671E2,4.195866E1,3.6286563E2,5.8877872E1,1.7839279E2,2.2407434E0,1.255626E2,5.351829E1,1.3234464E2,1.3882127E1,9.0672296E2,8.7057874E2,2.7597546E1,3.2470083E0,3.560459E2,7.8841667E0,1.1324663E0,2.901714E2,1.7998972E1,4.345259E2,1.7044121E2,4.6909164E1,3.1595648E2,1.5928124E0,5.728506E1,2.0307336E0,1.7636206E2,1.0346215E1,1.15216385E2,4.1716087E1,1.1802203E1,1.2967207E2,2.672566E0,1.2176924E1,1.7052038E0,9.0026025E2,6.462722E0],"tree_param":{"num_deleted":"0","num_feature":"12","num_nodes":"57","size_leaf_vector":"1"}},{"base_weights":[-4.441913E-4,-5.8541197E-1,1.0438209E0,-9.951777E-1,3.0781174E-2,6.3586605E-1,1.1803937E0,-1.1353452E0,-6.5168685E-1,-5.1385736E-1,1.7866802E-1,5.025788E-1,8.574349E-1,1.0100104E0,1.2139126E0,-1.1568456E0,-2.6416147E-1,-1.0609763E0,-2.8581962E-1,2.2902752E-1,-7.986764E-1,-1.2145988E0,2.287436E-1,1.0221105E0,3.2912892E-1,-5.831964E-1,9.107396E-1,7.711007E-1,1.1265368E0,8.288954E-1,1.2188971E0,-5.8225937E-2,4.8632134E-2,8.165822E-2,-2.7200637E-2,-5.6926228E-2,1.50560085E-2,5.3819973E-2,-2.5377518E-2,-6.727161E-2,3.5641428E-2,-4.8211213E-2,2.2724144E-2,1.5576007E-2,-7.362845E-2,8.419484E-3,6.343998E-2,-4.8550244E-2,5.4828335E-2,3.7976403E-2,4.485597E-3,4.796842E-2,-9.3192436E-2,6.697682E-3,4.8829485E-2,-7.171364E-2,4.1805178E-2,5.728854E-2,1.0350856E-2,5.799091E-2,-5.2947957E-2,6.107397E-2,3.730892E-2],"categories":[],"categories_nodes":[],"categories_segments":[],"categories_sizes":[],"default_left":[0,0,0,0,0,0,0,0,0,0,0,0,0,0,0,0,0,0,0,0,0,0,0,0,0,0,0,0,0,0,0,0,0,0,0,0,0,0,0,0,0,0,0,0,0,0,0,0,0,0,0,0,0,0,0,0,0,0,0,0,0,0,0],"id":16,"left_children":[1,3,5,7,9,11,13,15,17,19,21,23,25,27,29,31,33,35,37,39,41,43,45,47,49,51,53,55,57,59,61,-1,-1,-1,-1,-1,-1,-1,-1,-1,-1,-1,-1,-1,-1,-1,-1,-1,-1,-1,-1,-1,-1,-1,-1,-1,-1,-1,-1,-1,-1,-1,-1],"loss_changes":[2.4403108E3,6.465513E2,7.9164185E1,7.330383E1,8.254079E1,1.0257217E1,4.904419E0,2.0126953E1,6.678854E1,4.6489647E1,5.6496483E1,2.0244595E1,1.0861389E1,4.209503E0,7.015381E-1,1.8522827E1,1.5526836E1,2.2641174E1,7.2414215E1,4.7752193E1,3.3304337E1,1.152726E1,4.866473E1,9.477623E0,1.772785E1,1.2474445E1,6.52462E0,1.0226452E1,1.8929138E0,1.0303088E1,1.607666E-1,0E0,0E0,0E0,0E0,0E0,0E0,0E0,0E0,0E0,0E0,0E0,0E0,0E0,0E0,0E0,0E0,0E0,0E0,0E0,0E0,0E0,0E0,0E0,0E0,0E0,0E0,0E0,0E0,0E0,0E0,0E0,0E0],"parents":[2147483647,0,0,1,1,2,2,3,3,4,4,5,5,6,6,7,7,8,8,9,9,10,10,11,11,12,12,13,13,14,14,15,15,16,16,17,17,18,18,19,19,20,20,21,21,22,22,23,23,24,24,25,25,26,26,27,27,28,28,29,29,30,30],"right_children":[2,4,6,8,10,12,14,16,18,20,22,24,26,28,30,32,34,36,38,40,42,44,46,48,50,52,54,56,58,60,62,-1,-1,-1,-1,-1,-1,-1,-1,-1,-1,-1,-1,-1,-1,-1,-1,-1,-1,-1,-1,-1,-1,-1,-1,-1,-1,-1,-1,-1,-1,-1,-1],"split_conditions":[6.1E0,5.1E1,6.5E0,9.36E1,5.5E0,7.1E1,6.8E0,4.8E1,5.5E0,5E1,8.22E1,1.13333336E2,1.11E2,4.6E1,3.2E1,1.25E1,2.01E1,7.7E1,1.03333336E2,9.22E1,1E1,4.5E0,1.25E2,3.1E1,6.5E0,7.2E1,8.86E1,3.7E1,1.7266667E2,1.15E2,8E1,-5.8225937E-2,4.8632134E-2,8.165822E-2,-2.7200637E-2,-5.6926228E-2,1.50560085E-2,5.3819973E-2,-2.5377518E-2,-6.727161E-2,3.5641428E-2,-4.8211213E-2,2.2724144E-2,1.5576007E-2,-7.362845E-2,8.419484E-3,6.343998E-2,-4.8550244E-2,5.4828335E-2,3.7976403E-2,4.485597E-3,4.796842E-2,-9.3192436E-2,6.697682E-3,4.8829485E-2,-7.171364E-2,4.1805178E-2,5.728854E-2,1.0350856E-2,5.799091E-2,-5.2947957E-2,6.107397E-2,3.730892E-2],"split_indices":[5,0,5,3,5,0,5,0,5,9,3,4,4,7,0,11,2,7,4,3,11,11,6,0,11,0,3,0,4,4,7,0,0,0,0,0,0,0,0,0,0,0,0,0,0,0,0,0,0,0,0,0,0,0,0,0,0,0,0,0,0,0,0],"split_type":[0,0,0,0,0,0,0,0,0,0,0,0,0,0,0,0,0,0,0,0,0,0,0,0,0,0,0,0,0,0,0,0,0,0,0,0,0,0,0,0,0,0,0,0,0,0,0,0,0,0,0,0,0,0,0,0,0,0,0,0,0,0,0],"sum_hessian":[3.992868E3,2.5595305E3,1.4333373E3,1.5368903E3,1.0226403E3,3.609136E2,1.0724237E3,1.0898516E3,4.470387E2,2.1785352E2,8.047868E2,2.2739178E2,1.3352182E2,1.8141063E2,8.9101306E2,1.0632823E3,2.6569164E1,2.1010168E2,2.3693701E2,6.0430458E1,1.5742305E2,2.7114592E1,7.776722E2,5.5690395E1,1.7170139E2,4.4094586E0,1.2911237E2,6.1971092E1,1.19439545E2,1.3526007E1,8.7748706E2,1.0599164E3,3.3660512E0,2.7935724E0,2.377559E1,1.9893958E2,1.1162098E1,3.2628277E1,2.0430873E2,1.3785757E1,4.66447E1,1.3925714E2,1.8165922E1,3.890616E0,2.3223976E1,7.3611755E2,4.1554626E1,1.5718693E0,5.4118526E1,6.059591E1,1.1110548E2,2.113995E0,2.2954633E0,1.0326955E1,1.187854E2,1.1711833E0,6.079991E1,1.1675136E2,2.6881852E0,1.1836776E1,1.6892309E0,8.711444E2,6.3426843E0],"tree_param":{"num_deleted":"0","num_feature":"12","num_nodes":"63","size_leaf_vector":"1"}},{"base_weights":[-3.933736E-4,-5.6575483E-1,1.0194552E0,-9.698741E-1,2.9252263E-2,6.114774E-1,1.1588726E0,-1.1116176E0,-6.27994E-1,2.5279132E-1,-3.1479895E-1,3.4611446E-1,7.197038E-1,9.843863E-1,1.193522E0,-1.133368E0,-2.508674E-1,-1.0331943E0,-2.7274853E-1,-8.245526E-2,3.0527407E-1,-6.894135E-2,-1.9379911E-1,-6.856563E-2,4.175534E-1,2.7136984E-1,7.823463E-1,7.120182E-1,1.0898278E0,8.0828404E-1,1.1985424E0,-5.705319E-2,4.6515394E-2,1.3801055E-2,-6.2162764E-2,-5.5529635E-2,1.4296724E-2,1.5079729E-2,-3.85382E-2,7.7515855E-3,3.4347035E-2,-1.4506772E-2,5.3734858E-2,2.383211E-2,-7.135419E-2,4.615028E-2,-2.7132172E-2,1.2309127E-2,4.3541282E-2,4.3867137E-2,5.7774866E-3,5.540598E-2,8.034429E-3,5.6856442E-2,-5.1633637E-2,6.0058504E-2,3.629547E-2],"categories":[],"categories_nodes":[],"categories_segments":[],"categories_sizes":[],"default_left":[0,0,0,0,0,0,0,0,0,0,0,0,0,0,0,0,0,0,0,0,0,0,0,0,0,0,0,0,0,0,0,0,0,0,0,0,0,0,0,0,0,0,0,0,0,0,0,0,0,0,0,0,0,0,0,0,0],"id":17,"left_children":[1,3,5,7,9,11,13,15,17,19,21,23,25,27,29,31,33,35,37,-1,39,-1,41,-1,43,45,47,49,51,53,55,-1,-1,-1,-1,-1,-1,-1,-1,-1,-1,-1,-1,-1,-1,-1,-1,-1,-1,-1,-1,-1,-1,-1,-1,-1,-1],"loss_changes":[2.2576382E3,6.057495E2,7.872156E1,7.200098E1,7.851647E1,1.0026291E1,5.110718E0,1.954602E1,6.334059E1,6.2265945E1,5.1503174E1,1.3525733E1,6.899124E0,4.334839E0,6.998291E-1,1.74646E1,1.4664827E1,2.1361938E1,6.798499E1,0E0,3.447026E1,0E0,4.4575207E1,0E0,1.1811644E1,1.7779057E1,1.0300049E1,5.0807114E0,1.9703522E0,9.752287E0,1.8310547E-1,0E0,0E0,0E0,0E0,0E0,0E0,0E0,0E0,0E0,0E0,0E0,0E0,0E0,0E0,0E0,0E0,0E0,0E0,0E0,0E0,0E0,0E0,0E0,0E0,0E0,0E0],"parents":[2147483647,0,0,1,1,2,2,3,3,4,4,5,5,6,6,7,7,8,8,9,9,10,10,11,11,12,12,13,13,14,14,15,15,16,16,17,17,18,18,20,20,22,22,24,24,25,25,26,26,27,27,28,28,29,29,30,30],"right_children":[2,4,6,8,10,12,14,16,18,20,22,24,26,28,30,32,34,36,38,-1,40,-1,42,-1,44,46,48,50,52,54,56,-1,-1,-1,-1,-1,-1,-1,-1,-1,-1,-1,-1,-1,-1,-1,-1,-1,-1,-1,-1,-1,-1,-1,-1,-1,-1],"split_conditions":[6.1E0,5.1E1,6.5E0,9.36E1,5.2E1,6.2E0,6.8E0,4.8E1,5.5E0,1.02E2,8.4E1,4E1,4.8E1,6E1,3.2E1,1.25E1,5.7E1,7.7E1,1.16E2,-8.245526E-2,3.32E1,-6.894135E-2,1.21E2,-6.856563E-2,7.5E1,3.2E1,2.59E1,1.2866667E2,1.399E2,1.15E2,8E1,-5.705319E-2,4.6515394E-2,1.3801055E-2,-6.2162764E-2,-5.5529635E-2,1.4296724E-2,1.5079729E-2,-3.85382E-2,7.7515855E-3,3.4347035E-2,-1.4506772E-2,5.3734858E-2,2.383211E-2,-7.135419E-2,4.615028E-2,-2.7132172E-2,1.2309127E-2,4.3541282E-2,4.3867137E-2,5.7774866E-3,5.540598E-2,8.034429E-3,5.6856442E-2,-5.1633637E-2,6.0058504E-2,3.629547E-2],"split_indices":[5,0,5,3,7,5,5,0,5,6,3,0,0,0,0,11,7,7,4,0,2,0,6,0,7,2,2,4,3,4,7,0,0,0,0,0,0,0,0,0,0,0,0,0,0,0,0,0,0,0,0,0,0,0,0,0,0],"split_type":[0,0,0,0,0,0,0,0,0,0,0,0,0,0,0,0,0,0,0,0,0,0,0,0,0,0,0,0,0,0,0,0,0,0,0,0,0,0,0,0,0,0,0,0,0,0,0,0,0,0,0,0,0,0,0,0,0],"sum_hessian":[3.9135461E3,2.5180754E3,1.3954706E3,1.4992078E3,1.0188678E3,3.567875E2,1.0386831E3,1.0582186E3,4.4098914E2,6.177589E2,4.0110886E2,1.04575195E2,2.5221231E2,1.7696031E2,8.617228E2,1.0318285E3,2.6390078E1,2.0511842E2,2.358707E2,1.5772307E1,6.0198663E2,3.9894657E1,3.612142E2,3.4495962E0,1.011256E2,3.157332E1,2.2063898E2,5.1550877E1,1.2540943E2,1.3169407E1,8.485534E2,1.0284403E3,3.3881788E0,1.7709457E1,8.68062E0,1.9389966E2,1.1218767E1,1.0972418E2,1.26146515E2,4.329592E2,1.6902742E2,3.3643484E2,2.4779367E1,9.87054E1,2.4202015E0,1.7461283E1,1.4112038E1,3.1788795E1,1.8885019E2,3.999459E1,1.1556286E1,1.2279927E2,2.6101654E0,1.1497889E1,1.6715184E0,8.423287E2,6.2247434E0],"tree_param":{"num_deleted":"0","num_feature":"12","num_nodes":"57","size_leaf_vector":"1"}},{"base_weights":[-3.9338108E-4,-5.4684126E-1,9.9616843E-1,-8.72983E-1,1.6020803E-1,5.881169E-1,1.1384937E0,-9.9210894E-1,-2.6759005E-1,-7.1604095E-2,2.1680787E-1,4.6250704E-1,8.195912E-1,9.599836E-1,1.1742928E0,-1.1494263E0,-7.724515E-1,-7.7071387E-1,1.348112E-2,3.949117E-1,-8.765255E-2,9.857476E-1,2.8999957E-1,-9.0196885E-2,8.850492E-1,7.176092E-1,1.0801142E0,7.8866607E-1,1.1793507E0,-5.886596E-2,-3.4165323E-2,-5.3576518E-2,-2.910058E-2,1.1551678E-2,-5.6654394E-2,3.7577547E-2,-1.479131E-2,-8.0841355E-2,2.1496216E-2,-1.1609317E-2,4.176184E-2,-4.692189E-2,5.2784383E-2,-8.760732E-2,1.6206669E-2,-1.9506129E-2,4.6383675E-2,-6.9893956E-2,3.9171483E-2,5.500409E-2,8.286544E-3,5.5780232E-2,-5.0390106E-2,5.9101548E-2,3.531165E-2],"categories":[],"categories_nodes":[],"categories_segments":[],"categories_sizes":[],"default_left":[0,0,0,0,0,0,0,0,0,0,0,0,0,0,0,0,0,0,0,0,0,0,0,0,0,0,0,0,0,0,0,0,0,0,0,0,0,0,0,0,0,0,0,0,0,0,0,0,0,0,0,0,0,0,0],"id":18,"left_children":[1,3,5,7,9,11,13,15,17,-1,19,21,23,25,27,29,31,33,35,37,39,41,43,-1,45,47,49,51,53,-1,-1,-1,-1,-1,-1,-1,-1,-1,-1,-1,-1,-1,-1,-1,-1,-1,-1,-1,-1,-1,-1,-1,-1,-1,-1],"loss_changes":[2.0895913E3,5.716182E2,7.825012E1,1.2205432E2,7.088953E1,9.898384E0,5.3043213E0,4.807312E1,3.9640747E1,0E0,4.1090115E1,2.0603687E1,2.2727242E1,4.2794647E0,6.9628906E-1,9.902466E0,3.322711E1,3.673033E1,4.149311E1,3.435437E1,3.757696E1,8.656948E0,1.27989235E1,0E0,6.9234924E0,9.520439E0,1.9007263E0,9.23768E0,2.0629883E-1,0E0,0E0,0E0,0E0,0E0,0E0,0E0,0E0,0E0,0E0,0E0,0E0,0E0,0E0,0E0,0E0,0E0,0E0,0E0,0E0,0E0,0E0,0E0,0E0,0E0,0E0],"parents":[2147483647,0,0,1,1,2,2,3,3,4,4,5,5,6,6,7,7,8,8,10,10,11,11,12,12,13,13,14,14,15,15,16,16,17,17,18,18,19,19,20,20,21,21,22,22,24,24,25,25,26,26,27,27,28,28],"right_children":[2,4,6,8,10,12,14,16,18,-1,20,22,24,26,28,30,32,34,36,38,40,42,44,-1,46,48,50,52,54,-1,-1,-1,-1,-1,-1,-1,-1,-1,-1,-1,-1,-1,-1,-1,-1,-1,-1,-1,-1,-1,-1,-1,-1,-1,-1],"split_conditions":[6.1E0,6E1,6.5E0,1.083E2,8.22E1,7.2E1,6.8E0,3E1,5.5E0,-7.1604095E-2,5.2E1,1.13333336E2,1.11E2,4.6E1,3.2E1,5.6E0,5.5E0,3.28E1,1.115E2,1.02E2,1E1,3.1E1,1.14666664E2,-9.0196885E-2,6.1E1,3.7E1,1.7266667E2,1.15E2,8E1,-5.886596E-2,-3.4165323E-2,-5.3576518E-2,-2.910058E-2,1.1551678E-2,-5.6654394E-2,3.7577547E-2,-1.479131E-2,-8.0841355E-2,2.1496216E-2,-1.1609317E-2,4.176184E-2,-4.692189E-2,5.2784383E-2,-8.760732E-2,1.6206669E-2,-1.9506129E-2,4.6383675E-2,-6.9893956E-2,3.9171483E-2,5.500409E-2,8.286544E-3,5.5780232E-2,-5.0390106E-2,5.9101548E-2,3.531165E-2],"split_indices":[5,0,5,3,3,0,5,0,5,0,7,4,4,7,0,5,5,2,3,6,11,0,4,0,8,0,4,4,7,0,0,0,0,0,0,0,0,0,0,0,0,0,0,0,0,0,0,0,0,0,0,0,0,0,0],"split_type":[0,0,0,0,0,0,0,0,0,0,0,0,0,0,0,0,0,0,0,0,0,0,0,0,0,0,0,0,0,0,0,0,0,0,0,0,0,0,0,0,0,0,0,0,0,0,0,0,0,0,0,0,0,0,0],"sum_hessian":[3.8351458E3,2.4772427E3,1.3579031E3,1.6951046E3,7.821381E2,3.5247537E2,1.0054277E3,1.4158604E3,2.792443E2,2.601351E1,7.5612463E2,2.3043019E2,1.2204518E2,1.7259753E2,8.3283014E2,8.2253357E2,5.933267E2,9.946234E1,1.7978194E2,4.7686826E2,2.7925638E2,5.5965218E1,1.7446498E2,2.3244274E0,1.1972076E2,5.9508114E1,1.1308942E2,1.2813882E1,8.2001624E2,7.746523E2,4.7881268E1,2.2902498E2,3.6430176E2,2.6518097E1,7.2944244E1,5.267026E1,1.2711168E2,7.3846745E0,4.6948358E2,2.420909E2,3.7165462E1,1.5273424E0,5.4437874E1,2.0407357E0,1.7242424E2,3.6086912E0,1.1611206E2,1.1849736E0,5.832314E1,1.1047389E2,2.6155312E0,1.116159E1,1.6522925E0,8.1390717E2,6.109092E0],"tree_param":{"num_deleted":"0","num_feature":"12","num_nodes":"55","size_leaf_vector":"1"}},{"base_weights":[-4.6148172E-4,-5.2881646E-1,9.7352564E-1,-9.2314386E-1,2.8092992E-2,4.8199186E-1,1.0944303E0,-1.068322E0,-5.8346474E-1,-4.7693193E-1,1.6339406E-1,-6.714847E-2,5.157948E-1,8.9602566E-1,1.156099E0,-1.0909426E0,-2.0736714E-1,-9.82801E-1,-2.4658062E-1,2.419991E-1,-7.554789E-1,1.0649786E-1,1.199355E0,5.500433E-1,-9.349453E-1,7.0876026E-1,9.833085E-1,7.699371E-1,1.1611962E0,-5.5983245E-2,-2.0850902E-2,7.938924E-2,-2.4295455E-2,-5.3134043E-2,1.6134014E-2,5.082647E-2,-2.2905758E-2,-6.483087E-2,3.4435403E-2,-4.5741383E-2,2.0979678E-2,1.5036362E-2,-1.28157465E-2,6.359967E-2,1.33736925E-2,-6.873638E-2,2.8624287E-2,1.0097276E-3,-1.00876145E-1,2.4905598E-2,5.0334048E-2,5.0528195E-2,-1.5392469E-2,5.358345E-2,-5.6131292E-2,6.004238E-2,5.5490583E-2],"categories":[],"categories_nodes":[],"categories_segments":[],"categories_sizes":[],"default_left":[0,0,0,0,0,0,0,0,0,0,0,0,0,0,0,0,0,0,0,0,0,0,0,0,0,0,0,0,0,0,0,0,0,0,0,0,0,0,0,0,0,0,0,0,0,0,0,0,0,0,0,0,0,0,0,0,0],"id":19,"left_children":[1,3,5,7,9,11,13,15,17,19,21,-1,23,25,27,29,31,33,35,37,39,41,43,45,47,49,51,53,55,-1,-1,-1,-1,-1,-1,-1,-1,-1,-1,-1,-1,-1,-1,-1,-1,-1,-1,-1,-1,-1,-1,-1,-1,-1,-1,-1,-1],"loss_changes":[1.9345092E3,5.3522784E2,7.8040405E1,6.97406E1,6.917749E1,1.6903381E1,1.193689E1,1.9218384E1,5.7530212E1,4.30244E1,4.6927185E1,0E0,1.3369118E1,3.4850616E0,6.912842E-1,1.8359741E1,1.4169974E1,2.0799881E1,6.3060356E1,4.247459E1,2.9301277E1,5.348249E1,2.4665375E0,1.1732445E1,6.593679E0,4.8279915E0,6.361679E0,8.889812E0,2.8295898E-1,0E0,0E0,0E0,0E0,0E0,0E0,0E0,0E0,0E0,0E0,0E0,0E0,0E0,0E0,0E0,0E0,0E0,0E0,0E0,0E0,0E0,0E0,0E0,0E0,0E0,0E0,0E0,0E0],"parents":[2147483647,0,0,1,1,2,2,3,3,4,4,5,5,6,6,7,7,8,8,9,9,10,10,12,12,13,13,14,14,15,15,16,16,17,17,18,18,19,19,20,20,21,21,22,22,23,23,24,24,25,25,26,26,27,27,28,28],"right_children":[2,4,6,8,10,12,14,16,18,20,22,-1,24,26,28,30,32,34,36,38,40,42,44,46,48,50,52,54,56,-1,-1,-1,-1,-1,-1,-1,-1,-1,-1,-1,-1,-1,-1,-1,-1,-1,-1,-1,-1,-1,-1,-1,-1,-1,-1,-1,-1],"split_conditions":[6.1E0,5.1E1,6.4E0,9.36E1,5.5E0,3.5E1,6.8E0,4.8E1,5.5E0,5E1,1.25E2,-6.714847E-2,1.6666667E2,4.5E1,3.2E1,5.7E0,2.01E1,7.7E1,1.03333336E2,9.22E1,1E1,5.2E1,3.64E1,4.5E1,6.2E0,3.64E1,7E1,2.98E1,2E0,-5.5983245E-2,-2.0850902E-2,7.938924E-2,-2.4295455E-2,-5.3134043E-2,1.6134014E-2,5.082647E-2,-2.2905758E-2,-6.483087E-2,3.4435403E-2,-4.5741383E-2,2.0979678E-2,1.5036362E-2,-1.28157465E-2,6.359967E-2,1.33736925E-2,-6.873638E-2,2.8624287E-2,1.0097276E-3,-1.00876145E-1,2.4905598E-2,5.0334048E-2,5.0528195E-2,-1.5392469E-2,5.358345E-2,-5.6131292E-2,6.004238E-2,5.5490583E-2],"split_indices":[5,0,5,3,5,0,5,0,5,9,6,0,4,7,0,5,2,7,4,3,11,7,2,10,5,2,10,2,1,0,0,0,0,0,0,0,0,0,0,0,0,0,0,0,0,0,0,0,0,0,0,0,0,0,0,0,0],"split_type":[0,0,0,0,0,0,0,0,0,0,0,0,0,0,0,0,0,0,0,0,0,0,0,0,0,0,0,0,0,0,0,0,0,0,0,0,0,0,0,0,0,0,0,0,0,0,0,0,0,0,0,0,0,0,0,0,0],"sum_hessian":[3.757168E3,2.4361152E3,1.3210529E3,1.4258588E3,1.0102564E3,2.617803E2,1.0592725E3,9.9741907E2,4.284397E2,2.1293394E2,7.973225E2,4.056344E0,2.5772397E2,2.548574E2,8.044151E2,9.716235E2,2.5795567E1,1.9517067E2,2.3326904E2,5.9498707E1,1.5343524E2,7.568578E2,4.046472E1,2.523866E2,5.3373837E0,8.39223E1,1.709351E2,1.2460777E1,7.9195435E2,9.3127185E2,4.0351593E1,2.8335447E0,2.296202E1,1.840924E2,1.1078259E1,3.291604E1,2.00353E2,1.2959436E1,4.6539272E1,1.3530794E2,1.812731E1,4.9306815E2,2.637896E2,3.7200073E1,3.2646472E0,2.214389E0,2.501722E2,3.3569498E0,1.9804338E0,5.072709E1,3.3195213E1,1.6761421E2,3.3208873E0,1.1121431E1,1.3393456E0,4.3438702E2,3.5756732E2],"tree_param":{"num_deleted":"0","num_feature":"12","num_nodes":"57","size_leaf_vector":"1"}},{"base_weights":[-4.5608217E-4,-5.112717E-1,9.515893E-1,-8.2801956E-1,1.5008405E-1,5.419532E-1,1.1006261E0,-9.483342E-1,-2.3805597E-1,-6.9846116E-2,2.0347033E-1,2.820705E-1,6.50239E-1,9.145593E-1,1.138773E0,-1.1109732E0,-7.2776747E-1,-7.166352E-1,2.0823395E-2,7.73561E-2,5.7899576E-1,-6.623252E-2,3.4914643E-1,6.7716E-1,-3.3034116E-1,6.304133E-1,1.0274316E0,1.0049851E0,1.1570494E0,-5.6992438E-2,-3.221748E-2,-5.3870678E-2,-2.8131211E-2,1.2933164E-2,-5.417679E-2,3.5967167E-2,-1.3698108E-2,-2.373189E-2,1.0082795E-2,3.9046813E-2,6.896206E-3,2.0363552E-2,-7.0652984E-2,1.0334714E-2,3.730003E-2,-9.545976E-2,3.3669014E-2,3.5734452E-2,-2.5774136E-2,5.234749E-2,4.7030845E-3,2.1506442E-2,5.177618E-2,5.8036536E-2,2.1849604E-2],"categories":[],"categories_nodes":[],"categories_segments":[],"categories_sizes":[],"default_left":[0,0,0,0,0,0,0,0,0,0,0,0,0,0,0,0,0,0,0,0,0,0,0,0,0,0,0,0,0,0,0,0,0,0,0,0,0,0,0,0,0,0,0,0,0,0,0,0,0,0,0,0,0,0,0],"id":20,"left_children":[1,3,5,7,9,11,13,15,17,-1,19,21,23,25,27,29,31,33,35,37,39,-1,41,43,45,47,49,51,53,-1,-1,-1,-1,-1,-1,-1,-1,-1,-1,-1,-1,-1,-1,-1,-1,-1,-1,-1,-1,-1,-1,-1,-1,-1,-1],"loss_changes":[1.7909581E3,5.021974E2,7.791199E1,1.1481531E2,6.445572E1,9.526077E0,5.644287E0,4.747107E1,3.4193794E1,0E0,3.5567E1,1.1589368E1,6.632614E0,4.6549683E0,7.3846436E-1,9.677612E0,3.2543457E1,3.4944283E1,3.7261604E1,3.8797592E1,1.6716736E1,0E0,1.0807827E1,7.5092316E0,1.2631178E1,5.1576405E0,2.0282898E0,1.3288498E0,1.2886963E0,0E0,0E0,0E0,0E0,0E0,0E0,0E0,0E0,0E0,0E0,0E0,0E0,0E0,0E0,0E0,0E0,0E0,0E0,0E0,0E0,0E0,0E0,0E0,0E0,0E0,0E0],"parents":[2147483647,0,0,1,1,2,2,3,3,4,4,5,5,6,6,7,7,8,8,10,10,11,11,12,12,13,13,14,14,15,15,16,16,17,17,18,18,19,19,20,20,22,22,23,23,24,24,25,25,26,26,27,27,28,28],"right_children":[2,4,6,8,10,12,14,16,18,-1,20,22,24,26,28,30,32,34,36,38,40,-1,42,44,46,48,50,52,54,-1,-1,-1,-1,-1,-1,-1,-1,-1,-1,-1,-1,-1,-1,-1,-1,-1,-1,-1,-1,-1,-1,-1,-1,-1,-1],"split_conditions":[6.1E0,6E1,6.5E0,1.083E2,8.22E1,6.2E0,6.8E0,3E1,5.5E0,-6.9846116E-2,3.32E1,4E1,1.6666667E2,6E1,4.7E1,5.6E0,8.68E1,3.28E1,1.115E2,5.5E0,5.2E1,-6.623252E-2,7.5E1,4.8E1,6.4E0,5.7E1,1.399E2,6.9E0,8E1,-5.6992438E-2,-3.221748E-2,-5.3870678E-2,-2.8131211E-2,1.2933164E-2,-5.417679E-2,3.5967167E-2,-1.3698108E-2,-2.373189E-2,1.0082795E-2,3.9046813E-2,6.896206E-3,2.0363552E-2,-7.0652984E-2,1.0334714E-2,3.730003E-2,-9.545976E-2,3.3669014E-2,3.5734452E-2,-2.5774136E-2,5.234749E-2,4.7030845E-3,2.1506442E-2,5.177618E-2,5.8036536E-2,2.1849604E-2],"split_indices":[5,0,5,3,3,5,5,0,5,0,2,0,4,0,0,5,3,2,3,5,7,0,7,0,5,0,3,5,7,0,0,0,0,0,0,0,0,0,0,0,0,0,0,0,0,0,0,0,0,0,0,0,0,0,0],"split_type":[0,0,0,0,0,0,0,0,0,0,0,0,0,0,0,0,0,0,0,0,0,0,0,0,0,0,0,0,0,0,0,0,0,0,0,0,0,0,0,0,0,0,0,0,0,0,0,0,0,0,0,0,0,0,0],"sum_hessian":[3.6806765E3,2.3957244E3,1.284952E3,1.6197256E3,7.7599884E2,3.4402274E2,9.409293E2,1.3448544E3,2.7487122E2,2.504645E1,7.509524E2,1.02244255E2,2.4177847E2,1.6433542E2,7.7659393E2,7.717517E2,5.731026E2,9.587078E1,1.7900043E2,5.6306274E2,1.8788965E2,3.3460193E0,9.889824E1,2.3561917E2,6.159306E0,4.8592735E1,1.15742676E2,1.0006709E2,6.7652686E2,7.2541876E2,4.6332962E1,1.8207791E2,3.910247E2,2.628767E1,6.958311E1,5.2694946E1,1.2630549E2,1.0297041E2,4.6009232E2,1.283536E2,5.953603E1,9.648467E1,2.4135647E0,3.058691E1,2.0503226E2,2.0432138E0,4.116092E0,4.5614304E1,2.97843E0,1.13252716E2,2.4899604E0,5.8087077E0,9.4258385E1,6.7247687E2,4.0499783E0],"tree_param":{"num_deleted":"0","num_feature":"12","num_nodes":"55","size_leaf_vector":"1"}},{"base_weights":[-4.8571517E-4,-4.945043E-1,9.3039715E-1,-8.7945056E-1,2.6879411E-2,5.208934E-1,1.0826696E0,-1.0276184E0,-5.445675E-1,-1.1630417E0,7.798755E-2,3.970914E-1,7.523477E-1,8.921494E-1,1.1221509E0,-1.0512937E0,-1.6282229E-1,-9.402629E-1,-2.2220834E-1,1.6970557E-1,-6.668761E-2,-3.733475E-1,1.922495E-1,9.2746174E-1,2.2515295E-1,-8.868838E-2,8.189108E-1,6.0008496E-1,1.0029073E0,7.2187436E-1,1.12761E0,-2.7533282E-2,-5.4708045E-2,1.7467573E-2,-5.905006E-2,6.629853E-2,-4.921058E-2,1.6269756E-2,-3.5322636E-2,6.1716344E-2,-5.4480582E-2,1.6890343E-2,-3.3028375E-2,2.3970652E-2,-4.0236302E-4,-4.4560295E-2,4.971193E-2,2.9892579E-2,1.3209761E-3,-2.2121167E-2,4.3130375E-2,3.4598004E-2,-9.003674E-2,5.1108457E-2,4.5430777E-3,5.301657E-2,-4.965916E-2,5.847891E-2,5.367319E-2],"categories":[],"categories_nodes":[],"categories_segments":[],"categories_sizes":[],"default_left":[0,0,0,0,0,0,0,0,0,0,0,0,0,0,0,0,0,0,0,0,0,0,0,0,0,0,0,0,0,0,0,0,0,0,0,0,0,0,0,0,0,0,0,0,0,0,0,0,0,0,0,0,0,0,0,0,0,0,0],"id":21,"left_children":[1,3,5,7,9,11,13,15,17,19,21,23,25,27,29,31,33,35,37,39,-1,41,43,45,47,-1,49,51,53,55,57,-1,-1,-1,-1,-1,-1,-1,-1,-1,-1,-1,-1,-1,-1,-1,-1,-1,-1,-1,-1,-1,-1,-1,-1,-1,-1,-1,-1],"loss_changes":[1.6588134E3,4.7298627E2,7.741846E1,6.6706665E1,6.101803E1,9.469818E0,5.849121E0,1.9048157E1,5.310347E1,9.627491E0,4.965836E1,2.0238434E1,2.1240685E1,4.6128845E0,8.2592773E-1,1.9001831E1,1.4074013E1,1.9962082E1,6.1651836E1,8.824604E0,0E0,3.996936E1,4.417433E1,7.513775E0,1.2623897E1,0E0,6.739128E0,1.1571966E1,1.9342728E0,8.52772E0,4.229126E-1,0E0,0E0,0E0,0E0,0E0,0E0,0E0,0E0,0E0,0E0,0E0,0E0,0E0,0E0,0E0,0E0,0E0,0E0,0E0,0E0,0E0,0E0,0E0,0E0,0E0,0E0,0E0,0E0],"parents":[2147483647,0,0,1,1,2,2,3,3,4,4,5,5,6,6,7,7,8,8,9,9,10,10,11,11,12,12,13,13,14,14,15,15,16,16,17,17,18,18,19,19,21,21,22,22,23,23,24,24,26,26,27,27,28,28,29,29,30,30],"right_children":[2,4,6,8,10,12,14,16,18,20,22,24,26,28,30,32,34,36,38,40,-1,42,44,46,48,-1,50,52,54,56,58,-1,-1,-1,-1,-1,-1,-1,-1,-1,-1,-1,-1,-1,-1,-1,-1,-1,-1,-1,-1,-1,-1,-1,-1,-1,-1,-1,-1],"split_conditions":[6.1E0,5.1E1,6.5E0,9.36E1,8.22E1,7.2E1,6.8E0,4.8E1,5.5E0,4.5E0,5.5E0,1.13333336E2,1.11E2,5.9E1,3.2E1,9.6E1,5.7E1,4.2E0,1.16E2,4.6E1,-6.668761E-2,5E1,5.6E0,3.1E1,6.5E0,-8.868838E-2,6.1E1,5.7E1,1.399E2,1.15E2,2E0,-2.7533282E-2,-5.4708045E-2,1.7467573E-2,-5.905006E-2,6.629853E-2,-4.921058E-2,1.6269756E-2,-3.5322636E-2,6.1716344E-2,-5.4480582E-2,1.6890343E-2,-3.3028375E-2,2.3970652E-2,-4.0236302E-4,-4.4560295E-2,4.971193E-2,2.9892579E-2,1.3209761E-3,-2.2121167E-2,4.3130375E-2,3.4598004E-2,-9.003674E-2,5.1108457E-2,4.5430777E-3,5.301657E-2,-4.965916E-2,5.847891E-2,5.367319E-2],"split_indices":[5,0,5,3,3,0,5,0,5,11,5,4,4,0,0,4,7,5,4,7,0,9,5,0,11,0,8,0,3,4,1,0,0,0,0,0,0,0,0,0,0,0,0,0,0,0,0,0,0,0,0,0,0,0,0,0,0,0,0],"split_type":[0,0,0,0,0,0,0,0,0,0,0,0,0,0,0,0,0,0,0,0,0,0,0,0,0,0,0,0,0,0,0,0,0,0,0,0,0,0,0,0,0,0,0,0,0,0,0,0,0,0,0,0,0,0,0,0,0,0,0],"sum_hessian":[3.605108E3,2.35551E3,1.249598E3,1.3546573E3,1.0008526E3,3.399086E2,9.096894E2,9.377045E2,4.1695276E2,4.0321194E1,9.6053143E2,2.2322435E2,1.1668425E2,1.6020444E2,7.494849E2,9.125074E2,2.5197187E1,1.8632376E2,2.3062898E2,4.5789433E0,3.574225E1,1.9358858E2,7.669429E2,5.3573757E1,1.696506E2,2.3372166E0,1.1434703E2,4.5813587E1,1.1439084E2,1.1876766E1,7.3760815E2,7.3064415E1,8.3944293E2,1.7201311E1,7.995876E0,2.989658E0,1.833341E2,1.0838773E2,1.2224126E2,2.4920335E0,2.08691E0,5.5642372E1,1.379462E2,3.145632E2,4.5237967E2,1.4601637E0,5.2113594E1,5.8302868E1,1.1134773E2,3.5231864E0,1.10823845E2,4.481055E1,1.0030377E0,1.1190669E2,2.484145E0,1.0238089E1,1.6386776E0,4.0392694E2,3.3368124E2],"tree_param":{"num_deleted":"0","num_feature":"12","num_nodes":"59","size_leaf_vector":"1"}},{"base_weights":[-5.0605385E-4,-5.5283415E-1,7.866051E-1,-9.826894E-1,-1.0253413E-1,2.955672E-1,1.0388435E0,-1.0009836E0,4.8453593E-1,-5.29019E-1,7.384561E-2,2.263901E-1,9.558797E-1,8.303008E-1,1.1064259E0,-7.04658E-1,-1.1017294E0,9.849199E-1,-5.1481247E-2,-9.014573E-1,-8.123054E-2,3.754841E-1,-2.6487094E-1,-8.1994116E-1,3.245117E-1,1.0849688E0,-8.1087425E-2,6.3906384E-1,9.214904E-1,9.6604484E-1,1.1257764E0,-5.546043E-2,8.196752E-3,4.236619E-2,-5.5651825E-2,-4.3922327E-2,6.885842E-2,-4.7757156E-2,9.499016E-2,5.1807623E-2,-1.5381343E-2,2.4804397E-2,-2.9509498E-2,-1.7384445E-2,5.6908377E-2,1.38010355E-2,-7.966127E-2,1.0450773E-2,3.627732E-2,7.721979E-3,5.9603818E-2,2.1029763E-2,4.742978E-2,4.7510244E-2,-1.7974172E-2,5.3589415E-2,3.6865003E-2,5.6485295E-2,1.9531008E-2],"categories":[],"categories_nodes":[],"categories_segments":[],"categories_sizes":[],"default_left":[0,0,0,0,0,0,0,0,0,0,0,0,0,0,0,0,0,0,0,0,0,0,0,0,0,0,0,0,0,0,0,0,0,0,0,0,0,0,0,0,0,0,0,0,0,0,0,0,0,0,0,0,0,0,0,0,0,0,0],"id":22,"left_children":[1,3,5,7,9,11,13,15,17,19,21,23,25,27,29,31,33,35,-1,37,39,41,43,45,47,49,-1,51,53,55,57,-1,-1,-1,-1,-1,-1,-1,-1,-1,-1,-1,-1,-1,-1,-1,-1,-1,-1,-1,-1,-1,-1,-1,-1,-1,-1,-1,-1],"loss_changes":[1.5365579E3,4.01924E2,1.8020905E2,2.9004028E1,7.642645E1,2.2439857E1,1.2645874E1,3.0561646E1,1.143829E1,4.9495125E1,7.358578E1,4.649421E1,1.7306828E1,3.5888824E0,8.788452E-1,9.474576E1,1.816858E1,9.141589E0,0E0,2.6201874E1,3.473721E1,4.4649815E1,3.9831867E1,3.3397095E1,1.894902E1,4.310398E0,0E0,5.052387E0,6.2250824E0,1.5013885E0,1.3791504E0,0E0,0E0,0E0,0E0,0E0,0E0,0E0,0E0,0E0,0E0,0E0,0E0,0E0,0E0,0E0,0E0,0E0,0E0,0E0,0E0,0E0,0E0,0E0,0E0,0E0,0E0,0E0,0E0],"parents":[2147483647,0,0,1,1,2,2,3,3,4,4,5,5,6,6,7,7,8,8,9,9,10,10,11,11,12,12,13,13,14,14,15,15,16,16,17,17,19,19,20,20,21,21,22,22,23,23,24,24,25,25,27,27,28,28,29,29,30,30],"right_children":[2,4,6,8,10,12,14,16,18,20,22,24,26,28,30,32,34,36,-1,38,40,42,44,46,48,50,-1,52,54,56,58,-1,-1,-1,-1,-1,-1,-1,-1,-1,-1,-1,-1,-1,-1,-1,-1,-1,-1,-1,-1,-1,-1,-1,-1,-1,-1,-1,-1],"split_conditions":[5.9E0,4.1E1,6.4E0,1.2E1,5.5E0,1.21E2,6.8E0,1.05E2,2E0,1.011E2,5.6E0,8E1,1.89E2,4.5E1,4.7E1,8.9E1,8.1E1,1.06E2,-5.1481247E-2,2.0333333E2,1.03E2,5.8E1,1.25E2,1.02E2,7.7E1,4.9E1,-8.1087425E-2,3.64E1,7E1,3.3E1,8E1,-5.546043E-2,8.196752E-3,4.236619E-2,-5.5651825E-2,-4.3922327E-2,6.885842E-2,-4.7757156E-2,9.499016E-2,5.1807623E-2,-1.5381343E-2,2.4804397E-2,-2.9509498E-2,-1.7384445E-2,5.6908377E-2,1.38010355E-2,-7.966127E-2,1.0450773E-2,3.627732E-2,7.721979E-3,5.9603818E-2,2.1029763E-2,4.742978E-2,4.7510244E-2,-1.7974172E-2,5.3589415E-2,3.6865003E-2,5.6485295E-2,1.9531008E-2],"split_indices":[5,0,5,11,5,6,5,4,1,3,5,8,8,7,0,3,6,4,0,4,3,7,6,6,0,0,0,2,10,2,7,0,0,0,0,0,0,0,0,0,0,0,0,0,0,0,0,0,0,0,0,0,0,0,0,0,0,0,0],"split_type":[0,0,0,0,0,0,0,0,0,0,0,0,0,0,0,0,0,0,0,0,0,0,0,0,0,0,0,0,0,0,0,0,0,0,0,0,0,0,0,0,0,0,0,0,0,0,0,0,0,0,0,0,0,0,0,0,0,0,0],"sum_hessian":[3.5323997E3,2.0759624E3,1.4564374E3,1.0614872E3,1.01447516E3,4.949939E2,9.614434E2,1.0487288E3,1.275837E1,2.9621945E2,7.1825574E2,4.492694E2,4.57245E1,2.385675E2,7.228759E2,2.68114E2,7.806148E2,9.852085E0,2.906286E0,1.6116272E2,1.3505673E2,3.7986478E2,3.3839093E2,3.788817E1,4.1138123E2,4.4095264E1,1.6292335E0,7.961406E1,1.5895345E2,9.374102E1,6.291349E2,1.8272986E2,8.5384155E1,4.0760603E0,7.7653876E2,1.4977148E0,8.35437E0,1.587788E2,2.383941E0,2.2151398E1,1.12905334E2,3.3812265E2,4.174213E1,3.202401E2,1.815081E1,1.5939896E1,2.1948273E1,3.2057748E2,9.080375E1,4.8036876E0,3.9291576E1,4.805529E1,3.155877E1,1.55721E2,3.2324514E0,6.1585804E1,3.215522E1,6.2525604E2,3.8788435E0],"tree_param":{"num_deleted":"0","num_feature":"12","num_nodes":"59","size_leaf_vector":"1"}},{"base_weights":[-4.4363923E-4,-4.3346003E-1,9.509915E-1,-9.382361E-1,-5.4746952E-2,6.649208E-1,1.0799842E0,-9.826294E-1,3.7604496E-1,-3.9373958E-1,1.5836298E-1,-7.6735266E-2,6.765626E-1,6.11554E-1,1.0864803E0,-1.0019082E0,4.8533657E-1,-6.0783055E-2,7.1822655E-1,-2.7213916E-1,-1.0320139E0,-1.1318929E0,2.0339213E-1,-5.306267E-1,6.92358E-1,9.9574137E-1,-6.3250594E-2,9.7614485E-1,1.1090926E0,-2.5728663E-2,-5.197641E-2,4.710303E-2,-4.9773786E-2,4.8447143E-2,-6.542303E-2,-2.4835287E-2,5.4866476E-3,-6.196905E-2,-1.03005795E-2,-6.916386E-2,5.6289107E-2,3.6263098E-3,2.8663337E-2,-8.953051E-2,4.4981062E-2,5.097836E-2,3.1559218E-2,5.4784466E-2,1.8877467E-2,4.9777452E-2,-1.1850693E-2,5.552659E-2,1.6727084E-2],"categories":[],"categories_nodes":[],"categories_segments":[],"categories_sizes":[],"default_left":[0,0,0,0,0,0,0,0,0,0,0,0,0,0,0,0,0,0,0,0,0,0,0,0,0,0,0,0,0,0,0,0,0,0,0,0,0,0,0,0,0,0,0,0,0,0,0,0,0,0,0,0,0],"id":23,"left_children":[1,3,5,7,9,11,13,15,17,19,21,-1,23,25,27,29,31,-1,33,35,37,39,41,43,45,47,-1,49,51,-1,-1,-1,-1,-1,-1,-1,-1,-1,-1,-1,-1,-1,-1,-1,-1,-1,-1,-1,-1,-1,-1,-1,-1],"loss_changes":[1.4263928E3,4.5479633E2,3.9241455E1,5.9873413E1,9.834742E1,9.722885E0,1.6017456E0,2.8413574E1,1.941639E1,4.050006E1,4.8804268E1,0E0,6.8132935E0,1.0252966E1,7.4676514E-1,1.7328247E1,1.0044796E1,0E0,1.5825845E1,3.8018986E1,1.40855255E1,1.7644966E1,3.9103138E1,1.049907E1,6.0443115E0,2.6066208E-1,0E0,3.3682709E0,2.9864502E-1,0E0,0E0,0E0,0E0,0E0,0E0,0E0,0E0,0E0,0E0,0E0,0E0,0E0,0E0,0E0,0E0,0E0,0E0,0E0,0E0,0E0,0E0,0E0,0E0],"parents":[2147483647,0,0,1,1,2,2,3,3,4,4,5,5,6,6,7,7,8,8,9,9,10,10,12,12,13,13,14,14,15,15,16,16,18,18,19,19,20,20,21,21,22,22,23,23,24,24,25,25,27,27,28,28],"right_children":[2,4,6,8,10,12,14,16,18,20,22,-1,24,26,28,30,32,-1,34,36,38,40,42,44,46,48,-1,50,52,-1,-1,-1,-1,-1,-1,-1,-1,-1,-1,-1,-1,-1,-1,-1,-1,-1,-1,-1,-1,-1,-1,-1,-1],"split_conditions":[6.2E0,3.9E1,6.7E0,5.9E0,6E1,2.8E1,3.2E1,1.2E1,2.6E1,6.4E1,8.22E1,-7.6735266E-2,4.5E1,2.98E1,7.1E0,9.6E1,2E0,-6.0783055E-2,3.7E1,1.083E2,8.9E1,1.23E2,3.32E1,8.8E1,3.6E1,2.3E1,-6.3250594E-2,2.13E2,1.5E2,-2.5728663E-2,-5.197641E-2,4.710303E-2,-4.9773786E-2,4.8447143E-2,-6.542303E-2,-2.4835287E-2,5.4866476E-3,-6.196905E-2,-1.03005795E-2,-6.916386E-2,5.6289107E-2,3.6263098E-3,2.8663337E-2,-8.953051E-2,4.4981062E-2,5.097836E-2,3.1559218E-2,5.4784466E-2,1.8877467E-2,4.9777452E-2,-1.1850693E-2,5.552659E-2,1.6727084E-2],"split_indices":[5,0,5,5,0,7,0,11,0,7,3,0,10,2,5,4,1,0,0,3,7,6,2,8,7,0,0,8,10,0,0,0,0,0,0,0,0,0,0,0,0,0,0,0,0,0,0,0,0,0,0,0,0],"split_type":[0,0,0,0,0,0,0,0,0,0,0,0,0,0,0,0,0,0,0,0,0,0,0,0,0,0,0,0,0,0,0,0,0,0,0,0,0,0,0,0,0,0,0,0,0,0,0,0,0,0,0,0,0],"sum_hessian":[3.4602268E3,2.378342E3,1.0818846E3,1.01885767E3,1.3594845E3,3.38139E2,7.4374567E2,9.8581165E2,3.304605E1,5.2442975E2,8.350547E2,1.0914545E0,3.3704755E2,1.1474243E1,7.322714E2,9.733462E2,1.24654665E1,5.3954897E0,2.7650562E1,4.41705E2,8.272477E1,2.7346172E1,8.077085E2,3.9321647E0,3.331154E2,9.913952E0,1.5602916E0,1.3206079E2,6.0021063E2,7.080486E1,9.025413E2,9.805116E0,2.660351E0,2.5071001E1,2.5795612E0,2.779506E2,1.6375441E2,6.572429E1,1.700048E1,2.495484E1,2.3913343E0,5.975016E2,2.1020692E2,1.9565634E0,1.9756013E0,5.0000954E1,2.8311444E2,7.869259E0,2.0446932E0,1.3015831E2,1.9024781E0,5.9866455E2,1.5460912E0],"tree_param":{"num_deleted":"0","num_feature":"12","num_nodes":"53","size_leaf_vector":"1"}},{"base_weights":[-4.8644832E-4,-4.1876787E-1,9.319911E-1,-9.196675E-1,-5.2382678E-2,6.427098E-1,1.0649768E0,-9.640307E-1,3.5515976E-1,-3.77346E-1,1.5091676E-1,-7.3954485E-2,6.542668E-1,5.9642273E-1,1.0715421E0,-9.832692E-1,4.6286705E-1,-5.94755E-2,6.79439E-1,-9.97908E-1,-2.541831E-1,-1.1074673E0,1.9370084E-1,2.419328E-1,7.0213145E-1,9.7872496E-1,-6.1597645E-2,1.1182797E0,1.0118275E0,-2.4855008E-2,-5.1072624E-2,4.4961013E-2,-4.882176E-2,4.59081E-2,-6.352065E-2,3.6969688E-2,-5.9296317E-2,-6.758151E-3,-4.2903323E-2,-6.7859456E-2,5.48939E-2,6.771209E-3,4.804462E-2,5.95342E-2,-9.810517E-3,3.2250695E-2,5.445658E-2,5.4116566E-2,1.763973E-2,5.6146313E-2,5.095165E-3,3.980389E-2,5.2680444E-2],"categories":[],"categories_nodes":[],"categories_segments":[],"categories_sizes":[],"default_left":[0,0,0,0,0,0,0,0,0,0,0,0,0,0,0,0,0,0,0,0,0,0,0,0,0,0,0,0,0,0,0,0,0,0,0,0,0,0,0,0,0,0,0,0,0,0,0,0,0,0,0,0,0],"id":24,"left_children":[1,3,5,7,9,11,13,15,17,19,21,-1,23,25,27,29,31,-1,33,35,37,39,41,43,45,47,-1,49,51,-1,-1,-1,-1,-1,-1,-1,-1,-1,-1,-1,-1,-1,-1,-1,-1,-1,-1,-1,-1,-1,-1,-1,-1],"loss_changes":[1.3233994E3,4.2981772E2,3.97359E1,5.630121E1,8.949949E1,9.143677E0,1.5704956E0,2.6710938E1,1.784152E1,3.9590355E1,4.509172E1,0E0,6.3885956E0,9.71986E0,8.4198E-1,1.7017029E1,9.296282E0,0E0,1.4544836E1,2.8964668E1,3.1244423E1,1.6666283E1,3.5949886E1,1.5235181E1,5.8673553E0,3.076105E-1,0E0,1.7138977E0,2.0544434E0,0E0,0E0,0E0,0E0,0E0,0E0,0E0,0E0,0E0,0E0,0E0,0E0,0E0,0E0,0E0,0E0,0E0,0E0,0E0,0E0,0E0,0E0,0E0,0E0],"parents":[2147483647,0,0,1,1,2,2,3,3,4,4,5,5,6,6,7,7,8,8,9,9,10,10,12,12,13,13,14,14,15,15,16,16,18,18,19,19,20,20,21,21,22,22,23,23,24,24,25,25,27,27,28,28],"right_children":[2,4,6,8,10,12,14,16,18,20,22,-1,24,26,28,30,32,-1,34,36,38,40,42,44,46,48,-1,50,52,-1,-1,-1,-1,-1,-1,-1,-1,-1,-1,-1,-1,-1,-1,-1,-1,-1,-1,-1,-1,-1,-1,-1,-1],"split_conditions":[6.2E0,3.9E1,6.7E0,5.9E0,6E1,2.8E1,3.2E1,1.2E1,2.6E1,8.9E1,8.22E1,-7.3954485E-2,4.6E1,2.98E1,2E0,9.6E1,2E0,-5.94755E-2,3.7E1,4.5E0,1.35E2,1.23E2,1.21E2,3.4E1,1.25E2,1.14E2,-6.1597645E-2,8E1,7.1E0,-2.4855008E-2,-5.1072624E-2,4.4961013E-2,-4.882176E-2,4.59081E-2,-6.352065E-2,3.6969688E-2,-5.9296317E-2,-6.758151E-3,-4.2903323E-2,-6.7859456E-2,5.48939E-2,6.771209E-3,4.804462E-2,5.95342E-2,-9.810517E-3,3.2250695E-2,5.445658E-2,5.4116566E-2,1.763973E-2,5.6146313E-2,5.095165E-3,3.980389E-2,5.2680444E-2],"split_indices":[5,0,5,5,0,7,0,11,0,3,3,0,0,2,1,4,1,0,0,11,4,6,6,7,6,4,0,7,5,0,0,0,0,0,0,0,0,0,0,0,0,0,0,0,0,0,0,0,0,0,0,0,0],"split_type":[0,0,0,0,0,0,0,0,0,0,0,0,0,0,0,0,0,0,0,0,0,0,0,0,0,0,0,0,0,0,0,0,0,0,0,0,0,0,0,0,0,0,0,0,0,0,0,0,0,0,0,0,0],"sum_hessian":[3.3910005E3,2.34131E3,1.0496906E3,9.884505E2,1.3528595E3,3.32419E2,7.172715E2,9.554454E2,3.300514E1,5.2031213E2,8.325474E2,1.1129054E0,3.313061E2,1.1180563E1,7.0609094E2,9.4304144E2,1.2403919E1,5.2637343E0,2.7741405E1,8.498895E1,4.3532318E2,2.6556978E1,8.059904E2,3.5088432E1,2.9621768E2,9.631399E0,1.5491643E0,3.8613968E2,3.1995126E2,6.96929E1,8.733485E2,9.8062105E0,2.5977094E0,2.5186857E1,2.5545492E0,8.013266E0,7.697569E1,3.6467313E2,7.065005E1,2.4201157E1,2.3558216E0,7.501823E2,5.5808098E1,1.0542416E1,2.4546019E1,2.6044513E2,3.577254E1,7.6379757E0,1.9934232E0,3.8427805E2,1.861624E0,5.516175E1,2.647895E2],"tree_param":{"num_deleted":"0","num_feature":"12","num_nodes":"53","size_leaf_vector":"1"}},{"base_weights":[-4.7176422E-4,-4.044418E-1,9.1358E-1,-9.015933E-1,-5.0082177E-2,6.2152314E-1,1.0505018E0,-9.4591075E-1,3.3568788E-1,-5.1522195E-1,8.8648416E-2,-7.136323E-2,6.3298786E-1,5.817971E-1,1.0571371E0,-9.6510667E-1,4.4162866E-1,-5.8246084E-2,6.434839E-1,-8.2655865E-1,-1.4378548E-1,-6.10242E-1,1.4716415E-1,-5.3909636E-1,6.487073E-1,9.9445325E-1,-5.4211546E-2,9.401373E-1,1.0814224E0,-4.9145587E-2,5.0336034E-3,-4.933059E-2,4.3118294E-2,4.3554734E-2,-6.1746486E-2,-4.3798E-2,8.9656286E-2,4.4797283E-2,-1.7679347E-2,-4.1094888E-2,6.932087E-2,2.0483606E-2,4.845152E-4,-8.681435E-2,4.3539934E-2,2.2728289E-2,3.7452847E-2,5.3475153E-2,1.8934784E-2,4.8022818E-2,-1.2969724E-2,5.414744E-2,1.5015951E-2],"categories":[],"categories_nodes":[],"categories_segments":[],"categories_sizes":[],"default_left":[0,0,0,0,0,0,0,0,0,0,0,0,0,0,0,0,0,0,0,0,0,0,0,0,0,0,0,0,0,0,0,0,0,0,0,0,0,0,0,0,0,0,0,0,0,0,0,0,0,0,0,0,0],"id":25,"left_children":[1,3,5,7,9,11,13,15,17,19,21,-1,23,25,27,29,31,-1,33,35,37,39,41,43,45,47,-1,49,51,-1,-1,-1,-1,-1,-1,-1,-1,-1,-1,-1,-1,-1,-1,-1,-1,-1,-1,-1,-1,-1,-1,-1,-1],"loss_changes":[1.228109E3,4.063028E2,4.0111877E1,5.2947754E1,8.701388E1,8.603554E0,1.5387573E0,2.5114197E1,1.6420624E1,3.5703506E1,4.257945E1,0E0,6.368805E0,9.2536545E0,9.2022705E-1,1.7453918E1,8.863545E0,0E0,1.338827E1,2.335241E1,3.1393064E1,3.514342E1,3.462256E1,9.731346E0,5.9486847E0,5.9535027E-2,0E0,3.2916183E0,3.3984375E-1,0E0,0E0,0E0,0E0,0E0,0E0,0E0,0E0,0E0,0E0,0E0,0E0,0E0,0E0,0E0,0E0,0E0,0E0,0E0,0E0,0E0,0E0,0E0,0E0],"parents":[2147483647,0,0,1,1,2,2,3,3,4,4,5,5,6,6,7,7,8,8,9,9,10,10,12,12,13,13,14,14,15,15,16,16,18,18,19,19,20,20,21,21,22,22,23,23,24,24,25,25,27,27,28,28],"right_children":[2,4,6,8,10,12,14,16,18,20,22,-1,24,26,28,30,32,-1,34,36,38,40,42,44,46,48,-1,50,52,-1,-1,-1,-1,-1,-1,-1,-1,-1,-1,-1,-1,-1,-1,-1,-1,-1,-1,-1,-1,-1,-1,-1,-1],"split_conditions":[6.2E0,3.9E1,6.7E0,5.9E0,5.5E0,2.8E1,3.2E1,1.2E1,2.6E1,1.011E2,8.68E1,-7.136323E-2,4.5E1,1.15E2,7.1E0,8.6E1,8.63E1,-5.8246084E-2,3.7E1,2.0333333E2,1.03E2,1.25E2,9.29E1,8.8E1,4.5E1,2.89E1,-5.4211546E-2,2.13E2,1.5E2,-4.9145587E-2,5.0336034E-3,-4.933059E-2,4.3118294E-2,4.3554734E-2,-6.1746486E-2,-4.3798E-2,8.9656286E-2,4.4797283E-2,-1.7679347E-2,-4.1094888E-2,6.932087E-2,2.0483606E-2,4.845152E-4,-8.681435E-2,4.3539934E-2,2.2728289E-2,3.7452847E-2,5.3475153E-2,1.8934784E-2,4.8022818E-2,-1.2969724E-2,5.414744E-2,1.5015951E-2],"split_indices":[5,0,5,5,5,7,0,11,0,3,3,0,10,4,5,7,3,0,0,4,3,6,3,8,7,2,0,8,10,0,0,0,0,0,0,0,0,0,0,0,0,0,0,0,0,0,0,0,0,0,0,0,0],"split_type":[0,0,0,0,0,0,0,0,0,0,0,0,0,0,0,0,0,0,0,0,0,0,0,0,0,0,0,0,0,0,0,0,0,0,0,0,0,0,0,0,0,0,0,0,0,0,0,0,0,0,0,0,0],"sum_hessian":[3.3239592E3,2.3055615E3,1.01839764E3,9.5882556E2,1.346736E3,3.2682123E2,6.915764E2,9.258969E2,3.2928642E1,3.087699E2,1.0379661E3,1.1314706E0,3.2568976E2,1.0891604E1,6.806848E2,9.135627E2,1.2334233E1,5.1305857E0,2.7798058E1,1.673078E2,1.414621E2,7.94628E1,9.5850323E2,3.8695576E0,3.218202E2,9.052503E0,1.8391023E0,1.2382847E2,5.568563E2,8.986278E2,1.4934872E1,2.500623E0,9.833611E0,2.5272057E1,2.5260012E0,1.6486444E2,2.4433475E0,2.3202927E1,1.1825917E2,7.237866E1,7.0841303E0,3.2875726E2,6.29746E2,1.9674375E0,1.9021201E0,1.1154654E2,2.1027367E2,7.412198E0,1.6403047E0,1.21961845E2,1.8666186E0,5.5538464E2,1.4716871E0],"tree_param":{"num_deleted":"0","num_feature":"12","num_nodes":"53","size_leaf_vector":"1"}},{"base_weights":[-4.5147445E-4,-3.9035875E-1,8.954868E-1,-8.83935E-1,-4.774585E-2,6.0066354E-1,1.0364839E0,-9.2819065E-1,3.1746912E-1,-4.9534363E-1,8.439762E-2,-6.894451E-2,6.1202824E-1,9.02002E-1,1.065057E0,-9.4735163E-1,4.2104676E-1,-5.7086606E-2,6.100293E-1,-9.915874E-1,-2.641012E-1,4.034654E-2,9.861985E-1,3.1288454E-1,6.7768437E-1,9.3347627E-1,-2.5005331E-2,1.0666072E0,1.3806219E-2,-2.2340544E-2,-4.9373824E-2,4.1899476E-2,-4.814516E-2,4.1365307E-2,-6.0086824E-2,-5.4034937E-2,8.5422784E-2,2.10985E-2,-2.8316975E-2,-3.954285E-2,5.296649E-3,-5.575483E-2,5.418257E-2,3.4491863E-2,-4.4487398E-2,3.4634285E-2,-2.199599E-2,4.770438E-2,-1.1354363E-2,4.6517745E-2,5.4279275E-2],"categories":[],"categories_nodes":[],"categories_segments":[],"categories_sizes":[],"default_left":[0,0,0,0,0,0,0,0,0,0,0,0,0,0,0,0,0,0,0,0,0,0,0,0,0,0,0,0,0,0,0,0,0,0,0,0,0,0,0,0,0,0,0,0,0,0,0,0,0,0,0],"id":26,"left_children":[1,3,5,7,9,11,13,15,17,19,21,-1,23,25,27,29,31,-1,33,35,37,39,41,43,45,47,-1,49,-1,-1,-1,-1,-1,-1,-1,-1,-1,-1,-1,-1,-1,-1,-1,-1,-1,-1,-1,-1,-1,-1,-1],"loss_changes":[1.1392736E3,3.84227E2,4.0486084E1,4.9794983E1,7.9438644E1,8.095055E0,1.6046753E0,2.3619324E1,1.5135096E1,3.486586E1,4.116506E1,0E0,6.095886E0,5.9178543E0,3.7200928E-1,1.7351562E1,8.463519E0,0E0,1.2341258E1,2.5170753E1,4.3820488E1,5.405319E1,1.1091927E1,2.7660198E1,4.70578E0,3.1148376E0,0E0,3.9593506E-1,0E0,0E0,0E0,0E0,0E0,0E0,0E0,0E0,0E0,0E0,0E0,0E0,0E0,0E0,0E0,0E0,0E0,0E0,0E0,0E0,0E0,0E0,0E0],"parents":[2147483647,0,0,1,1,2,2,3,3,4,4,5,5,6,6,7,7,8,8,9,9,10,10,12,12,13,13,14,14,15,15,16,16,18,18,19,19,20,20,21,21,22,22,23,23,24,24,25,25,27,27],"right_children":[2,4,6,8,10,12,14,16,18,20,22,-1,24,26,28,30,32,-1,34,36,38,40,42,44,46,48,-1,50,-1,-1,-1,-1,-1,-1,-1,-1,-1,-1,-1,-1,-1,-1,-1,-1,-1,-1,-1,-1,-1,-1,-1],"split_conditions":[6.2E0,3.9E1,6.7E0,5.9E0,5.5E0,2.8E1,7.1E0,1.2E1,2.6E1,9.22E1,1.25E2,-6.894451E-2,5.2E1,2.13E2,3.89E2,9.6E1,2E0,-5.7086606E-2,3.7E1,2.0333333E2,5E1,8.68E1,4.9E1,1.24666664E2,2.1E2,1.8466667E2,-2.5005331E-2,4.7E1,1.3806219E-2,-2.2340544E-2,-4.9373824E-2,4.1899476E-2,-4.814516E-2,4.1365307E-2,-6.0086824E-2,-5.4034937E-2,8.5422784E-2,2.10985E-2,-2.8316975E-2,-3.954285E-2,5.296649E-3,-5.575483E-2,5.418257E-2,3.4491863E-2,-4.4487398E-2,3.4634285E-2,-2.199599E-2,4.770438E-2,-1.1354363E-2,4.6517745E-2,5.4279275E-2],"split_indices":[5,0,5,5,5,7,5,11,0,3,6,0,0,8,6,4,1,0,0,4,9,3,0,4,9,4,0,0,0,0,0,0,0,0,0,0,0,0,0,0,0,0,0,0,0,0,0,0,0,0,0],"split_type":[0,0,0,0,0,0,0,0,0,0,0,0,0,0,0,0,0,0,0,0,0,0,0,0,0,0,0,0,0,0,0,0,0,0,0,0,0,0,0,0,0,0,0,0,0,0,0,0,0,0,0],"sum_hessian":[3.259283E3,2.271363E3,9.879201E2,9.300013E2,1.3413617E3,3.213148E2,6.666053E2,8.971796E2,3.282166E1,3.0511713E2,1.0362445E3,1.147271E0,3.201675E2,1.2252091E2,5.4408435E2,8.849106E2,1.2269059E1,4.996763E0,2.7824894E1,9.59409E1,2.0917624E2,9.8897974E2,4.7264843E1,5.866093E1,2.615066E2,1.2015787E2,2.3630488E0,5.426662E2,1.4182028E0,6.657322E1,8.1833734E2,9.731688E0,2.5373719E0,2.5330494E1,2.4944005E0,9.3456245E1,2.4846532E0,6.3847748E1,1.4532849E2,7.151996E1,9.174598E2,1.6320447E0,4.5632797E1,4.4986706E1,1.3674223E1,2.5841812E2,3.0884686E0,1.1823594E2,1.9219248E0,7.246124E1,4.7020493E2],"tree_param":{"num_deleted":"0","num_feature":"12","num_nodes":"51","size_leaf_vector":"1"}},{"base_weights":[-4.805037E-4,-3.768918E-1,8.776782E-1,-8.666734E-1,-4.5638956E-2,5.8051306E-1,1.0226412E0,-9.1085094E-1,3.0036885E-1,-3.4887403E-1,1.4228831E-1,-6.6682935E-2,5.9177244E-1,8.846078E-1,1.0521948E0,-9.2996335E-1,4.0190685E-1,-5.5989902E-2,5.78797E-1,-2.3467389E-1,-9.75049E-1,9.567534E-3,5.357751E-1,9.324012E-1,5.2892494E-1,9.164679E-1,-2.39059E-2,8.706518E-1,1.0663788E0,-3.8809966E-2,-5.337708E-2,-4.865804E-2,4.023556E-2,-6.0960572E-2,3.9346006E-2,-7.362E-2,-8.352023E-3,-6.736263E-2,-2.2940544E-2,-3.1978588E-3,3.908644E-2,3.4890886E-2,1.0015468E-2,2.5531137E-3,5.1402934E-2,-7.6217664E-4,3.4717306E-2,4.686981E-2,-1.0926845E-2,5.086121E-2,2.986906E-2,5.3479254E-2,2.2493433E-2],"categories":[],"categories_nodes":[],"categories_segments":[],"categories_sizes":[],"default_left":[0,0,0,0,0,0,0,0,0,0,0,0,0,0,0,0,0,0,0,0,0,0,0,0,0,0,0,0,0,0,0,0,0,0,0,0,0,0,0,0,0,0,0,0,0,0,0,0,0,0,0,0,0],"id":27,"left_children":[1,3,5,7,9,11,13,15,17,19,21,-1,23,25,27,29,31,-1,33,35,37,39,41,43,45,47,-1,49,51,-1,-1,-1,-1,-1,-1,-1,-1,-1,-1,-1,-1,-1,-1,-1,-1,-1,-1,-1,-1,-1,-1,-1,-1],"loss_changes":[1.0570322E3,3.6311584E2,4.0737244E1,4.6831116E1,7.620212E1,7.6189804E0,1.694519E0,2.2210632E1,1.3969143E1,3.63549E1,4.311818E1,0E0,6.2659073E0,5.6381226E0,4.229126E-1,1.7325195E1,8.087553E0,0E0,1.1746254E1,3.6084873E1,1.4483467E1,3.51634E1,1.1180687E1,3.9831772E0,2.4212769E1,2.9929428E0,0E0,1.1338081E0,4.7216797E-1,0E0,0E0,0E0,0E0,0E0,0E0,0E0,0E0,0E0,0E0,0E0,0E0,0E0,0E0,0E0,0E0,0E0,0E0,0E0,0E0,0E0,0E0,0E0,0E0],"parents":[2147483647,0,0,1,1,2,2,3,3,4,4,5,5,6,6,7,7,8,8,9,9,10,10,12,12,13,13,14,14,15,15,16,16,18,18,19,19,20,20,21,21,22,22,23,23,24,24,25,25,27,27,28,28],"right_children":[2,4,6,8,10,12,14,16,18,20,22,-1,24,26,28,30,32,-1,34,36,38,40,42,44,46,48,-1,50,52,-1,-1,-1,-1,-1,-1,-1,-1,-1,-1,-1,-1,-1,-1,-1,-1,-1,-1,-1,-1,-1,-1,-1,-1],"split_conditions":[6.2E0,3.9E1,6.7E0,5.9E0,6E1,2.8E1,7.1E0,1.2E1,2.6E1,6.4E1,3.32E1,-6.6682935E-2,3.6E1,2.13E2,4.3E1,1.15E2,8.63E1,-5.5989902E-2,5.5E0,3E1,7.7E1,1.14E2,5.2E1,2.59E1,4.5E1,1.8466667E2,-2.39059E-2,1.20666664E2,8E1,-3.8809966E-2,-5.337708E-2,-4.865804E-2,4.023556E-2,-6.0960572E-2,3.9346006E-2,-7.362E-2,-8.352023E-3,-6.736263E-2,-2.2940544E-2,-3.1978588E-3,3.908644E-2,3.4890886E-2,1.0015468E-2,2.5531137E-3,5.1402934E-2,-7.6217664E-4,3.4717306E-2,4.686981E-2,-1.0926845E-2,5.086121E-2,2.986906E-2,5.3479254E-2,2.2493433E-2],"split_indices":[5,0,5,5,0,7,5,11,0,7,2,0,7,8,0,4,3,0,11,9,7,6,7,2,7,4,0,4,7,0,0,0,0,0,0,0,0,0,0,0,0,0,0,0,0,0,0,0,0,0,0,0,0],"split_type":[0,0,0,0,0,0,0,0,0,0,0,0,0,0,0,0,0,0,0,0,0,0,0,0,0,0,0,0,0,0,0,0,0,0,0,0,0,0,0,0,0,0,0,0,0,0,0,0,0,0,0,0,0],"sum_hessian":[3.1958086E3,2.2373628E3,9.584456E2,9.0202954E2,1.3353334E3,3.1589172E2,6.425539E2,8.693408E2,3.268872E1,